437 100
president 0.224684 0.074676 0.35824 -0.345936 -0.084573 0.234572 -0.149603 0.400363 -0.045271 0.034957 0.166649 -0.332616 0.144014 0.284404 -0.386329 -0.030238 -0.126394 -0.113541 -0.142365 -0.426276 0.068393 0.085499 0.167545 -0.310927 0.146171 -0.076384 -0.317387 -0.011343 0.173279 0.067369 0.210886 -0.085404 0.061601 -0.170449 0.312388 -0.026296 0.200377 0.394463 -0.242691 0.037744 0.034767 -0.026415 0.140548 -0.072096 -0.090888 0.193274 -0.147998 -0.38507 0.10371 -0.179895 0.001841 0.213484 -0.118913 0.124352 -0.075498 -0.166094 0.129967 0.333395 -0.014264 -0.018255 -0.267351 -0.19754 -0.335749 0.225004 -0.080856 0.277881 0.494078 -0.093696 0.186739 -0.296725 0.161191 -0.251206 0.175837 0.077185 0.750736 -0.047153 -0.069425 -0.279132 -0.388861 -0.096011 0.042487 0.446317 0.012951 0.071835 0.477421 -0.037213 0.393132 0.224527 0.340149 0.139226 0.032066 -0.023171 0.083484 -0.142774 -0.348897 0.081327 -0.009577 0.037676 0.071787 0.099976
monk -0.23298 -0.233294 0.097446 0.0799 0.160921 -0.288834 0.234644 0.298897 0.236124 -0.197904 -0.023191 -0.132498 -0.067737 0.076337 0.160597 -0.202673 -0.402536 0.270116 -0.211909 0.362615 0.317494 0.422484 0.096747 -0.352046 0.256666 0.264321 0.261411 -0.123253 -0.320242 0.288983 0.063336 0.06916 0.00787 0.351015 0.258475 -0.498736 0.16607 0.146534 -0.162939 -0.445558 -0.074642 0.007412 0.189144 0.313419 0.590683 -0.006965 0.149323 -0.256229 0.51661 -0.002071 -0.006553 0.033077 0.392492 -0.079032 -0.344752 0.132721 0.402971 -0.610006 -0.213544 -0.222579 -0.064984 0.290434 -0.189047 0.034291 0.260415 0.235907 0.183143 -0.127089 -0.305042 -0.430913 0.141968 0.074106 -0.023234 0.18092 0.3417 -0.197058 -0.34676 -0.240932 0.125976 -0.090208 0.202904 0.173204 -0.156206 -0.014035 0.619408 -0.220622 -0.445024 -0.058825 0.242737 0.035293 -0.224586 0.280342 -0.178554 0.340518 -0.160424 0.24955 -0.24112 -0.248564 0.076263 -0.304508
chance -0.491873 0.16399 -0.234449 0.063022 -0.138507 -0.011245 -0.353242 0.034327 0.056345 -0.076719 0.089564 -0.230457 0.189701 0.158668 -0.018591 -0.272097 -0.257518 0.103277 0.09164 0.071347 -0.079576 -0.133895 0.122833 0.160774 0.302225 -0.096264 -0.147024 -0.068926 -0.285902 -0.045137 0.092125 -0.221927 -0.043673 -0.029513 -0.064681 -0.09107 0.32972 -0.083071 -0.356846 -0.098652 -0.064565 -0.455771 0.426834 0.129228 0.401044 -0.033088 -0.11202 0.403727 0.041089 -0.210922 -0.052905 0.274692 -0.278508 0.046401 0.20542 -0.422964 -0.004603 0.102249 0.299354 0.20714 0.123948 -0.064975 -0.212397 -0.273753 -0.12298 0.040541 -0.079739 -0.108391 0.012946 0.282385 0.153302 0.212499 -0.203655 -0.04841 0.470482 -0.580539 0.10155 -0.14713 -0.068077 0.217149 0.02274 0.097046 0.238138 0.160712 0.273602 -0.095005 -0.409067 -0.265003 -0.039185 -0.413179 -0.222632 -0.177339 -0.055338 -0.302881 0.249644 0.245852 -0.225185 -0.535688 -0.3013 -0.526704
party -0.144193 0.217281 0.184312 -0.254826 0.392043 -0.169251 -0.187725 0.316116 -0.111953 0.087833 0.335751 -0.360194 -0.12774 0.371946 0.106003 -0.004802 0.119045 0.175899 0.451889 -0.432426 0.094493 -0.062289 0.157278 -0.148502 0.386654 -0.166831 0.352242 -0.115681 -0.0273 -0.076768 0.134005 -0.243129 0.21396 -0.009912 -0.134278 0.021434 0.202889 0.370448 -0.160106 0.196462 -0.02064 -0.102644 0.043179 0.198375 0.222516 0.031619 0.017322 0.131633 -0.153153 -0.018248 0.10261 0.29253 0.277691 -0.223106 -0.0438 0.181778 0.308838 0.024609 -0.005982 -0.279309 0.263916 -0.116664 -0.022288 0.193513 0.352983 -0.040645 0.442106 -0.064497 0.388623 -0.061554 0.311569 0.132946 0.330626 0.283885 0.358053 -0.208419 -0.252352 -0.147727 0.057509 -0.20348 0.390658 -0.115537 0.312397 -0.216978 0.207094 -0.254967 -0.193152 0.103384 -0.031767 -0.041226 0.218139 -0.03003 -0.004686 -0.056071 -0.188383 -0.125349 -0.123513 0.189856 -0.058635 -0.200954
fuck 0.331513 -0.041754 -0.257196 -0.029635 -0.389124 -0.280861 -0.071776 0.368487 0.363192 0.182369 0.172784 -0.060097 -0.355271 -0.449697 0.009489 0.080267 -0.082274 -0.05821 -0.215952 -0.314962 -0.377011 0.418566 0.189536 0.028938 0.276612 -0.087553 0.172701 0.22448 0.160194 8.83E-4 -0.226223 -0.270398 0.084288 -0.033813 0.562768 -0.289731 -0.017015 -0.394337 0.25394 0.055533 0.041252 -0.278697 0.251155 0.152952 0.089478 0.166541 -0.341764 -0.32598 0.006167 0.042907 0.271782 -0.082842 -0.354657 -0.235982 0.147411 -0.344842 -0.082512 -0.048211 0.157523 -0.210074 -0.245581 0.337334 0.084382 -0.226289 -0.001495 0.388235 -0.001582 -0.036045 -0.194957 0.454908 -0.211347 -0.109998 0.33815 0.249425 0.008179 -0.273302 -0.2362 -0.025173 0.12857 -0.046214 -0.007476 0.041062 0.055251 -0.027026 -0.106448 0.104775 -0.505072 -0.15093 0.05348 -0.192158 0.2042 0.196353 0.071634 -0.06223 0.119506 -0.377821 -0.2445 -0.270017 -0.330111 -0.613836
psychology 0.227973 -0.036184 -0.309415 -0.399456 -0.174735 0.030613 -0.212318 0.161088 0.382131 0.424315 0.148243 -0.00774 0.499373 0.166891 -0.12575 -0.086953 0.11253 -0.547843 -0.017063 -0.161921 -0.072569 0.48856 0.320401 0.074792 0.375378 0.417678 0.067479 -0.195227 0.153647 0.479524 0.56211 0.4499 -0.217323 0.487459 -0.117602 -0.102914 -0.243964 0.146033 -0.080057 0.070982 -0.048138 0.151025 -0.157462 -0.033011 0.1931 -0.200372 -0.197811 0.144191 0.23161 0.007225 -0.287154 0.245359 0.205129 0.270567 -0.311064 0.013113 0.353695 0.125457 -0.066569 -0.06617 -0.319285 0.338749 -0.119134 -0.30284 -0.046171 -0.085151 -0.90173 0.395591 0.208862 0.747701 0.487978 0.070955 0.102408 0.348068 0.564284 0.098591 -0.072387 -0.269099 0.151141 0.03898 0.064256 -0.009262 -0.393871 -0.409799 -0.110799 0.606552 0.250943 0.210936 0.098461 0.118799 0.126694 -0.172676 0.526932 0.053537 0.149207 0.264209 0.210347 -0.097725 -0.263311 -0.274744
government 0.031675 0.097461 0.061718 0.006767 -0.111323 0.033582 -0.095394 -0.090439 -0.186344 0.056241 0.252814 -0.141068 0.417859 0.156742 -0.100347 -0.006272 0.220352 0.278612 0.035395 -0.095155 -0.072177 0.014997 0.43347 -0.169621 0.068131 0.169727 -0.04693 -0.041941 0.379727 -0.059785 -0.037148 0.041411 0.257847 0.134879 -0.10759 -0.071682 -0.171997 0.442658 -0.196385 0.276086 0.030475 0.003781 0.106478 -0.105638 0.11088 -0.023725 -0.145889 0.114296 0.067751 -0.06797 0.169263 -0.180377 0.150048 -0.406327 -0.066997 0.008733 0.143442 -0.359721 -0.012374 -0.388629 0.145144 -0.140634 -0.214714 0.269281 0.178114 -0.188323 0.069576 -0.256226 0.07068 -0.150196 0.193239 0.40535 0.151028 0.239931 0.043968 0.092386 0.141974 0.188614 -0.033208 0.113339 0.092119 0.175921 0.17363 -0.191466 0.044119 -0.412493 0.117965 0.232979 -0.146534 0.009381 0.089315 0.147233 -0.212098 -0.076747 -0.490481 0.17626 -0.203041 -0.074735 -0.237331 -0.073264
madhouse -0.044814 0.00414 0.032175 0.148815 -0.166174 -0.343338 0.111877 0.112348 0.430099 0.11438 0.190425 -0.031323 -0.008349 -0.056363 -0.008966 0.043063 0.087777 -0.158177 -0.358896 -0.139423 -0.149208 -0.004704 0.120014 -0.166733 0.425713 0.267073 0.192565 -0.054906 -0.05223 0.358632 0.175292 0.066555 -0.038846 0.224703 0.085201 0.082592 0.100892 -0.037897 -0.016578 -0.182457 -0.007055 -0.126068 0.26437 -0.110353 0.240219 0.23806 0.020962 0.002639 -0.020023 -0.006477 0.001686 0.246485 -0.103371 0.165123 0.170386 -0.036492 0.191413 -0.233081 -0.024501 0.163698 0.006121 0.141837 -0.0287 -0.145766 0.011404 -0.027473 -0.108857 0.058139 -0.334862 0.064368 -0.198282 -0.032173 0.302766 0.272282 0.289054 -0.192847 -0.219017 -0.048923 0.205185 -0.313581 0.023981 0.019892 -0.111315 0.025884 -0.059886 0.248221 -0.23672 -0.138673 -0.088704 -0.007956 0.132872 -0.125944 -0.151997 -0.070819 -0.005241 0.028101 -0.12503 0.091487 -0.158183 -0.227556
video -0.384439 0.039441 -0.436413 -0.390266 -0.206775 0.188127 0.318683 0.334429 0.260825 0.080215 -0.560476 0.270337 0.117294 0.004759 0.41572 0.083165 -0.10265 0.082096 -0.756588 0.495139 -0.410963 0.003813 0.183541 0.132562 0.00684 0.430384 -0.004576 -0.15374 -0.075184 0.089243 0.311236 -0.101762 0.124268 -0.121202 -0.00204 0.114401 0.004332 -0.054385 -0.037628 -0.138685 -0.098782 0.106899 0.276728 0.38508 0.151979 0.327131 -0.310284 0.230827 -0.037143 -0.172781 -0.410276 0.202563 -0.01109 0.397444 -0.666854 0.270501 0.168468 -0.155848 0.084905 -0.017495 0.05813 -0.130167 0.037291 -0.036967 0.112674 0.095105 0.107282 -0.082005 0.168182 -0.0017 -0.128887 -0.229112 -0.279013 0.265979 -0.185408 -0.333893 -0.105353 0.058376 0.460631 -0.390615 -0.113635 -0.366629 -0.030507 -0.019514 -0.171933 -0.227982 0.018396 0.22628 -0.224076 -0.296466 0.07058 -0.096222 0.203374 -0.139394 -0.476976 0.020852 0.08036 0.11909 0.209439 0.049338
defeating -0.64363 0.279498 0.241271 -0.311014 0.121805 0.361076 -0.069386 0.224766 -0.228316 0.103211 -0.114536 0.015945 -0.366706 0.338872 -0.13235 0.212877 -0.066211 0.014586 0.069496 0.463324 0.543396 0.089806 -0.343933 0.031926 0.558382 0.004587 -0.381309 0.254063 0.483996 0.043615 0.430949 0.158294 -0.268478 -0.37729 0.205381 0.155208 -0.083245 0.34716 0.147149 -0.121813 0.369408 -0.139402 -0.139398 0.046884 -0.466455 0.194098 -0.104007 0.131823 -0.308256 0.160095 -0.077424 0.347469 0.403011 -0.055262 -0.214472 -0.045828 0.172502 0.200163 -0.089722 -0.191028 0.464582 -0.14963 0.052088 -0.24248 -0.058496 0.138786 -0.039937 0.01761 0.471635 0.143438 0.028992 -0.402809 0.145946 0.134565 0.651943 0.120579 0.409189 0.143583 -0.034025 -0.053076 0.04003 0.52247 -0.180124 0.062258 0.196651 -0.607266 0.100367 -0.29129 0.026142 0.319845 0.565548 -0.260798 -0.011918 -0.022147 0.127184 0.079103 -0.427372 -0.111731 -0.338076 -0.004134
death 0.042624 -0.458467 0.29207 0.001301 0.153163 0.032547 -0.177228 0.240911 0.041017 0.120834 -0.256521 -0.263426 -0.052144 -0.134351 0.167079 0.087602 0.375961 0.2892 0.12849 0.023529 -0.027638 0.222042 -0.092863 -0.377446 0.141732 -0.030031 -0.082741 -0.11549 -0.142342 0.230135 -0.20226 0.008179 0.167833 0.108051 -0.536731 0.387104 0.163869 -0.259289 0.083806 -0.471332 -0.086981 0.322341 0.465561 0.098198 0.11793 -0.027789 0.057161 0.395934 -0.205461 -0.252224 0.671673 -0.419476 0.35673 0.380668 -0.302706 -0.059623 0.204966 -0.177936 -0.206093 0.006235 0.446917 0.023903 -0.285366 -0.192474 -0.248547 -0.177019 0.333057 0.251369 -0.126401 -0.078153 0.078523 0.148475 0.362723 -0.134206 0.350983 -0.005283 -0.02695 -0.321322 -0.149032 -0.075827 -0.105964 -0.278714 0.102047 -0.368923 0.117159 -0.342533 0.355001 0.111451 -0.23813 -0.039098 0.075277 -0.166364 0.133842 -0.25113 0.410789 0.171229 -0.225764 -0.198432 0.141174 -0.177728
image -0.185124 0.005362 0.317404 -0.154266 -0.049332 -0.255216 0.177237 -0.12489 0.047653 0.074227 -0.12133 -0.058893 -0.055611 0.015831 -0.093358 -0.099494 0.034402 -0.010065 -0.437596 -0.120818 -0.264403 0.106585 0.115432 -0.22958 0.293959 0.058102 -0.269585 -0.179961 0.035081 0.30216 -0.014918 0.117051 0.275096 0.069398 0.139475 0.200368 -0.012831 0.056754 -0.171231 -0.214718 -0.375614 -0.010873 0.181953 0.125257 0.201329 0.124293 -0.066826 0.194782 -0.048739 -0.203646 -0.305773 -0.032969 0.159676 0.067881 -0.104867 -0.109348 0.335033 -0.119393 -0.235365 -0.074386 0.151294 0.129707 0.003865 -0.073389 -0.111619 0.014549 0.060583 -0.141269 0.328466 -0.086428 0.158508 -0.221107 -0.119521 0.298134 0.286792 -0.259666 0.045224 -0.142734 0.304247 -0.398813 -4.02E-4 -0.061527 -0.033547 -0.132326 0.302531 0.009601 -0.02763 0.047999 0.037707 -0.427586 -0.159433 -0.345683 0.18368 -0.19317 -0.164345 -0.20679 0.143814 -0.353167 0.213505 -0.174937
theater 0.111608 0.048287 0.058107 0.135003 0.22031 -0.460917 0.194481 -0.174273 0.348468 0.170278 0.070692 -0.077345 0.299996 0.074118 0.028421 0.041211 -0.117443 -0.059982 -0.324636 -0.09882 -0.175681 0.164265 0.235142 0.230755 0.422202 0.447555 0.206947 -0.023631 0.191002 0.352758 0.228588 -0.041901 -0.015317 0.077522 -0.226117 0.082959 0.154878 -0.356194 -0.127235 0.042003 -0.141189 0.014311 -0.040413 0.172585 0.219641 0.078917 0.079082 -0.163281 -0.194507 -0.17617 -0.347148 0.338346 -0.134905 0.045005 -0.177274 0.227758 0.171085 -0.129516 0.01458 -0.005797 -0.323522 0.195635 0.076204 -0.003758 0.270375 -0.178493 0.005785 -0.064496 0.161098 0.116118 0.057321 0.050842 -0.007275 0.14987 0.1742 -0.269713 -0.44877 -0.159161 0.282946 -0.298799 0.057472 0.24769 -0.271481 -0.037115 -0.423873 -0.220563 -0.118934 -0.013533 -0.026402 -0.080799 -0.26413 0.05545 -0.132363 -0.493699 -0.077548 0.086241 0.07884 0.255083 -0.061908 0.100175
number -0.492317 0.176065 -0.179705 -0.294505 -0.408525 0.414274 0.15432 0.425402 -0.1103 -0.326359 -0.073874 0.02589 0.223512 0.067024 0.16837 -0.222647 -0.256225 0.089762 0.030709 -0.067741 -0.005362 0.069091 0.283311 0.047722 0.180076 0.22572 -0.169394 0.357902 -0.135698 0.048442 -0.06575 0.237844 0.164257 0.398145 -0.415813 -0.023505 -0.128348 -0.090986 0.05598 -0.34013 -0.156804 0.028202 0.126439 0.207394 0.321865 -0.008868 -0.13552 0.05034 0.170663 -0.322827 -0.301464 -0.08264 -0.00853 0.541721 -0.003938 0.035882 -0.049698 -0.297212 -0.274845 -0.267809 0.23883 0.00945 -0.048275 0.06465 -0.169998 -0.060026 0.0981 -0.328135 -0.219909 0.231697 -0.063027 0.128755 0.092839 -0.158094 0.287515 -0.167421 0.475649 0.16222 0.069444 -0.250178 0.171522 0.07896 0.485438 -0.007631 0.192252 -0.035869 0.326741 -0.445472 0.042078 -0.236187 -0.056668 0.164649 -0.213269 -0.228386 0.133429 0.311744 0.318621 0.139859 0.220123 -0.217646
astronomer 0.343868 0.015895 -0.170476 0.219067 0.427211 -0.111949 -0.233517 -0.072068 0.117155 -0.032711 0.086905 -0.142406 0.393112 0.136285 -0.538122 0.152881 -0.447258 -0.306902 -0.396068 0.110601 0.336111 0.614205 -0.086012 -0.203501 0.230562 0.006333 -0.122728 -0.453906 0.226124 0.326387 0.518086 0.200096 -0.079145 0.332404 0.014696 0.241339 -0.095262 -0.251474 0.053818 -0.362078 0.258789 0.040248 0.165712 0.193071 0.559746 0.161674 0.027377 -0.22201 -0.092594 -0.080968 -0.451888 -0.049677 0.26928 0.09258 -0.70009 0.102251 0.406368 -0.177395 -0.167274 0.333335 -0.269117 0.229639 0.382702 -0.414175 -0.211348 0.407854 -0.510327 0.124837 0.005451 0.360529 0.444339 -0.283463 -0.254642 0.345523 0.79889 -0.317722 -0.031981 0.128246 -0.055817 -0.303007 0.018273 0.371058 -0.120775 -0.310968 0.443061 0.365613 0.094667 0.183673 0.116289 0.560541 0.205124 0.101957 0.368465 0.13806 -0.073849 0.415504 0.083272 -0.398327 -0.017243 0.468091
project 0.202337 -0.141545 -0.035338 0.091121 -0.050771 -0.147331 0.124997 -0.425916 0.101537 -0.093283 0.032943 -0.242429 0.516575 0.261191 -0.22167 -0.065326 -0.269709 0.073724 -0.252421 -0.361441 0.002528 0.019099 -0.055946 -0.017436 0.254849 0.207397 -0.253055 0.241635 0.064537 0.214303 -0.083671 -0.200062 0.083067 0.079576 -0.096403 -0.21029 -0.16181 -0.050105 -0.318612 0.143671 0.041138 -0.141135 0.00669 0.109474 0.206959 0.028468 0.26276 -0.035284 -0.004901 -0.273512 0.121874 0.00228 0.200285 -0.032993 -0.077782 -0.107667 0.238275 0.095681 0.108082 -0.049332 -0.156532 -0.026974 -0.003919 0.053332 -0.016563 -0.148244 -0.133191 -0.109346 -0.046936 0.097994 0.261154 -0.156601 -0.05311 -0.128554 0.149151 0.037821 0.230981 0.378827 0.483922 0.039883 0.164435 -0.053988 0.013192 0.104757 0.134569 0.04409 -0.197779 0.136476 -0.146741 -0.014401 0.012658 -0.227674 0.13279 -0.071853 -0.254497 0.11404 0.131215 0.15534 -0.330154 0.202596
dawn -0.183655 -0.210997 -0.187884 0.073907 0.020523 -0.13811 0.178372 -0.137769 0.385479 -0.163672 -0.176893 -0.353474 -0.141765 -0.312832 0.210362 0.217117 0.200181 -0.348748 -0.490011 0.169632 0.351264 0.162681 0.38389 0.085182 0.025701 0.098401 0.024683 -0.142451 0.33125 0.644249 0.264918 -0.411367 -0.122983 0.142899 -0.028581 -0.419552 0.456733 0.206418 0.416988 -0.053453 0.259459 -0.329232 -0.151173 -0.196097 0.314179 0.163268 -0.147951 0.127109 -0.139554 -0.070256 0.367017 0.221872 0.181351 0.460447 -0.179914 0.501523 0.123099 -0.09596 0.053047 0.078534 0.080213 0.324035 -0.122056 -0.039651 0.069207 0.090894 -0.209184 0.326921 -0.036209 -0.406862 -0.279508 -0.435919 0.506036 0.484125 -0.027965 -0.269937 0.269201 0.146929 -0.014516 -0.024353 0.051581 -0.259837 0.113947 -0.387991 0.062697 -0.218367 0.24588 0.376892 0.193632 0.162135 -0.268324 0.335517 -0.059638 -0.124057 0.445995 0.404708 -0.065821 -0.173321 -0.106872 0.207922
ear 0.15116 -0.071165 -0.290105 -0.443816 -0.268017 0.121738 -0.022858 0.047003 0.203502 0.046904 -0.297016 0.025325 -0.315767 -0.388512 0.12747 -0.069895 0.118292 -0.065854 -0.154485 -0.460325 -0.287645 -0.034439 0.099547 -0.06813 0.47707 -0.527929 0.210652 -0.657894 0.294642 0.229691 -0.242131 -0.179633 0.009153 0.168051 0.294215 0.161457 0.237765 -0.319896 -0.044464 -0.122737 -0.065848 0.004774 0.082028 0.416692 0.32866 0.167153 0.06455 0.156389 -0.187115 -0.008495 0.035287 -0.192468 0.047328 -0.07312 -0.209382 -0.506636 0.421829 -0.172553 -0.203507 -0.266687 0.346067 -0.031772 -0.060935 -0.288106 -0.126131 -0.184199 0.318232 0.077377 0.462912 -0.28111 0.211021 0.098815 0.025193 0.273234 0.026347 0.177328 -0.032144 -0.341427 -0.049681 -0.263854 0.198759 0.218333 -0.099574 -0.339822 -0.105908 -0.138987 -0.275764 0.032728 0.165659 -0.28615 0.125459 -0.411484 0.048799 0.165414 0.48846 -0.285334 0.11555 -0.299631 0.500627 -0.328535
voyage 0.004524 0.297249 0.132183 0.464525 0.055583 -0.270276 -0.083138 -0.074468 0.306706 -0.389677 -0.378078 -0.296579 0.070646 0.207454 0.22782 -0.2737 0.417562 -0.078176 -0.63866 -0.335459 0.402129 0.20775 -0.35276 -0.128019 -0.042417 -0.128597 -0.175465 -0.277715 -0.426259 0.418126 0.091298 -0.181092 -0.178876 -0.082747 0.160678 0.066723 0.346495 -0.031297 -0.100646 -0.404555 0.070597 -0.298496 0.060169 -0.127727 0.561806 -0.120836 0.455733 0.386717 -0.110654 -0.232482 0.028742 -0.442374 0.333536 0.171846 0.182941 0.220287 0.024435 0.010599 -0.184855 0.469882 -0.151534 -0.369745 0.070869 -0.075124 -0.185892 0.419662 0.103732 0.092149 -0.372376 -0.108458 0.053126 -0.419254 -0.217579 0.109979 0.078615 -0.274721 0.349284 0.293309 0.518073 -0.313318 0.09679 0.173934 -0.033036 0.049311 0.208803 -0.196577 -0.015031 0.119373 0.185742 -0.183178 0.027226 -0.437009 0.110168 -0.376355 0.144869 -0.001809 -0.231152 -0.093846 -0.268197 0.458105
valor -0.386546 -0.339586 0.194013 -0.037254 -0.127582 -0.671219 -0.083073 0.315414 -0.114086 0.509942 0.031246 0.282138 -0.316813 0.068381 0.314228 -0.305492 0.212009 0.034977 -0.49551 -0.226246 0.402138 0.223374 -0.061792 -0.529648 0.286661 -0.275895 -0.169363 0.515977 0.179618 0.366722 0.174448 0.033269 0.013397 0.225212 -0.074137 0.181758 0.166245 -0.064333 -0.141829 0.024927 0.113076 -0.412736 0.37642 -0.139422 -0.06937 -0.141713 0.079006 0.34657 -0.041216 -0.373116 0.025432 -0.216982 0.47901 0.145589 -0.066349 0.152788 0.118753 -0.090154 0.119037 0.363427 -0.340057 -0.43425 0.351603 0.128146 -0.068419 0.028 -0.155198 -0.250856 -0.086359 0.072009 0.181279 0.163955 -0.074069 0.433025 0.813089 -0.002882 -0.066968 0.055894 -0.314213 -0.025647 -0.179808 0.405113 0.104459 0.11702 -0.065748 -0.231092 0.037071 -0.252822 -0.420718 -0.50128 -0.214597 0.026369 -0.097307 0.03813 0.461145 -0.269941 -0.186494 -0.280714 0.183423 0.385053
butter 0.723158 0.580629 -0.912814 -0.599395 -0.269234 0.453987 0.704916 0.19026 -0.15291 0.005885 0.302288 -0.106568 -0.682523 -0.276473 0.426495 0.048875 0.270886 -0.284771 0.125859 -0.265079 -0.424071 -0.282712 0.126555 0.520851 0.502509 -0.399675 0.315065 -0.12435 0.864662 0.058494 -0.063958 0.028177 0.258653 -0.224809 -0.112373 -0.316631 0.604306 0.001933 0.043735 -0.13491 -0.677291 -0.352412 0.110724 -0.104031 -0.252031 0.129622 0.427026 0.106305 0.461275 0.066785 -0.408496 -0.417848 -0.062778 0.488808 -0.269152 0.146282 0.595432 -0.339846 0.065068 -0.008962 -0.243125 -0.065428 0.044913 -0.424955 0.689389 -0.540866 0.020289 -0.004519 -0.540253 -0.397029 0.124673 -0.553744 -0.031798 0.114486 0.068994 -0.311854 -0.530356 6.42E-4 0.203252 0.433546 0.229366 0.286418 0.130917 -0.246133 -0.108185 -0.086505 0.082898 -0.709182 0.382757 0.083853 0.310676 -0.040217 -0.104775 0.63896 -0.094028 -0.010101 -0.553373 -0.647179 -0.183062 -0.102853
gin 0.250319 0.060106 -0.315202 -0.272299 -0.444879 0.009307 0.230532 0.215075 0.117067 -0.007457 0.304996 -0.206064 -0.390307 -0.1047 0.112514 -0.257629 0.271271 -0.241286 0.406726 -0.200317 -0.301369 -0.143791 0.130695 0.452773 0.240365 -0.193858 0.103777 -0.015696 0.294646 0.250232 -0.271134 -0.158483 0.142407 0.083169 -0.089623 -0.446161 0.471325 -0.254453 0.315373 -0.156109 -0.388069 -0.329014 0.141929 -0.171157 -0.051421 0.153727 0.42783 -0.116721 0.393814 0.107578 -0.304927 0.175238 -0.191752 0.20213 -0.165508 -0.045291 0.459551 -0.399169 -0.030297 0.061511 -0.34617 0.132355 -0.032561 -0.096417 0.55113 -0.538214 -0.017528 0.045202 0.020221 -0.505692 -0.127153 -0.296132 0.175846 0.123483 0.57338 -0.349433 -0.350291 -0.384768 0.161253 0.082116 0.25333 0.287499 -0.065704 0.03843 -0.165215 -0.049537 0.106726 -0.496194 0.28638 0.103311 -0.079558 -0.073705 0.114914 0.347428 -0.109695 0.240337 -0.349594 -0.560487 -0.053107 -0.243069
reservation -0.011091 0.259854 -0.421001 0.225958 -0.355203 -0.253398 -0.017437 -0.006612 0.411695 0.056973 0.082698 -0.235862 0.337695 -0.076904 0.410268 -0.074643 0.020623 0.306193 -0.392392 -0.304382 0.208367 0.081331 0.092733 0.147717 0.034771 -0.097285 -0.058844 -0.150692 -0.07322 0.203979 -0.109838 -0.521559 0.360844 -0.246736 -0.001312 0.125597 -0.097655 -0.017515 -0.02313 0.248641 0.261121 -0.239575 -0.175527 0.528553 0.320611 0.411532 -0.107555 -0.045488 0.101885 -0.098065 -0.112442 0.023698 0.136399 0.041086 0.006536 0.259933 0.220899 -0.238356 0.016518 -0.332262 -0.234252 -0.302434 -0.125729 -0.290588 -0.243562 0.017245 0.227969 0.324331 -0.503017 0.12834 0.043673 0.038334 0.024488 -0.198204 -0.365062 -0.176884 -0.042635 -8.65E-4 0.268113 -0.176002 0.27841 0.203406 -0.02148 0.128729 -0.241813 -0.061547 0.140728 -0.395942 0.033524 -0.063268 -0.219115 0.039277 -0.058432 -0.093385 -0.557665 0.03566 -0.412319 0.032536 0.129739 -0.036075
wealth -0.013591 -0.218217 -0.457639 0.048223 -0.115162 0.184952 -0.161647 -0.249999 -0.097887 0.049001 0.360003 0.096614 0.218076 0.021561 0.061265 0.018045 0.064993 0.061832 -0.414423 -0.516272 -0.125571 0.170722 0.230965 -0.334373 0.158276 -0.210951 -0.318246 0.216864 -0.073731 0.775936 -0.199641 0.396663 -0.249283 -0.363218 -0.086917 -0.231692 0.056362 0.173579 -0.10957 -0.140474 -0.033142 -0.007631 -0.245205 0.164894 0.133586 -0.161238 -0.12316 0.102513 0.116824 -0.290953 6.23E-4 0.057311 0.232762 -0.071498 0.064038 0.039985 -0.154153 -0.064825 -0.449875 -0.192557 -0.105878 0.166175 0.233015 0.338029 0.446643 -0.399438 0.143774 -0.373368 -0.084102 -0.042488 -0.057195 0.156008 -0.468329 0.199511 0.126394 0.201116 -0.178439 -0.152015 0.104887 -0.162174 0.213197 0.175529 -0.104985 0.0488 0.118586 0.232226 0.14228 -0.022168 0.187932 -0.104144 0.046925 -0.670562 0.099331 -0.12917 -0.243881 0.020164 0.211237 -0.522102 -0.511447 -0.523412
eat 0.239147 0.342599 -0.612894 -0.049069 -0.328662 -0.194985 0.212417 0.500673 -0.058401 -0.04469 0.31265 -0.126301 -0.546955 -0.565612 0.209692 0.074743 0.188393 -0.349712 -0.012034 -0.242883 -0.487008 0.144571 0.07389 0.559103 0.305392 -0.328655 0.303831 -0.230149 0.115992 0.138465 0.20216 0.206272 0.210954 -0.306114 -5.04E-4 -0.07795 0.007056 -0.114806 0.470504 -0.222201 -0.340775 -0.313163 0.592449 -0.032103 0.013297 0.177487 0.30352 -0.253053 0.412729 0.03319 0.016455 -0.139055 -0.072855 -0.360769 0.122536 0.151386 -0.060195 0.088164 0.21096 0.228479 -0.223943 0.260444 -0.428225 0.29598 0.472182 0.033997 -0.123893 0.1449 -0.198707 -0.266866 -0.055619 -0.143218 -0.147203 0.122614 1.04E-4 -0.264806 0.137679 -0.245248 0.180705 0.240968 -0.028415 0.321471 -0.043109 -0.422526 -0.247424 -0.185055 -0.34906 -0.423191 0.280494 0.136441 -0.103708 0.22101 0.24128 0.213667 0.265633 0.273482 -0.410865 -0.437517 -0.350695 -0.359941
soap 0.625597 -0.035936 -0.438659 -0.344421 0.058937 -0.285025 0.649642 -0.041813 0.186954 0.326894 0.226141 -0.277191 -0.36474 -0.104435 0.231477 0.27925 0.449237 -0.316324 -0.371624 -0.10907 -0.325308 0.187955 0.018333 0.260876 0.257658 0.422089 0.176475 0.055845 0.624856 0.176216 0.14347 0.133345 0.330193 0.12564 -0.239542 0.046467 0.499597 -0.235619 -0.003727 -0.546841 -0.162371 -0.022737 0.399147 -0.075431 -0.149095 0.252847 0.355107 0.189167 -0.167571 -0.27315 -0.512299 -0.369885 -0.477631 -0.338335 -0.428489 0.303555 0.173462 0.013866 0.079355 0.02624 -0.186815 -0.448189 0.288518 -0.330414 0.110521 -0.020432 0.36632 -0.362474 -0.170787 -0.078691 -0.119205 0.332937 -0.187018 -0.005793 0.214298 -0.466039 -0.297917 -0.35736 0.407299 -0.089413 -0.114297 0.335426 -0.083027 -0.118715 -0.406826 -0.28059 -0.199003 -0.417294 -0.103584 0.415806 0.125386 -0.207539 -0.241454 -0.304116 0.066223 0.107232 0.070869 -0.008058 -0.274313 -0.114052
discovery 0.067215 -0.180916 -0.150463 0.157774 0.01744 0.371275 0.418643 -0.097354 0.113566 0.120432 0.003495 0.062057 0.27437 -0.12554 -0.023345 -0.212755 -0.114425 -0.065504 -0.299024 -0.461117 -0.045644 0.138342 0.304473 -0.027182 0.282605 0.194624 -0.184014 0.135533 -0.012875 0.087478 -0.112256 -0.035172 0.117789 0.130344 -0.18527 0.142501 0.162543 0.12486 -0.03387 -0.495278 -0.207446 -0.080459 0.30616 -0.058753 0.040941 -0.219299 0.298724 0.468951 0.035249 -0.437394 0.112166 -0.374804 0.233656 0.522768 -0.483143 -0.079535 0.357486 0.007372 -0.194922 0.136551 -0.001705 0.234651 -0.038529 -0.228186 0.086952 -0.233118 -0.096264 0.102171 -0.024949 0.213111 0.229339 -0.322766 0.007706 0.001681 0.216415 0.034584 0.404525 0.253507 0.531542 -0.063888 0.207 -0.422131 0.026336 -0.078889 0.362405 -0.013324 0.211381 0.219628 0.045675 0.006512 0.219908 0.048393 0.283884 0.048413 -0.049871 -0.140558 -0.001129 -0.223707 -0.179833 0.201847
Jerusalem -0.532013 0.041143 0.184999 -0.259074 0.256722 0.037058 -0.056903 -0.269327 0.339625 0.010387 0.106165 0.029954 0.633765 0.52856 -0.124332 0.204082 -0.282902 0.096966 -0.646849 0.209232 0.367919 0.007139 -0.612946 0.044898 0.613935 -0.084882 0.132912 0.254678 0.123474 0.442888 0.020125 -0.123021 0.262028 0.199125 0.112062 0.211537 0.18972 0.13354 0.003784 0.169489 0.316951 -0.254053 -0.096173 -0.157412 -0.346879 -0.131479 0.230303 -0.569171 0.050522 -0.21369 0.304334 -0.096799 -0.097394 -0.257193 -0.231655 0.605436 0.775912 -0.860585 0.339278 -0.207366 0.164953 0.133972 -0.056695 0.384066 0.208952 -0.201715 0.228813 0.434116 -0.051899 -0.194739 -0.3757 0.580953 0.036517 0.21152 -0.12229 -0.07491 0.063651 -0.365149 0.345324 -0.03043 0.00973 -0.081246 -0.462064 -0.009408 0.31352 0.096055 0.051112 0.405026 0.538965 0.036762 -0.452259 0.131622 0.149511 0.261781 0.18648 0.082022 -0.140761 0.098493 0.016804 0.086115
hospital 0.128303 -0.495763 -0.392429 0.468091 -0.290069 0.030152 0.013465 -0.128264 0.535245 0.060043 -0.014762 -0.004312 0.287811 0.041749 0.038855 0.023554 0.305229 0.172701 -0.052549 -0.075042 0.221071 0.120178 -0.387798 0.113551 -0.127708 0.113265 0.406525 -0.152894 -0.011543 0.26836 -0.048778 -0.361486 0.249375 0.249028 -0.207592 0.367742 0.222658 0.201915 -0.384429 -0.015971 0.145631 0.024276 0.42074 0.349674 0.243065 -0.04259 0.016413 -0.107946 -0.100886 -0.192244 0.352635 0.071166 0.026471 0.187177 -0.169603 -0.333028 0.259234 0.044871 0.161914 0.009925 0.101007 0.014589 -0.927613 0.117174 -0.140791 0.089076 -0.108296 0.212806 0.037245 -0.174871 0.406446 0.239103 -0.11224 0.160931 0.14036 0.460102 0.22601 -0.03077 0.062412 -0.253437 -0.002205 0.069551 0.052921 -0.400595 -0.322693 -0.282975 -0.41666 0.110496 0.458903 0.024502 -0.11567 0.079441 -0.486685 0.19105 0.352708 0.41698 0.294526 0.172925 0.283917 0.036043
computer -0.049907 -0.198706 -0.554492 -0.210672 -0.33657 0.301356 0.15924 0.015872 0.199063 0.264076 -0.350724 -0.092476 -0.025461 0.008067 0.055341 0.208327 0.107119 0.053499 -0.477457 -0.036214 -0.041122 0.151035 0.434541 0.176623 0.132357 0.045633 -0.063164 -0.489503 -0.061381 0.197225 0.267151 -0.012486 0.119226 0.093507 0.091416 -0.01129 -0.099543 -0.059865 0.344855 0.012448 -0.040481 0.229756 0.080194 0.602751 -0.129982 0.217748 -0.218146 0.399488 0.240855 0.156233 -0.236613 0.031527 0.268983 0.147869 -0.346529 -0.191288 0.07315 0.025596 -0.098578 -0.06196 0.007248 -0.139855 -0.237987 -0.11741 0.087994 0.178997 -0.021814 -0.180565 0.222054 0.286712 -0.033367 0.068543 -0.388895 0.274388 0.066278 -0.187191 -0.133708 0.137998 0.529874 -0.231612 0.219595 -0.324088 -0.011937 0.105466 -0.184593 -0.085662 0.0247 0.284313 -0.164856 -0.455252 0.168298 -0.015729 0.17087 0.00283 -0.655689 0.186299 0.304196 -0.019671 0.353456 0.024602
queen 0.260054 0.107165 0.409586 0.040442 0.214015 -0.312367 0.086663 0.507147 0.600729 0.091606 0.004104 -0.106315 -0.134936 0.043973 0.18056 0.32184 0.059224 -0.044521 -0.323421 0.02874 -0.02598 0.075625 -0.053687 0.254 0.519266 0.132499 -0.066204 -0.092197 0.096104 0.211483 -0.056459 0.05134 -0.046975 0.271328 -0.178439 -0.139948 0.532866 -0.26072 -0.401798 -0.311543 0.096163 -0.182525 0.269708 -0.020286 -0.006137 0.288755 -0.049215 0.135134 0.059532 0.020592 -0.060965 -0.231237 -0.03588 -0.096708 -0.229603 -0.08392 0.304205 -0.37918 0.162811 0.18111 -0.061013 0.154251 0.121688 -0.093621 0.148901 -0.138661 0.407852 -0.26319 -0.038577 0.045085 0.232301 0.044002 0.001191 0.047333 0.635091 -0.142594 -0.030804 -0.283943 0.291699 -0.325505 0.149444 0.107312 -0.104524 -0.504379 0.100896 -0.146932 0.125586 -0.137408 0.108446 0.097013 -0.383569 0.051899 -0.0551 -0.119743 -0.013994 -0.21632 -0.201742 -0.057558 -0.180569 -0.194428
wizard 0.07665 0.014506 0.220788 0.184168 -0.048395 -0.131735 0.316145 0.250484 0.591857 0.008897 -0.325744 0.094343 -0.127698 -0.023133 0.175496 0.31039 -0.062668 0.164214 -0.117929 -0.246061 -0.134049 0.086906 0.171983 -0.19838 0.362686 0.355792 -0.22765 -0.35448 0.22938 0.370523 0.198698 0.383779 -0.086502 -0.112218 0.183468 -0.112708 -0.06951 -0.43862 -0.174442 -0.311461 -0.211574 0.194441 0.035054 0.057236 0.428787 0.125795 -0.422491 0.203604 0.050428 -0.08995 -0.103977 0.10601 -0.176099 0.259343 -0.032074 -0.15378 0.314796 -0.317431 0.054608 0.039917 0.011382 0.162473 0.157918 -0.048533 0.092911 0.043153 0.066389 -0.339157 0.250866 0.153981 0.028815 -0.316057 0.059425 0.041281 0.414583 -0.517784 -0.023934 -0.457446 0.520339 -0.121577 -0.430705 0.098768 -0.219717 -0.437559 -0.143695 -0.008514 -0.229069 0.014806 -0.398942 0.114846 0.318192 -0.160862 0.145149 -0.049575 -0.217114 0.138548 -0.124592 0.061313 -0.284511 -0.100302
oil 0.638565 -0.244916 -0.403737 -0.358326 0.041424 0.165661 -0.003311 -0.194746 0.332232 -0.035143 0.559917 0.322379 0.245033 -0.213743 -0.156179 0.27324 0.243388 -0.039554 -0.250522 -0.558094 -0.294957 -0.060766 0.311043 0.175023 -0.190335 -0.295895 -0.099468 0.116685 0.169323 0.270745 -0.300972 -0.123492 0.161197 -0.148109 -0.405731 -0.521286 0.574374 -0.183625 0.271278 -0.324794 0.290953 -0.163153 -0.270758 0.006466 0.062043 -0.038898 -0.318168 -0.184946 0.066143 -0.243845 -0.015692 -0.063314 0.049719 0.031292 -0.134973 0.511354 0.083454 -0.296376 -0.311335 0.160095 0.022331 -0.117416 0.252163 0.360204 0.45192 -0.743566 -0.050879 0.349485 0.380868 -0.09428 -0.224519 0.093566 -0.650175 -0.282365 0.058472 0.247995 0.225759 0.253162 0.118444 0.611464 0.423843 0.27874 0.191697 0.199253 0.360441 -0.036398 0.194507 -0.146988 -0.130838 -0.066162 0.130806 -0.401819 -0.171076 -0.244557 -0.113691 0.030385 -0.250533 -0.446998 -0.482773 0.041584
currency 0.240723 0.202655 0.059543 0.050564 -0.224167 -0.116975 -0.527183 0.139224 0.135619 -3.8E-4 0.022305 0.386012 0.266047 -0.183092 0.25075 0.432799 0.072618 0.270172 0.021534 -0.184875 -0.121863 -0.123188 0.65009 -0.480083 -0.175173 -0.070932 -0.153785 0.112039 -0.068152 0.124385 -0.040666 -0.170519 -0.008813 0.147193 -0.034275 -0.37591 0.123818 0.687447 0.230402 -0.176708 0.247756 -0.033553 -0.360935 -0.001517 -0.216379 0.093226 -0.129809 0.046682 0.041485 0.173063 -0.413411 0.046205 0.163318 -0.131686 0.071637 -0.146236 0.402559 -0.733109 -0.632411 0.040586 0.04228 0.142941 -0.222177 0.432809 0.139454 -0.441932 0.066146 -0.124134 -0.473177 0.004278 0.030554 -0.098301 -0.35126 0.169853 -0.155896 0.215796 0.083715 0.265809 -0.109469 0.055141 0.145513 0.526804 -0.053428 0.15871 0.059341 -0.298518 -0.028881 -0.107067 0.336834 -0.586499 0.125371 -0.339518 -0.182232 0.029524 -0.506885 0.09679 -0.13855 -0.570724 -0.284814 0.006965
laundering 0.345819 -0.573465 -0.557292 0.117285 -0.248806 0.882124 0.066703 -0.296561 -1.061281 0.387258 -0.257573 0.077935 -0.323323 -0.328345 1.083204 0.303594 0.375575 0.315137 -0.221725 0.723915 -0.040222 -0.038811 -0.093778 -0.676947 -0.461236 -0.090886 -0.702346 -0.371055 0.919991 -0.190121 0.154066 0.051974 0.036496 0.163565 -0.387206 0.38779 -0.263348 -0.439387 0.692216 0.186547 -0.266498 0.060821 -0.17143 -0.207606 5.3E-4 0.001355 0.195633 -0.039553 -0.38928 -0.096195 0.714723 -0.083124 0.386642 0.264881 0.711724 0.691002 -0.265595 -0.248455 -0.510838 -0.143056 0.261111 -0.486059 0.122771 -0.333164 0.202774 -0.992664 -1.043044 -0.672536 -0.56015 -0.242537 0.110194 0.981215 -0.307101 -0.114719 0.935625 0.274344 -0.582667 -0.345799 0.776426 -0.156297 0.665604 0.485525 0.505616 0.416949 -0.702951 -0.398679 0.0303 -0.230619 0.262605 0.516254 0.938331 -0.55233 0.933375 -0.532473 -0.183484 0.034333 -0.199461 -0.679491 0.180444 0.333929
midday -0.340276 -0.109389 -0.501215 -0.368485 0.391327 -0.117304 -0.087199 0.306519 0.260054 -0.081359 -0.089456 -0.049465 0.107149 -0.205081 -0.280625 0.285562 0.149124 -0.297879 -0.090624 0.031751 0.969974 -0.387764 -0.110733 0.497591 0.039224 0.276226 0.003723 -0.075683 0.495742 -0.274886 -0.193085 -0.517318 -0.365315 0.201212 -0.293858 -0.141867 0.569839 0.1048 0.419347 -0.183896 0.715761 -0.211426 -0.849912 -0.275243 0.435526 -0.162821 0.018273 0.136998 0.023557 0.315495 -0.036305 0.110127 -0.112351 0.049579 0.209221 0.266417 0.006421 0.016807 -0.202321 0.005303 0.152325 0.337356 -0.183176 0.222104 0.278535 -0.036109 -0.39615 0.960263 -0.371034 -0.419817 -0.052066 -0.330514 0.494053 0.152994 -0.621997 -0.193661 -0.298809 0.410956 0.60196 -0.121346 -0.011284 0.367195 -0.632858 -0.246828 0.074491 -0.288359 0.333986 0.065353 0.116204 -0.046477 -0.254841 -0.152167 -0.639791 -0.231401 0.191213 0.531222 -0.026627 -0.523175 0.163418 0.326166
Arafat -0.842053 0.207919 0.010972 -0.233019 0.438881 0.080485 -0.330297 0.161822 0.093428 -0.682733 -0.12627 -0.404189 -0.129785 -0.078607 -0.057956 -0.13445 -0.204421 0.194089 -0.381604 -0.218061 0.152036 0.086458 -0.332628 -0.169151 0.159179 -0.225729 0.003095 -0.209092 0.100178 0.719121 0.277655 -0.123064 0.091916 0.268103 0.337616 -0.475346 0.17181 -0.171702 0.19745 -0.106971 0.080228 0.053808 0.215168 -0.213045 0.069279 -0.596442 0.278007 -0.200433 -0.334228 0.277449 1.123052 -0.066399 0.172352 0.109603 -0.571521 0.588994 0.465553 -0.628895 0.00801 0.306776 -0.004253 -0.498503 0.051268 0.480888 0.787572 0.318639 0.737452 0.329076 0.737479 -0.692146 0.139641 0.16895 0.244268 0.310976 0.639251 -0.202827 -0.0209 -0.205654 -0.283134 -0.051925 0.003726 -0.048639 -0.412302 -0.29614 0.323189 -0.176076 0.306352 0.739198 -0.623507 0.383768 -0.185012 -0.168172 -0.057893 0.722886 0.407821 0.053146 0.021068 0.071641 0.275102 -0.007705
man 0.201096 -0.425556 0.037772 0.333824 -0.059022 -0.148959 0.245839 0.270931 0.475575 0.215314 0.143693 -0.047333 0.029724 0.083337 -0.017665 0.173131 -0.337969 0.357715 -0.015524 0.089701 0.313772 0.297666 -0.109713 -0.144752 -0.150009 0.302167 -0.080121 -0.315004 0.055345 0.070114 -0.12057 0.139532 0.102547 0.350256 0.228095 0.013533 -0.035917 -0.298535 -0.080839 -0.349451 -0.056523 -0.170178 0.213435 0.270966 0.398596 -0.167802 -0.258554 0.045885 -0.089969 0.158713 0.305043 0.046496 0.313503 0.080368 -0.130248 -0.241897 0.355638 -0.399217 0.068898 -0.207246 0.269961 0.331521 -0.337028 -0.180856 0.18709 0.165891 0.368055 -0.243121 -0.141056 -0.228347 0.162124 -0.104399 -0.064596 0.253163 0.566717 -0.367844 0.230414 -0.387729 0.17757 0.082323 -0.128954 -0.288776 0.045658 -0.014465 0.255416 -0.023322 0.03621 -0.314014 0.082443 -0.152933 -0.153495 -0.024337 0.015223 0.144322 0.074055 0.158053 0.118637 0.187907 -0.133602 -0.556358
keyboard -0.091555 0.26252 -0.408751 -0.48697 -0.458672 -0.163478 0.183895 0.247806 0.42488 -0.009322 -0.513307 -0.062449 0.108263 -0.082977 0.180888 0.017191 -0.240878 0.068766 -0.361418 0.017548 -0.269828 -0.024642 0.433989 0.451125 0.292926 0.120693 0.155376 -0.655378 0.244237 0.322747 0.365253 0.097618 -0.067315 0.126963 0.398518 -0.085425 0.174694 -0.215267 -0.010188 0.062446 -0.078002 -0.187008 -0.034213 0.780367 0.031678 0.338916 -0.049638 0.500977 0.152174 0.22902 -0.301732 0.111129 0.113849 0.124375 -0.34874 -0.257973 0.385997 -0.258128 -0.073573 -0.030847 0.072372 -0.239322 0.127596 -0.21016 -0.165957 0.125869 0.33721 -0.147686 -0.083756 -0.010717 0.025779 -0.298306 0.045576 0.427419 -0.012566 -0.274443 -0.297365 0.04624 0.493335 -0.426028 0.027331 0.122233 0.09547 0.245235 -0.260505 -0.26334 -0.239745 -0.115653 -0.083445 -0.459903 0.010397 -0.502942 0.21125 0.328094 -0.338943 -0.167852 0.03772 -0.204333 0.475947 -0.088859
announcement -0.236192 0.284746 0.37289 -0.419789 0.412875 0.06188 -0.014906 -0.295557 -0.416507 0.273158 -0.024017 -0.398335 0.590979 -0.196119 -0.038616 -0.180705 0.042518 -0.187481 -0.201665 -0.095019 0.180121 -0.390112 0.13458 -0.01231 0.113109 0.057809 0.033487 0.189539 0.121784 -0.06707 -0.052631 -0.335967 0.322644 -0.244545 0.053944 0.254449 0.581407 0.039614 -0.352363 -0.298757 -0.009056 -0.118717 0.106523 -0.272367 0.241494 -0.259441 0.197417 -0.009333 -0.284323 -0.426382 0.103714 -0.141811 -0.271103 0.35573 -0.006883 -0.262213 0.400209 0.100749 -0.458213 -0.090908 0.218976 -0.183813 -0.347071 0.065894 0.154375 0.027163 0.070487 0.199226 -0.03184 -0.361097 0.149037 -0.399414 0.307079 0.085474 -0.044208 0.062088 0.480628 0.182642 0.175728 -0.362663 -0.2552 0.003242 0.484786 -0.492457 0.37948 0.129178 0.273218 0.71133 0.002414 -0.089816 -0.06898 0.158422 0.176003 -0.220439 -0.410636 -0.088747 -0.092749 -0.020283 -0.048022 -0.098087
racket -0.092557 -0.065106 0.024217 -0.092801 -0.19725 0.112771 0.285924 -0.07569 0.394314 0.268966 -0.321913 -0.06346 -0.3177 -0.018552 0.424848 0.084142 0.068861 -0.062239 0.014938 0.114273 -0.066275 0.013863 0.049664 0.086285 0.077409 -0.26527 -0.141962 -0.351944 0.312587 0.144471 0.218751 0.080584 -0.188608 0.337068 0.017012 -0.321206 0.369163 -0.531875 -0.044988 0.191845 0.126651 -0.07286 0.177812 0.119765 0.297746 0.11699 -0.050493 0.175254 -0.009853 0.095104 0.300269 0.095775 0.253583 0.12099 -0.02557 -0.545202 0.104808 0.070376 -0.251457 -0.1173 0.299409 -0.025171 0.109146 -0.425228 -0.152878 -0.238895 -0.066614 0.092217 0.194039 -0.350546 -0.08873 0.006023 0.115667 0.312099 0.246113 0.00616 -0.010696 -0.205252 0.310175 -0.268055 0.339946 0.320767 -0.159614 -0.086588 -0.281764 -0.111133 -0.099348 -0.15645 0.009134 -0.301388 0.010673 -0.454006 -0.187333 -0.350695 -0.058788 -0.152513 -0.094527 -0.527246 0.094159 -0.51259
Maradona -0.152216 0.401996 -0.157601 0.651309 -0.401437 -0.112195 -0.126784 0.326232 0.290815 0.442766 0.00981 0.067101 -0.029528 -0.397616 0.095893 -0.267368 0.011523 0.181351 -0.38415 -0.241741 -0.321299 0.344364 -0.419198 -0.194765 -0.008688 0.423613 -0.216196 0.318658 -0.117115 -0.303207 1.079652 0.210524 -0.12852 -0.189461 0.38202 -0.112079 -0.287849 -0.282072 -0.48266 -0.261459 0.096785 0.139805 -0.143215 0.03461 0.682235 0.258518 0.397698 -0.29675 0.03577 0.097851 0.222027 0.271772 0.181539 0.116513 -0.154398 -0.140666 0.066579 -0.26454 -0.037665 -0.098529 0.405373 0.079645 -0.035434 -0.116607 0.083091 0.162231 0.286985 0.106932 0.056237 -0.325295 -0.071984 -0.36954 0.090161 0.051969 0.285508 0.051416 0.216375 -0.013638 -0.42605 0.404307 0.543294 0.044129 -0.232913 0.142133 0.152633 0.007362 0.249018 0.218826 -0.136537 -0.113305 0.110332 -0.345742 -0.524131 -0.119223 -0.045187 0.009658 -0.01246 0.063924 0.068647 -0.444161
anxiety 0.024609 -0.02006 -0.359712 -0.250931 -2.09E-4 -0.119437 -0.067518 0.243917 0.105098 -0.031551 -0.28159 -0.273589 0.045362 -0.056088 0.322858 -0.226306 0.603681 -0.461374 0.120488 -0.452614 -0.236487 0.093503 0.177212 -0.027416 0.54731 0.285522 0.37209 0.018367 0.058636 0.253805 -0.032672 0.07053 0.015389 -0.065024 0.172574 0.24968 0.283633 0.349474 0.106577 -0.097017 -0.198038 0.132642 0.186074 0.063515 -0.291597 0.023873 -0.473188 0.099277 0.297143 -0.340509 0.183421 0.014244 -0.046537 -0.283309 -0.268734 -0.187332 0.234019 -0.205539 -0.654604 -0.119561 0.053458 0.463529 -0.05427 0.108833 -0.532055 -0.285855 -0.026998 0.018972 -0.346453 -0.018066 0.165946 0.130707 0.189816 -0.135331 0.093011 0.311666 0.40051 -0.26968 -0.423726 -0.009758 -0.447708 0.219159 -0.289903 0.160223 -0.12607 -0.078994 0.007825 -0.004153 0.128939 -0.270716 0.224609 -0.602649 0.03622 -0.200976 0.173982 -0.358309 0.06355 -0.320997 0.247349 -0.366735
jazz -0.031824 0.14519 0.094357 0.289813 -0.057291 -0.71641 0.08374 0.152547 0.339405 0.315064 -0.014332 0.043628 -0.038278 0.158539 -0.006728 0.245031 -0.335263 -0.166859 -0.459167 -0.041537 -0.177833 0.141232 0.05393 0.058975 0.410463 0.562494 0.247727 -0.061418 0.197293 0.359368 0.327544 0.167511 -0.243095 0.091704 -0.005475 -0.183206 0.290024 -0.443939 -0.098076 -0.531739 -0.061093 0.100307 -0.158569 0.167475 0.456123 0.279177 0.079107 0.113224 -0.130767 -0.223724 -0.355825 0.063296 -0.192851 0.135069 -0.560206 0.2441 0.327705 -0.51145 0.013996 0.144689 -0.11829 0.18006 0.247601 -0.016872 0.445465 -0.346719 -0.037857 -0.067635 0.277378 0.104458 0.332135 -0.182124 0.075263 -0.007288 0.324969 -0.345133 -0.554211 -0.32488 0.123968 -0.173362 -0.429217 0.385348 -0.377685 -0.154814 -0.307053 -0.177989 -0.04385 -0.054798 -0.124876 0.30143 -0.2686 0.110361 0.260352 -0.251565 -0.125662 -0.010628 -0.086932 -0.009311 -0.009564 0.236963
gain -0.416177 0.022881 -0.255521 0.175265 0.258199 -0.007008 -0.640362 0.170939 -0.321529 -0.047638 0.159413 -0.021089 -0.090899 -0.097737 -0.010128 -0.008885 0.092959 0.10897 -0.033502 0.130938 -0.020567 -0.137329 0.430522 0.105547 0.156071 -0.128325 0.033973 0.158585 -0.14137 0.187862 0.278146 0.088735 0.078659 0.119173 0.05065 -0.036034 0.112119 0.227413 0.185294 0.043479 0.04697 0.28128 0.258291 0.487979 -0.087495 -0.147246 -0.036971 0.129804 -0.005545 0.029404 -0.363395 0.123479 0.296399 0.111424 0.290758 -0.141178 -0.029603 -0.040884 -0.011363 -0.022177 0.230246 -0.109556 -0.284692 0.32415 0.239101 -0.314618 0.083038 -0.010251 0.065707 0.150988 0.092484 -0.081692 -0.204521 -0.170055 0.139033 0.015613 0.187166 -0.103353 0.315226 -0.226748 -0.392131 0.035405 0.049619 0.197052 0.29638 -0.299828 -0.223969 -0.188811 -0.080856 -0.043939 -0.249291 -0.381338 0.186324 -0.135457 0.0598 0.307408 -0.091589 -0.172478 -0.191153 0.037833
history -0.17138 0.038635 0.113703 -0.159609 -0.266362 -0.064253 -0.121278 -0.149991 0.28747 0.249291 0.051761 -0.16489 -0.073274 0.046163 -0.016475 -0.14423 -0.002123 -0.141096 -0.243627 -0.351525 0.218996 0.296864 0.222129 -0.27971 0.349389 0.106324 0.056901 -0.061854 -0.03858 -7.84E-4 0.450736 0.324949 -0.107729 -0.199223 -0.139893 0.130683 -0.029351 0.070453 0.029945 -0.179342 -0.172969 -0.045797 0.105002 -0.306957 0.167569 -0.076075 -0.198622 0.212026 -0.355639 -0.14446 -0.339485 -0.185654 0.042601 0.298263 0.086059 0.2592 0.186768 -0.120633 -0.035933 -0.02155 -0.020356 0.04769 0.200582 0.035876 0.042832 -0.104467 -0.157551 -0.065075 0.030643 0.190883 0.337589 0.188027 -0.104516 -0.058804 0.391201 0.075334 -0.146596 -0.217941 0.270634 -0.248815 0.094555 0.116618 -0.484012 -0.087042 -0.121337 0.284743 0.020645 -0.072447 -0.050545 -0.312932 -0.008098 -0.20607 -0.093171 -0.329309 0.008072 0.074994 -0.001889 -0.028437 -0.221118 -0.138204
bird 0.230636 0.225435 -0.447525 0.294957 -0.276887 0.019174 0.375887 0.140487 0.021016 -0.024656 -0.368177 -0.344277 -0.173024 -0.24604 0.01312 -0.240847 -0.104222 -0.085522 -0.377636 -0.05863 -0.159796 0.306228 0.037372 -0.046171 0.390776 -0.045762 0.074221 -0.440248 -0.247029 0.139849 0.118584 0.135459 0.041601 0.042538 -0.273722 -0.055452 -0.035786 -0.047458 0.284601 -0.509269 -0.377795 0.075224 0.03032 0.01293 0.403623 0.1748 0.072903 0.221899 0.203496 -0.149156 -0.021378 -0.405226 0.044374 -0.234296 -0.062456 -0.230228 0.661089 -0.570253 -0.141145 -0.030747 0.019358 0.135746 0.173891 -0.349652 -0.092799 -0.167397 0.130015 0.169453 -0.179264 -0.291477 0.174291 -0.131028 -0.145194 -0.015397 0.041805 -0.006475 0.233294 0.175926 0.137147 0.123944 0.204105 0.187804 0.151362 -0.17897 0.299741 -0.031318 -0.433916 -0.138637 0.595271 -0.521288 0.356965 0.286876 -0.326496 0.441455 0.131935 0.092848 0.281227 -0.081743 -0.184291 0.162281
possession 0.197455 -0.444757 -0.203982 0.033966 -0.359899 0.868201 0.128031 0.150685 -0.166289 0.512175 -0.309972 0.366612 -0.202057 -0.324282 0.192954 -0.390013 -0.211733 0.127719 0.164211 0.265991 0.057136 0.007427 0.201293 -0.170565 -0.112054 0.006161 -0.276208 0.062849 -0.094306 -0.007653 0.337169 0.217936 0.127133 0.323902 -0.059147 0.339488 0.115235 -0.247196 0.199102 0.04468 0.187154 -0.181569 0.035335 0.080905 0.06323 0.236512 0.21905 0.65729 -0.20137 0.066805 0.052308 -0.086787 -0.067186 0.609871 0.219436 0.561567 0.107848 -0.091343 -0.032515 0.250777 0.326523 -0.093319 -0.210892 -0.286925 0.148234 0.093045 0.076088 -0.206993 -0.078773 -0.323183 0.109821 0.12678 0.088953 -0.058619 0.713558 -0.280061 0.152011 -0.608937 0.22186 0.083954 0.603215 -0.219216 -0.041356 0.727153 -0.1375 -0.455266 0.298085 -0.227534 0.250603 -0.165714 0.109533 -0.476503 0.330385 -0.407359 -0.186122 0.319135 -0.170701 -0.666518 0.192082 -0.251419
chemistry 0.2651 0.130283 -0.460807 -0.297983 -0.25986 -0.206835 -0.092845 -0.020689 0.289622 0.460612 0.297958 0.11882 0.135157 0.020397 -0.017921 0.048325 -0.042558 -0.37544 -0.080988 -0.659322 0.08869 0.275294 0.193778 0.224281 0.340202 0.384464 0.171817 0.083238 0.058036 0.333476 0.307225 0.386268 -0.307284 0.304715 -0.061285 -0.111665 -0.105873 -0.098332 0.012692 0.019837 0.105235 -0.043817 0.035321 0.123824 -0.052918 -0.068527 0.191345 0.432445 0.102521 -0.250274 -0.085189 -0.185317 0.207609 0.120349 -0.44653 -0.104706 0.194329 0.106428 0.181701 0.180245 -0.091753 0.041889 -0.032855 -0.101119 0.20682 -0.279381 -0.408328 0.133932 0.380471 0.36676 0.565415 0.107439 -0.089784 0.391152 0.313415 -0.034506 -0.075304 -0.207632 0.270495 0.086804 0.095606 -0.025037 -0.227514 -0.104797 0.03785 0.347628 0.100519 0.163524 -0.18232 0.112018 0.179373 -0.219353 0.521442 0.351559 0.307268 0.11541 0.098351 -0.085452 -0.087995 0.016328
yen 0.577935 -0.655342 0.427351 -0.176496 0.185026 -0.644288 -1.316755 0.64495 -0.021112 -0.033706 -0.59755 0.131858 -0.212812 -0.068962 -0.253642 -0.076554 0.309377 0.297231 0.241656 -0.226304 -0.455238 -0.323827 0.593145 0.627123 -0.59916 -0.499574 -0.109549 -0.260592 0.158699 0.279859 0.392633 -0.372325 -0.334681 0.589731 -0.379709 -0.843453 0.26236 0.64897 -0.138633 -0.21527 0.276658 0.17901 0.029393 -0.248965 -0.214922 -0.797862 -0.432689 0.189087 0.343556 0.334387 -0.534395 0.100613 -0.333978 -0.148262 0.158286 -0.528543 0.726759 -0.399924 -0.744689 0.245353 0.144424 0.197026 -0.120082 0.428668 -0.07619 -0.556715 -0.3214 0.242328 -0.101647 -0.068927 -0.164048 -0.387129 0.141469 -0.200389 -0.415843 -0.059072 0.073203 0.185725 0.549054 -0.549116 -0.222951 0.169212 0.198742 -0.166946 -0.137406 -0.930836 -0.036257 0.705348 0.12972 -0.658604 0.001813 -0.407131 -0.803133 0.409612 -0.388824 0.800919 -0.642273 -0.722265 -0.74247 0.579018
library -0.05901 0.020046 -0.272903 -0.012746 -0.192996 -0.03471 0.002514 -0.202595 0.175591 0.210732 0.033938 -0.193072 0.329142 -0.070388 0.132341 0.02821 0.054549 -0.047636 -0.324055 -0.110446 -0.186055 0.122901 0.237074 0.039229 0.315521 0.129686 0.070093 -0.143838 -0.086563 0.326069 0.091721 -0.217104 -0.083667 -0.109396 -0.103293 0.123941 0.093114 0.093156 -0.27489 0.205845 -0.182369 0.021092 0.163407 0.384016 0.105286 0.283659 0.086296 -0.166631 0.135464 -0.188385 -0.237946 0.167069 0.276674 0.180201 -0.251924 0.209645 0.223453 0.017206 0.15394 -0.304664 -0.192887 -0.046153 0.031941 0.017335 -0.019515 -0.029007 -0.063424 -0.027649 0.140451 0.236452 0.058426 -0.112763 -0.100274 0.139207 0.206572 -0.232042 -0.426255 -0.117889 0.571642 -0.449155 0.432825 -0.001555 -0.140294 -0.283221 -0.061514 0.055051 0.02823 0.007597 0.201364 0.011146 -0.439856 0.087333 0.067092 -0.109363 -0.439866 0.31534 0.284063 0.102687 0.187209 0.039255
virtuoso -0.188283 -0.051826 0.185278 -0.04227 0.106005 -0.536854 0.090531 0.089375 0.471278 0.035441 -0.181659 0.09536 0.099419 0.236615 -0.078733 -0.3354 -0.287599 0.069975 -0.296361 0.0074 0.06651 -0.160776 0.214444 -0.045174 0.360705 0.44236 0.188553 -0.205271 0.289463 0.190517 0.364952 0.326131 -0.167598 0.159936 0.514608 -0.125892 0.099191 -0.480317 -0.354448 -0.417723 -0.036027 0.115144 -0.046266 0.087207 0.212401 0.072904 0.238134 0.223472 -0.18294 -0.007783 -0.310553 -0.044099 -0.068631 -0.087466 -0.452743 -0.088189 0.278951 -0.311081 -0.189355 0.286031 0.132729 0.017627 0.087168 -0.313633 0.284407 -0.26899 -0.038614 -0.095514 0.111853 0.209024 0.026484 -0.2688 0.033636 0.213065 0.528431 -0.407054 -0.379726 -0.065631 0.123164 -0.225589 -0.329303 0.319934 -0.021121 -0.049399 -0.243757 -0.258743 0.187054 -0.161527 -0.308111 0.035091 0.100096 -0.143532 0.250374 -0.277246 -0.169716 -0.11751 -0.01749 -0.257189 0.125742 0.15626
psychiatry 0.105651 -0.234446 -0.370159 -0.609422 0.041341 0.335234 -0.183904 0.082982 0.494491 0.51774 0.048802 -0.190954 0.763143 -0.054016 -0.222826 -0.023923 0.346867 -0.933259 0.07536 -0.231952 -0.062648 0.518114 0.194954 0.012334 0.631733 0.338336 0.086359 -0.119174 0.536132 0.719938 0.450888 0.202361 0.003054 0.685375 -0.096454 0.134526 -0.432633 0.023672 -0.184929 0.052608 0.138688 0.304756 -0.070318 0.192885 0.188538 -0.139356 -0.366911 0.096369 0.505808 -0.162766 -0.087602 0.245585 0.091075 0.466637 -0.152286 0.001403 0.597615 0.292688 0.108529 0.080601 -0.559933 0.320715 -0.325993 -0.548782 -0.116791 0.11026 -1.026931 0.616119 0.263534 0.561677 0.598012 0.143239 0.021359 0.393308 0.946771 0.329591 -0.19119 -0.373052 -0.179031 -0.207222 0.115591 0.382299 -0.409154 -0.80585 -0.34708 0.682257 0.367449 0.33503 0.383426 0.211749 0.30896 0.179337 0.421238 -0.097174 0.308407 0.431623 0.473701 -0.232476 -0.113383 0.198956
change -0.271378 0.304411 0.094113 0.012106 -0.224262 -0.163119 -0.125941 0.439428 -0.105316 0.006908 -0.06803 -0.203878 0.089655 0.400945 -0.266536 0.210435 -0.056438 -0.258939 -0.48983 -0.468716 -0.021782 -0.019376 0.069558 0.038793 0.471488 0.138206 -0.159355 0.009485 -0.060169 0.017354 0.036268 0.173128 -0.062524 -0.091964 -0.139007 0.16521 -0.016947 0.335012 0.067547 0.344972 -0.068227 0.164737 -0.021806 0.030304 -0.039655 0.035811 0.112423 0.009245 0.014238 -0.424799 0.41886 -0.038308 -0.109076 0.076252 0.221736 -0.164508 0.277686 -0.175716 0.023546 0.323158 0.250432 0.251962 -0.181662 0.195759 -0.160824 -0.493683 -0.012272 0.323667 0.073743 0.312682 -0.181613 -0.2749 0.015287 0.231717 -0.10133 0.09307 0.204826 0.028336 0.218085 0.355661 -0.257525 0.027644 -0.266395 -0.096737 0.132374 -0.041506 0.087836 -0.171824 -0.289209 -0.2565 0.13829 -0.055304 0.49822 -0.008388 0.173845 0.155659 -0.29536 0.174939 -0.072876 -0.232531
entity -0.082161 0.153922 0.360046 -0.186157 0.061084 -0.057989 0.0689 -0.326338 -0.32301 -0.159389 0.637404 -0.392822 0.449159 0.03348 0.097961 0.565362 -0.421975 -0.137475 -0.197269 -0.163974 -0.008903 -0.107976 0.38649 -0.203392 0.059799 0.194126 -0.14027 0.043975 0.044326 0.398301 -0.204558 -0.090185 0.243044 0.008704 -0.148229 -0.176465 -0.406193 0.139867 -0.321573 0.391797 0.163575 0.145065 0.076596 0.590178 0.506514 0.29659 -0.061729 0.033829 -0.209345 0.147992 -0.332992 -0.270005 0.044358 -0.232783 0.006927 -0.213962 0.342831 -0.051292 -0.288582 -0.334825 0.012447 0.069082 -0.386799 0.025171 0.39657 -0.123843 -0.123572 -0.049496 -0.266193 0.089456 0.359193 0.145609 -0.145453 0.336077 0.123048 -0.074898 0.187256 -0.333295 0.003195 -0.285194 0.08432 0.252147 -0.245678 0.563356 -0.088126 0.084084 -0.403528 0.081392 0.384704 -0.067272 0.260626 -0.331717 -0.090918 -0.109228 -0.274077 -0.056673 -0.307206 -0.161918 -0.118182 0.249349
tool -0.158028 -0.170196 -0.151855 -0.078207 -0.180742 0.049135 0.274049 0.070433 -0.061179 -0.184322 0.071944 -0.157227 0.009329 -0.095835 0.082067 0.061158 -0.317981 -0.098202 -0.557819 -0.159926 0.099795 -0.163999 0.456043 -0.093503 0.170837 0.277474 -0.155508 -0.125209 -0.257008 0.162502 0.203144 -0.214389 0.453513 0.101264 0.284902 -0.336851 -0.41361 0.061258 -0.011607 0.211147 -0.20929 -0.183865 0.003419 0.493552 -0.12763 0.261329 -0.073632 0.273626 -0.094795 -0.204102 -0.168217 0.218896 0.317495 0.071047 -0.153336 -0.334872 0.611076 0.296568 -0.109014 0.084761 -0.016886 -0.114715 -0.314801 0.149223 0.385133 -0.114431 -0.31613 -0.056974 0.142825 0.026692 0.103986 -0.061327 -0.090518 0.312148 0.138016 -0.069146 -0.01385 0.112229 0.300031 0.145361 0.167645 0.00737 -0.026661 0.148345 0.035651 -0.034456 -0.491304 -0.031816 0.033187 -0.506294 0.037223 -0.326931 0.074465 -0.07643 -0.376651 0.064001 0.339962 -0.323099 0.120286 0.231723
stupid 0.222949 -0.145759 -0.098981 0.092323 -0.130557 -0.424654 0.061851 0.550906 -0.073135 0.135635 0.176109 0.136474 -0.144872 -0.103015 0.167544 -0.020449 -0.066818 -0.217454 -0.526513 -0.20217 -0.368268 -0.067546 -0.217389 -0.170006 0.326533 0.049192 0.12989 -0.274375 0.138981 -0.077671 -0.001223 0.166016 0.133869 -0.226893 0.454049 -0.045333 -0.172746 -0.232386 0.516439 0.013559 0.152005 -0.042584 0.107256 -0.134091 -0.10167 0.361259 -0.417437 0.023551 0.125365 0.153462 0.394924 -0.071694 -0.597971 -0.367452 0.316656 -0.094654 0.147665 0.209547 -0.262357 0.097759 0.242226 0.167147 -0.04576 0.062171 0.12047 0.300518 -0.321275 0.021631 -0.024007 0.193929 -0.248452 0.163424 0.380398 0.445057 0.142714 -0.110189 -0.351778 -0.242409 0.132171 0.037429 -0.235074 -0.088136 -0.111184 -0.268834 -0.112316 0.077927 -0.084075 -0.207181 0.061715 -0.336365 0.545045 -0.027751 -0.032534 -0.135638 -3.38E-4 -0.240443 -0.202286 -0.056441 -0.31474 -0.453122
precedent -0.217251 -0.324899 0.540413 -0.471028 0.066595 0.045548 0.216354 -0.046683 -0.231753 0.142193 0.358382 -0.122094 0.639719 0.247934 0.301345 0.189261 -0.458825 -0.506552 -0.52484 -0.397265 0.129085 -0.020446 0.138531 -0.726587 0.161623 0.446484 0.05814 -0.251125 -0.065607 -0.021266 -0.012924 -0.197105 -0.059227 -0.054014 0.251087 -0.002254 0.196753 0.27065 0.125384 0.670763 -0.093147 0.063841 0.296566 0.230524 0.336564 0.484359 -0.418265 0.378492 -0.397684 -0.082348 0.178116 0.106137 -0.058964 0.193187 0.309807 -0.308518 0.478965 -0.104231 -0.153981 0.052524 0.431464 -0.246224 0.017263 -0.189971 0.414761 -0.349743 -0.292459 0.200908 -0.256399 0.271912 0.025755 -0.231619 -0.061613 0.203261 0.171333 -0.101553 0.027757 0.02087 -0.03037 0.54767 0.382183 0.150506 0.180447 -0.056195 0.392665 -0.345374 -0.002697 -0.162461 -0.538787 -0.3424 0.223672 -0.213193 -0.111569 0.141519 0.438463 0.236499 -0.0745 -0.386266 -0.090144 -0.018601
architecture -0.170604 -0.072043 0.227153 0.230582 -0.274981 -0.141904 0.160534 -0.466204 -7.03E-4 0.220524 0.03744 -0.065029 0.227866 0.058053 -0.179592 -0.194391 -0.171683 -0.248378 -0.403417 -0.321259 -0.041376 0.356205 0.251421 0.10778 0.274562 0.279216 0.081128 -0.159838 -0.028484 0.556502 0.11589 0.222272 -0.068141 0.014302 0.093891 -0.045722 -0.069083 0.183779 -0.06199 0.144839 -0.153728 0.055918 -0.138953 0.26511 -0.055324 0.057501 0.260418 0.159632 0.117352 -0.072432 -0.433302 0.144055 -0.013134 0.103052 -0.188925 0.101387 0.375597 -0.333195 -0.129218 0.158308 -0.300258 0.245391 0.354952 0.222584 0.345762 -0.141684 -0.353239 -0.105806 0.147984 0.228867 0.334803 -0.128715 -0.108077 0.419498 0.355494 -0.082734 -0.412164 -0.011313 0.303159 -0.201989 0.142734 0.026378 -0.49177 -0.229267 0.003047 0.108895 0.01673 0.055706 -0.177687 -0.043794 -0.113807 -0.21715 0.201968 -0.041901 -0.335547 -0.041827 -0.140784 -0.24764 0.174077 0.227457
consumer 0.041105 -0.381485 -0.241849 -0.015804 -0.282941 -0.063981 -0.550601 0.070066 -0.167946 0.348273 0.167563 0.083757 0.62413 0.048937 0.125556 0.408371 0.193926 -0.126024 0.185558 0.122955 -0.226581 0.076937 0.666121 0.004678 -0.10734 0.280536 -0.146384 0.245715 -0.08861 0.03093 0.016715 -0.040931 0.179492 -0.014684 0.04989 -0.237993 0.325814 0.122976 0.333278 -0.014152 -0.077275 0.266194 -0.113911 0.33988 -0.418961 -0.004683 -0.599573 -0.013578 0.132918 0.078779 -0.512301 0.240838 0.024223 -0.185007 0.079651 0.10913 0.291331 -0.310278 -0.318103 -0.044405 -0.049889 0.270799 0.217505 0.213473 0.380197 -0.411866 0.121726 0.091498 0.210151 0.063449 0.105046 0.055602 -0.199671 -0.046219 0.190415 0.423165 0.200605 0.281318 0.142333 0.354511 -0.240493 -0.06428 -0.137096 -0.101644 0.223744 0.06161 0.009661 -0.143863 -0.133195 -0.363146 0.10434 -0.112722 0.188542 -0.120165 -0.810535 0.563716 -2.52E-4 -0.119475 0.436762 0.025582
doctor 0.101801 -0.171173 -0.308282 -0.045055 -0.245748 -0.144977 0.014033 0.450917 0.436209 0.177996 0.05982 -0.372437 0.23386 -0.286091 0.09688 -0.033398 0.255864 -8.12E-4 -0.157044 -0.261261 0.099331 0.072857 -0.093061 -0.111483 -0.032034 0.164608 0.070687 -0.238059 0.042565 -0.158657 0.082669 -0.118967 0.134122 0.164407 0.256508 0.294962 0.115133 -0.256528 -0.231413 -0.123393 0.251107 0.094693 0.452346 0.28869 0.179366 0.056417 -0.25694 0.015404 0.158369 0.077219 0.343674 -0.091466 0.345844 0.035222 -0.244451 -0.476384 0.287947 0.034855 0.163089 -0.3174 -0.117848 0.238436 -0.514766 -0.192785 0.110641 0.293135 0.223133 0.061336 -0.111018 0.078829 0.454475 0.275058 -0.27379 0.12411 0.152279 0.069069 0.046742 -0.164384 -0.121345 -0.119466 0.192971 0.186821 0.025839 -0.4027 -0.124867 -0.005564 -0.171915 0.010039 0.289686 -0.073222 0.004007 0.206917 0.046386 -0.132376 0.102801 0.301671 -0.101711 0.079723 0.246747 -0.285098
cock -0.005585 0.191502 -0.155716 -0.136187 -0.097752 -0.17466 0.14986 0.14384 0.210891 -0.012054 -0.051577 -0.012389 -0.466665 -0.179187 0.02009 -0.089029 -0.016636 -0.289553 -0.083569 -0.322672 -0.239571 0.171396 0.133905 0.095485 0.345004 -0.194545 0.031959 -0.411969 0.130153 0.356988 -0.105251 -0.033966 0.09646 0.361985 0.10838 -0.32517 0.256498 -0.149574 0.148634 -0.04035 -0.03359 -0.249479 0.164731 -0.182768 0.088416 0.22651 0.163093 0.098854 0.036979 0.165824 0.123816 -0.193469 0.057544 -0.171742 -0.005678 -0.055893 0.227804 -0.199044 0.053879 -0.062682 -0.080986 0.172932 -0.12255 -0.372393 -0.009935 -0.004211 -0.058451 -0.157756 -0.090016 -0.080529 -0.275112 -0.016103 0.221169 0.43061 0.152435 -0.148078 0.037231 -0.270843 0.343551 -0.140473 0.140955 -0.095854 0.139669 -0.164348 -0.152878 0.147258 -0.400232 -0.138519 0.053216 -0.275637 0.151086 0.007936 -0.021133 0.099476 0.149839 0.03305 -0.0169 -0.311703 -0.057924 -0.339594
planet 0.247701 0.084199 -0.317974 0.349102 -0.481493 -0.392922 -0.021884 -0.014762 0.157812 -0.060715 -0.273837 -0.253883 0.108103 0.257542 -0.234039 -0.043166 -0.132172 -0.037132 -0.289477 -0.358862 0.023084 0.362897 0.136069 0.021487 0.412904 -0.027307 -0.341718 -0.304576 0.2109 0.587163 -0.057908 -0.068577 -0.101696 0.035729 0.045647 -0.089683 -0.185698 -0.237405 0.424041 -0.500152 -0.506159 -0.145912 0.133399 0.534068 0.265811 0.039536 0.208386 0.226556 0.09518 -0.189395 0.055886 -0.20166 -0.063305 -0.238759 0.195349 0.036586 0.126296 0.004673 -0.014106 0.318037 0.397767 -0.140967 0.414427 0.127761 -0.143171 -0.063152 0.380154 0.119973 -0.079834 -0.003629 -0.06991 0.023405 -0.080864 0.301312 -0.050278 -0.165548 0.15945 0.102713 0.349708 0.136679 0.239794 -0.188083 -0.252976 -0.071139 0.703546 0.068453 -0.103164 -0.252614 0.0921 -0.387918 0.365252 -0.075491 0.025115 0.097611 0.050324 -0.25871 -0.054782 -0.24111 -0.572211 0.104601
software -0.260992 -0.144591 -0.234398 -0.186368 -0.407127 0.324903 0.073075 -0.055199 -0.187327 0.138783 -0.1357 -0.211899 0.299457 0.085125 0.134659 0.272585 -0.045776 0.148785 -0.44029 0.029088 -0.17945 0.032447 0.273841 0.582478 0.10071 0.019889 -0.204 -0.22257 -0.187517 0.326168 0.214879 0.048726 0.376222 -0.201595 0.140755 -0.327014 -0.150747 0.042541 0.154609 0.155936 -0.138496 0.043837 -0.035517 0.834039 -0.178561 0.254132 -0.057305 0.220503 0.203869 -0.024067 -0.253047 0.165035 2.6E-5 0.283754 -0.350003 -0.129523 0.245091 0.037891 -0.233598 0.207525 -0.146743 -0.222356 -0.091244 0.145547 0.451635 0.057526 0.110534 -0.315352 0.032167 0.140226 0.343322 -0.059519 -0.384008 0.219467 -0.073781 0.050269 -0.125621 0.362998 0.352192 -0.248897 0.060627 -0.320831 -0.177997 0.296421 -0.121514 -0.155714 0.032979 0.438167 -0.298704 -0.522348 0.299426 -0.270469 0.10797 0.105743 -0.899539 0.063737 0.031329 0.066062 0.524994 0.274131
personnel -0.031608 -0.266857 -0.436204 0.095413 -0.51179 -0.34881 0.137175 0.169133 -0.204257 0.220703 -0.045348 0.153665 0.118344 0.132099 -0.125387 0.060655 0.137561 0.279204 0.006753 -0.032487 0.229758 0.383985 0.116345 0.172384 -0.145756 -0.040384 -0.264019 -0.216681 0.208875 0.456509 0.184631 0.028871 0.479455 -0.107096 0.080727 -0.04902 -0.17564 -0.095311 -0.437495 0.292907 0.404277 0.236181 -0.232237 -0.194613 -0.025651 0.073287 -0.419519 -0.031572 -0.057524 -0.507074 0.125095 -0.63399 0.255675 0.189013 -0.14861 0.204431 -0.18501 -0.044783 0.060767 -0.372934 -0.093123 -0.424579 -0.368679 0.249296 0.049373 0.092171 -0.114254 -0.17007 0.193095 0.158281 0.395808 0.211427 0.030011 0.352229 0.096255 0.370769 0.119361 0.204065 -0.230773 0.083057 -0.208472 0.299681 0.080773 0.194008 -0.301233 -0.049013 -0.042128 -0.164022 -0.159338 -0.38035 -0.290371 0.493723 -0.401387 -0.114665 0.197843 0.075311 0.148853 -0.12559 0.456666 0.685401
bank 0.221463 0.137494 -0.205174 0.192268 0.133568 0.312134 -0.449309 -0.232781 -0.294505 0.098705 0.266868 -0.111693 0.370447 0.001388 0.207249 0.359386 0.190837 0.55243 0.029484 -0.199147 -0.218251 0.048008 0.441629 -0.590212 -0.196047 -0.045801 -0.10185 0.358405 0.226818 0.17511 -0.097879 -0.230946 -0.041265 -0.076277 -0.131651 0.007417 -0.013253 0.205043 -0.244237 -0.025878 0.181216 -0.033486 -0.386633 0.1917 0.225445 -0.007888 0.133656 0.166426 0.294557 0.125476 -0.252631 -0.098141 0.058939 -0.348866 0.36456 -0.406631 0.114005 -0.507291 -0.301125 -0.434637 0.077626 0.10883 -0.29139 -0.043118 0.129035 -0.05684 0.002073 -0.263137 -0.385209 -0.217756 0.058781 -0.055195 -0.042608 0.310997 0.035235 -0.026038 0.292751 0.013206 0.154835 -0.16298 0.168092 0.388506 -0.123432 -0.160746 -0.19702 0.015026 -0.005108 0.040475 0.427727 -0.154885 0.151508 0.060517 -0.021504 -0.337939 -0.620148 0.159952 -0.286599 -0.008374 0.021155 -0.041591
Wednesday -0.158149 -0.396716 0.01278 -0.080264 0.149469 -0.267342 -0.051113 -0.045917 -0.314229 0.152444 -0.425795 0.238809 0.380065 0.147987 0.113472 0.048019 0.358537 -0.318237 -0.326472 0.102418 0.604858 -0.335685 0.031618 0.024419 -0.400553 -0.037258 0.067403 -0.218969 0.213903 0.017338 0.314557 -0.178986 -0.074217 -0.148607 -0.18757 -0.001303 0.257985 0.124 -0.07483 -0.651848 0.158474 0.097907 -0.282359 -0.095044 0.015903 0.076582 0.497679 0.219254 -0.170215 0.13998 0.093202 0.138113 -0.159119 -0.152018 0.008005 0.218802 -0.266389 0.009712 -0.097659 -0.106545 0.084421 -0.414592 -0.352702 0.081056 0.036035 0.325548 0.28209 0.384411 0.116238 -0.494101 0.108232 -0.108754 0.205747 0.011708 -0.179556 -0.033877 0.329968 -0.143383 0.080729 0.150619 0.168416 -0.220371 0.087899 -0.045286 0.156406 0.06532 0.046957 -0.116961 -0.248546 0.011235 0.246729 0.263162 -0.072552 -0.07929 -0.294441 0.37936 -0.018493 0.00505 -0.107037 0.069604
victory -0.849348 -0.180987 0.251132 -0.326325 0.253834 0.059563 -0.505363 -0.131963 0.135734 0.502752 -0.014959 -0.014607 -0.108278 0.228803 0.198081 -0.058259 0.066064 -0.089182 0.081513 0.067428 0.679848 -0.193105 -0.540763 0.009889 0.779918 -0.301931 0.064069 -0.176603 -0.046422 -0.141261 0.617632 0.171056 -0.080043 -0.489923 0.200069 0.065256 0.293942 0.219144 -0.27443 0.16611 0.180649 -0.283094 0.18035 0.195371 -0.439673 0.221914 0.076857 0.241539 -0.071697 0.080272 -0.364102 0.255898 0.152911 0.188373 -0.057363 -0.218165 0.311175 0.312413 -0.181065 0.044846 0.459047 -0.12221 -0.113177 -0.137767 -0.368405 0.22975 0.088225 -0.109396 0.176178 -0.372092 -0.042996 -0.306923 -0.01464 -0.080376 0.448479 -0.039512 0.719904 -0.016956 0.405956 0.266875 0.345683 0.360019 0.317912 0.13592 0.021616 -0.410929 -0.158782 -0.284314 -0.088233 0.42356 0.456606 -0.308833 -0.050405 -0.341436 0.022866 0.110781 -0.288879 -0.238302 -0.429977 -0.301984
bishop -0.057927 -0.231325 0.497977 0.049947 -0.136743 0.336258 0.093322 0.334625 0.189172 0.266142 0.224057 -0.26815 0.332609 0.041256 -0.094788 -0.031774 -0.372972 -0.279748 0.015192 0.04005 0.451844 0.167422 -0.146925 -0.32344 0.323359 -0.02802 0.120972 -0.069771 -0.085041 -0.35807 0.600351 0.052417 0.364531 0.4586 0.36501 -0.183068 0.052651 0.081737 -0.193954 0.075201 0.221046 -0.015789 0.480036 0.305001 0.805892 0.348162 -0.238222 -0.182581 0.345727 -0.278337 -0.018678 0.441819 0.096628 0.179949 0.089944 -0.020571 0.654519 -0.467564 -0.139142 -0.588004 -0.105847 -0.120232 -0.204739 -0.205228 0.04407 0.423497 0.60784 -0.035853 0.00491 0.075083 0.283664 -0.029656 -0.019311 -0.192164 0.537034 0.11138 -0.267114 -0.483811 0.03684 0.055094 0.204368 0.087278 -0.080573 -0.016064 0.571521 -0.180196 0.201548 0.193496 0.216167 0.391661 -0.504267 0.027666 -0.255962 -0.076765 -0.008368 -0.088888 -0.261035 -0.443926 0.172345 -0.040284
country 0.033296 0.00552 0.19772 0.096251 -0.338615 -0.040157 -0.107824 -0.122662 0.10683 0.058956 0.105244 -0.261002 0.15064 0.294673 -0.115978 -0.112223 0.020248 0.18948 -0.03729 -0.034903 0.068704 0.343632 0.294529 -0.1809 0.470953 -0.010039 -0.083617 0.085537 -0.095242 0.157769 -0.152809 -0.012692 0.040145 -0.13861 0.067766 0.031925 -0.061785 0.034638 0.013797 -0.1126 -0.042788 -0.100082 0.210129 0.25356 0.09429 -0.216375 0.062193 -0.011851 -0.079764 -0.251232 0.024813 0.054219 0.129489 -0.147154 0.315303 0.241556 0.17595 -0.351933 0.132901 -0.133601 0.31285 -0.107515 0.187176 0.167342 0.082028 -0.264564 0.249453 -0.055781 0.251043 -0.118479 0.213025 0.374756 0.081276 0.137941 -0.101701 -0.020806 0.045232 0.00892 -0.118984 -0.119025 0.222252 0.126375 -0.214711 -0.347989 0.089834 -0.131231 0.011774 0.111542 0.209403 -0.489511 0.046798 -0.078886 -0.350534 -0.218528 -0.197691 0.054757 -0.126677 -0.03182 -0.277658 -0.085672
sign -0.624413 0.161319 -0.181669 -0.15845 -0.122579 0.038763 0.174979 0.075497 -0.207817 -0.0778 0.262594 -0.048706 0.344151 -0.126348 -0.418522 -0.062325 -0.268819 -0.224019 -0.117668 -0.283031 -0.048508 -0.269961 0.330969 -0.074398 0.177089 0.257279 -0.038873 0.050745 -0.179165 -0.136037 4.5E-5 -0.188826 0.031035 0.244369 0.124911 -0.177053 0.088326 -0.065857 -0.07115 -0.066533 0.090924 -0.047107 0.389684 -0.129644 0.294765 0.177667 0.079585 -0.02773 -0.178703 0.023322 0.123093 0.090562 -0.085597 -0.007397 0.209658 -0.097797 0.173278 -0.399782 0.174937 -0.207242 -0.018351 -0.032532 -0.353264 -0.128039 -0.246662 -0.232336 0.167461 0.224251 -6.4E-4 0.164389 -0.344901 -0.221641 0.062476 0.021782 0.232753 -0.204726 0.345905 -0.129284 0.137692 8.32E-4 -0.178366 -0.089572 0.2863 0.262087 0.148205 -0.048005 0.039293 0.064991 -0.025518 -0.45576 -0.2245 -0.264648 0.070147 -0.037705 0.006523 0.248258 -0.069541 -0.224572 0.166784 -0.156949
proximity -0.16638 0.282125 0.335584 0.051622 -0.313178 -0.268881 0.148124 -0.223715 -0.106068 -0.165957 0.157479 0.182957 0.434035 0.017766 -0.447473 -0.145165 0.0454 0.013768 -0.165034 -0.402152 -0.366662 -0.032755 -9.17E-4 0.214894 0.218777 -0.289017 0.258434 -0.039328 -0.219265 0.371553 -0.089827 0.272264 0.274291 -0.226605 0.200081 0.3165 0.195125 0.293601 0.106262 -0.277328 0.083632 -0.340645 -0.301106 0.072066 -0.154636 -0.014455 0.329067 -0.223577 0.019483 -0.485066 -0.080513 -0.033613 -0.03044 0.327977 -0.139502 0.38728 -0.121208 -0.241465 -0.005279 -0.132023 0.023568 -0.498701 -0.306253 0.076449 -0.266985 0.033379 -0.040453 0.05589 -0.34221 0.077217 0.244272 0.257077 -0.223805 -0.096147 0.025492 -0.254855 0.099294 -0.12635 0.244303 -0.204416 0.330387 -0.050187 -0.130332 -0.422561 0.19967 -0.101142 -0.367664 -0.127265 0.234832 -0.365006 -0.100475 -0.530919 -0.09564 -0.282672 0.398291 -0.087055 0.120843 0.072233 0.066314 0.103869
earning -0.01607 -0.104156 -0.317389 -0.131571 0.039122 -0.548534 -0.416078 0.293867 -0.238057 0.007882 0.134254 -0.171115 -0.489096 -0.172985 0.376774 -0.147896 0.217839 0.210196 0.13934 0.266673 0.264554 -0.490189 0.252775 -0.067406 0.237921 0.083963 -0.054289 0.271959 0.227413 0.203497 0.270776 0.123965 -0.504822 0.108126 -0.012378 -0.089309 -0.299895 -0.460933 0.067345 0.192996 0.143993 -0.188058 -0.139571 -0.061264 -0.039649 -0.124631 0.303699 -0.157129 0.290717 0.011376 -0.061202 -0.043595 0.185528 -0.073834 0.277163 0.060802 -0.074709 0.219597 -0.176488 -0.469256 0.144723 -0.026967 -0.003019 0.342998 0.03206 -0.086512 -0.257751 0.121298 -0.088476 0.225885 -0.334499 0.201669 -0.469576 -0.132279 0.548355 -0.090315 0.204425 -0.054227 0.186192 -0.432007 -0.229031 0.491307 0.118344 0.412338 0.075544 -0.05656 0.227392 0.011562 -0.090207 0.090464 0.07853 -0.238696 0.10946 -0.03517 0.277982 0.065938 -0.043247 0.246412 -0.186942 -0.196376
Harvard 0.143625 0.136441 -0.214973 -0.553935 0.007831 0.214164 -0.606143 0.202091 0.1814 0.421591 0.132762 0.186132 0.663249 0.140145 -0.099191 0.203782 0.629213 -0.293695 -0.072205 0.023649 0.31229 0.45408 0.142553 -0.107392 0.542633 -0.122718 0.380439 -0.486512 0.087811 0.199178 0.603236 0.302704 -0.220237 0.551161 -0.178462 -0.490251 -0.454839 0.019146 -0.071952 -0.169048 0.036021 -0.064652 0.198119 0.029135 0.372795 -0.459008 -0.116343 -0.270467 0.449458 0.082901 -0.467976 0.297923 0.19455 0.095473 -0.482923 -0.240511 0.051014 0.301403 0.082794 -0.065155 -0.303681 -0.02801 0.037853 -0.105093 0.064976 0.447063 -0.699809 0.418592 0.074585 0.497088 0.097968 0.185426 0.09474 0.463971 0.7989 0.172299 -0.288156 -0.352888 -0.18319 -0.200399 0.01052 -0.139431 -0.105243 -0.43346 -0.367827 0.715739 0.47277 0.318414 -0.002355 0.277443 0.10011 0.045961 0.356767 0.011903 0.151649 0.703031 0.678917 0.138735 -0.27733 0.232312
similarity -0.326049 0.630259 0.185802 0.02884 -0.156626 -0.113144 -0.025639 0.02633 -0.105015 -0.300478 0.351577 0.409177 0.098277 0.025809 -0.074385 -0.240726 -0.424262 -0.3079 -0.227231 -0.427692 -0.251124 0.215644 -0.046716 -0.308066 0.234981 0.239082 0.356935 -0.106461 -0.132849 -0.061319 0.211561 0.278714 -0.004796 0.188957 0.104075 0.144078 0.353576 0.115737 -0.129724 -0.263979 -0.332655 -0.101117 0.103068 0.141016 -0.124227 -0.468153 -0.138367 0.292536 -0.060379 -0.591577 -0.187845 -0.481526 -0.081789 0.218198 0.08463 -0.021197 0.305171 -0.103138 0.107753 0.047564 0.250666 -0.200268 0.0359 -0.389174 -0.111096 -0.261711 0.208206 -0.154189 -0.48923 0.331997 0.07429 -0.084991 0.281205 0.351094 0.040808 -0.539372 0.279308 -0.272175 0.397861 -0.177999 -0.174054 0.041581 -0.332905 -0.127167 0.480406 -0.128558 -0.058663 -0.062202 -0.109658 -0.262547 0.020738 -0.462448 -0.048018 0.323547 0.197604 -0.323208 0.16266 -0.061391 0.034417 -0.015879
example 0.394698 -0.054406 -0.082124 -0.305824 0.256322 0.074558 0.08009 -0.137552 0.039374 -0.188574 -0.043979 -0.122692 0.021254 -0.321331 0.213166 -0.392796 -0.316335 -0.282751 -0.528132 -0.208663 0.010095 -0.097167 -0.044955 -0.227577 0.264874 0.366081 -0.46698 0.07466 -0.142806 -0.119288 -0.241411 -0.030627 0.117381 0.104206 0.262057 -0.045395 -0.068511 -0.140257 0.134276 -0.09251 0.023369 -0.498601 0.255747 0.10672 0.03556 0.219562 -0.163477 -0.040449 -0.105081 0.194725 -0.20263 0.441489 0.111091 -0.064943 0.549406 -0.390669 0.353944 -0.094958 0.063697 -0.429223 -0.262714 -0.158333 0.120563 -0.034972 0.184109 0.08314 -0.649934 0.209508 0.016149 0.188395 0.143331 -0.061909 -0.093378 -0.141884 0.507103 0.236912 0.191547 0.194809 -0.041082 0.413385 0.175043 0.2145 0.04654 0.029599 0.647345 -0.572992 0.195696 -0.018808 -0.123286 -0.588069 -0.122268 0.20589 0.351718 0.001954 0.341652 -0.236943 -0.321495 0.061035 0.57708 0.271848
day -0.0688 0.038207 -0.327747 -0.247164 0.063009 0.017979 -0.045335 0.079496 0.314286 0.146208 -0.107485 -0.378318 -0.012155 -0.010426 0.258889 -0.331409 -0.101002 -0.26822 -0.069026 -0.070761 0.443851 -0.21655 0.195729 0.14475 0.187981 0.08648 -0.124123 0.060714 0.035847 0.240456 -0.130097 -0.339584 -0.159222 -0.013853 0.028662 0.067843 0.208439 -0.320469 0.235049 -0.469857 0.106263 -0.326481 0.181242 0.083037 0.275234 -0.044847 0.221653 0.282205 0.08457 0.02743 0.283404 0.083674 -0.097046 0.504252 0.130932 0.050059 0.110527 0.194676 0.178621 -0.127111 0.287555 -0.115089 -0.017874 0.346827 0.071986 0.05857 0.090635 0.22494 -0.226488 -0.155462 0.048226 -0.125134 0.107206 0.072017 -0.048259 -0.168149 0.036947 0.086435 0.001356 -0.073908 0.0627 0.020734 0.088427 0.055201 0.089742 -0.108817 0.058453 0.021232 0.016652 -0.156918 -0.203002 0.328079 -0.109297 -0.217693 0.074038 0.264215 -0.223409 -0.001142 -0.251073 -0.010803
gem -3.4E-4 -0.106738 0.008695 0.158569 0.036418 -0.113957 0.181944 -0.320661 0.217922 -0.032056 0.223712 0.300925 0.247612 -0.303627 -0.041637 -0.072784 -0.198854 -0.138186 -0.465235 -0.303026 -0.066991 0.10032 -0.034456 -0.189492 0.328735 0.119786 -0.204247 -0.253801 -0.116292 0.111862 0.219497 0.105467 -0.068027 0.073205 0.07781 -0.081955 0.173709 -0.27099 -0.185269 -0.421105 -0.362005 -0.148586 0.200251 0.16588 0.416708 0.029565 0.35566 0.120014 -0.226728 -0.050393 -0.339588 0.015445 -0.127577 0.216249 0.057923 0.144439 0.403783 -0.339686 -0.228383 -0.138731 0.025755 0.290928 0.084543 0.021089 0.100823 -0.288612 -0.095745 -0.140921 -0.01953 0.035083 -0.269777 -0.178182 0.04639 0.303915 0.427684 -0.31775 -0.112289 -0.224432 0.384557 -0.102969 0.350737 0.121682 0.059287 0.113952 0.053057 -0.006483 -0.163129 -0.307833 0.12397 -0.115955 0.060399 -0.163787 -0.28259 0.182423 -0.254521 0.030827 -0.073579 -0.210502 -0.020288 -0.262767
internet 0.103634 -0.085607 -0.394107 -0.12492 -0.248536 0.231209 0.133052 0.228938 -0.090252 0.012421 -0.313838 -0.123025 -0.013234 -0.057743 0.265647 0.150777 0.046364 -0.194742 -0.550437 0.368309 -0.318159 0.271218 0.413311 0.286122 0.356187 0.337562 0.116586 -0.173824 0.041418 0.214921 0.135578 -0.287475 0.335698 -0.178133 -0.05639 -0.040351 -0.076403 0.197904 0.181625 0.070133 0.027033 -0.055289 -0.105044 0.558688 0.187138 0.379157 -0.347131 0.168422 0.111505 -0.135503 -0.171594 0.397921 0.070001 0.186921 -0.247448 0.031059 0.134959 -0.23644 -0.060212 -0.065654 0.075222 -0.426217 0.165563 0.209198 -0.096772 0.056918 0.193346 -0.100995 -0.292601 0.195925 0.016118 0.018208 -0.431941 -0.036778 -0.36145 0.110879 -0.028905 0.129471 0.344354 -0.223703 0.110842 -0.411073 -0.192291 0.034374 0.317578 -0.330888 0.159732 0.10359 -0.030202 -0.189385 0.319096 -0.216604 -0.063793 -0.140094 -0.855318 -0.092462 0.293412 -0.082121 0.238131 -0.276038
rook 0.070442 0.030013 -0.031081 -0.070076 -0.180382 -0.099511 -0.083963 0.066604 0.079121 0.106727 0.005121 -0.031779 -0.270132 -0.122353 0.120964 -0.152126 -0.098857 -0.068536 -0.122747 -0.034883 0.01026 -0.039938 0.135881 -0.051598 0.161294 0.068596 9.26E-4 -0.221457 -0.048974 0.027317 0.042818 4.81E-4 -0.077809 0.081579 0.072521 -0.073945 0.094682 -0.146225 -0.06928 0.001549 -0.07109 -0.150956 0.118711 0.11545 0.155527 0.192368 0.02314 0.111964 0.075264 0.089011 -0.092664 -0.058551 -0.04936 -0.099752 -0.070541 -0.054466 0.257347 -0.171008 0.033377 -0.220943 -0.019361 0.176263 0.076452 -0.091298 0.060579 -6.62E-4 0.145355 0.041348 -0.133955 -0.082645 -0.173194 -0.207902 -0.109108 0.217159 0.261772 -0.136749 -0.107608 -0.250963 0.288074 -0.083282 0.026685 0.136559 0.063385 0.006437 -0.037576 -0.078243 -0.140016 -0.276591 -0.048102 -0.063617 0.101849 0.123756 -0.113247 0.083299 0.045917 -0.071896 -0.228838 -0.149849 -0.083682 0.001527
galaxy 0.085313 0.138149 -0.167507 0.35735 -0.324131 -0.207363 0.010914 -0.393146 0.481707 -0.230137 -0.211895 -0.050471 0.299144 0.380138 -0.109609 0.073924 -0.276229 0.048103 -0.169097 -0.578447 0.048366 0.4785 0.557164 -0.040441 0.396508 -0.196654 -0.204968 -0.121255 0.092074 0.490229 0.052024 0.377949 -0.170828 -0.058505 -0.099101 0.139498 -0.307883 -0.605262 0.091116 -0.096013 -0.497359 0.20074 0.059289 0.68249 0.282683 1.03E-4 -0.039399 0.01858 -0.090163 0.021812 -0.159539 -0.247939 -0.109361 0.221761 -0.222255 -0.003409 0.397218 -0.283124 -0.247701 0.131451 0.352001 0.220315 0.266295 0.131937 -0.176993 0.137683 0.10114 -0.009435 0.235247 0.131673 0.112964 -0.159934 0.342672 0.341671 -0.068773 -0.579655 0.072858 0.197938 0.539988 -0.3182 0.246491 -0.241928 -0.257431 -0.077668 0.260166 0.078936 -0.326166 0.087524 0.361918 -0.362302 0.150288 -0.425876 0.322924 0.168475 0.43678 -0.269507 -0.131347 0.122457 -0.441302 0.432859
insurance -0.049859 -0.272475 -0.192875 0.322529 -0.325312 -0.00985 -0.316881 -0.321325 -0.611068 -0.00109 0.313529 -0.036414 -0.137784 -0.175151 0.48892 -0.113077 0.425647 0.139062 -0.170266 -0.333025 -0.12047 -0.155033 0.029935 -0.230448 -0.297975 0.378116 -0.238897 0.448004 0.162858 0.421636 -0.400643 0.287637 0.573269 -0.268528 -0.147686 -0.348971 -0.098004 0.062917 -0.0221 0.337991 -0.128406 0.074176 -0.149157 0.436699 0.497048 0.085658 -0.43447 -0.103426 0.076042 0.241133 -0.08033 0.031635 -0.172143 -0.388058 0.165993 -0.305591 0.126857 0.13213 0.089081 -0.386738 -0.307466 0.093292 -0.034666 0.269827 -0.077412 0.030335 -0.103942 0.135522 -0.108462 0.040605 0.408488 0.401491 -0.409293 -0.210769 0.319586 0.728424 0.487164 -0.203455 0.375593 0.043717 0.034784 0.29764 -0.249937 -0.0707 -0.311582 -0.103058 0.001746 -0.176067 -0.313667 -0.123527 0.163029 0.068881 0.164221 -0.382896 -0.490614 0.590824 -0.386737 0.318059 0.298655 -0.349157
sex 0.349195 -0.286623 0.02859 0.084725 -0.216552 -0.070821 0.358303 0.361424 0.272326 0.362766 0.022611 0.218319 -0.404955 -0.125853 0.56609 -0.165815 0.040516 -0.604873 0.006608 0.02017 -0.028236 0.308538 -0.036631 0.119977 0.054879 0.271621 0.129212 -0.071616 -0.110004 -0.178632 0.076695 0.083021 0.167894 0.157913 -0.220193 0.135819 -0.229953 -0.043966 0.063294 0.22118 -0.118114 0.220648 0.098003 0.082452 0.537248 0.171503 -0.434433 0.358655 0.189093 -0.008608 0.134747 -0.098775 0.339441 -0.074122 -0.04154 -0.007556 0.309356 -0.151713 -0.099282 0.078671 0.196018 -0.033035 -0.132928 -0.14021 0.024693 0.032105 -0.002492 0.032733 -0.59666 -0.11759 0.275866 0.413204 -0.072538 -0.300445 0.330306 -0.068869 -0.078988 -0.68002 0.212573 0.326373 0.144203 -0.21874 -0.446111 0.154003 -0.24145 -0.406942 0.057078 -0.006844 -0.029062 -0.379168 -0.25886 -0.083302 0.312544 -0.265261 0.106229 0.215324 -0.143341 -0.062042 -0.025807 -0.339425
evidence -0.367294 -0.054002 -0.350719 0.063681 -0.022237 0.502808 0.284853 0.052992 -0.171911 0.381186 -0.170477 0.178824 0.600662 -0.075516 0.030343 -0.310829 -0.215373 -0.011508 -0.076649 -0.174095 -0.21944 0.381084 0.200254 -0.223166 -0.311627 0.328108 0.004244 0.180557 -0.017899 -0.015268 0.310325 -0.047957 0.005438 0.019565 -0.127297 0.118664 0.305512 0.165535 -0.122261 0.269104 -0.078826 0.042851 0.522763 -0.007891 -0.031352 0.034586 0.189873 0.396093 -0.04141 -0.491338 0.238647 -0.305257 0.135941 -0.172604 -0.045692 -0.334118 0.167752 -0.05149 -0.307014 0.001343 0.050764 0.001827 -0.118988 0.039663 -0.054972 -0.2518 -0.26445 0.195652 0.10051 0.367367 0.088667 0.033084 0.023168 -0.047659 0.209405 -0.438737 0.20774 -0.332591 0.206061 0.087702 -0.029071 -0.416203 0.170641 -0.103742 0.216455 -0.231718 0.139148 0.210594 -0.04193 -0.337665 0.019082 -0.249349 0.13674 0.236862 0.020323 -0.379883 0.019115 -0.742888 0.054957 0.186827
landscape -0.12423 0.081298 0.245379 0.194385 -0.099513 -0.276098 0.136817 -0.392174 0.306767 0.033308 -0.089624 -0.17472 0.253323 0.486462 -0.135527 -0.017174 -0.17085 -0.45479 -0.355517 -0.322943 -0.160514 0.471886 0.229283 -0.123656 0.340364 0.104158 -0.059189 -0.177129 0.207942 0.623848 0.078466 0.146197 -0.223221 -0.205943 0.117198 -0.174561 -0.228665 0.125599 -0.029458 0.037921 -0.377883 0.079638 0.017039 0.143129 0.272689 -0.027801 -0.138415 0.007178 -0.233849 -0.195171 -0.345492 0.129372 -0.175326 -0.00572 -0.073743 0.077449 0.397923 -0.181095 -0.289709 0.048704 -0.006252 0.179322 0.381137 -0.035046 0.088155 -0.24814 -0.105157 -0.098948 0.094079 -0.107468 0.164302 -0.155689 -0.038509 0.230909 0.244219 -0.121189 -0.011395 0.215245 0.332833 -0.106693 0.162255 -0.192627 -0.134873 -0.457067 0.246841 -0.147033 -0.038518 -0.296825 0.196724 -0.133737 -0.14784 -0.371779 -0.115407 0.029953 -0.087875 -0.209285 -0.012165 -0.108117 -0.173173 0.041642
lad 0.282426 -0.423668 0.019453 0.298279 -0.189209 -0.527503 1.29E-4 0.364182 0.563307 0.175752 0.311837 -0.136581 0.027222 -0.170317 0.115906 0.053427 -0.377823 0.291369 0.068042 0.112395 -0.144847 0.106348 -0.088143 0.233993 0.277269 0.380853 0.166016 -0.136278 0.203367 0.317645 -0.045181 0.048614 -0.161658 0.008109 0.51293 -0.007998 0.063374 -0.126466 -0.347247 -0.258574 -0.168514 -0.108006 0.452261 -0.007075 0.470108 0.09319 0.066789 -0.103863 -0.016507 0.156003 0.196618 0.241226 -0.116673 0.082643 0.107936 -0.285561 0.406397 -0.249571 0.07797 -0.203247 0.193197 0.084527 0.080787 0.089257 0.13005 0.220833 0.028342 -0.14756 -0.07053 0.01706 0.174824 -0.213949 0.268635 0.465648 0.42832 -0.318605 -0.001273 -0.156748 0.040084 0.089065 -0.30567 0.085988 0.195741 9.78E-4 -0.028178 0.381991 -0.365261 -0.1505 0.073092 -0.164952 -0.04187 -0.24481 3.66E-4 0.461765 0.035843 0.217444 0.020679 -0.116948 -0.165704 -0.744518
asylum -0.11641 -0.362542 0.236315 0.169738 0.067454 -0.142777 0.108443 0.150498 -0.290369 0.358166 0.509056 -0.174781 0.046079 -0.039684 0.214177 -0.286901 0.333027 -0.395728 -0.150802 0.533699 0.370197 0.506654 -0.087672 -0.600119 -0.242707 -0.120354 -0.087063 -0.020313 -0.239321 0.340693 0.405128 -0.274594 0.149919 -0.121766 0.142287 0.100672 -0.192343 0.367998 -0.205452 0.582139 0.357787 -0.054226 0.33253 0.221377 0.40892 0.031895 -0.237737 -0.168997 -0.250459 -0.041648 0.006099 -0.122775 0.174562 0.002792 0.149617 0.155262 0.24847 -0.74971 0.346745 0.09458 0.139322 -0.026733 -0.215921 -0.001699 0.383862 -0.360081 -0.332281 0.191311 -0.27524 0.618298 0.183068 0.419877 -0.368481 0.07158 0.258366 0.086842 -0.223334 -0.070331 -0.014415 -0.20692 -0.199832 0.381753 0.198418 -0.472809 0.166547 -0.505014 0.343863 0.269255 0.22169 -0.240532 0.292731 -0.35138 -0.523572 0.115988 0.195635 0.258 -0.058749 -0.293959 -0.005344 -0.293532
area -0.088614 -0.165209 -0.141328 0.379846 -0.338325 -0.075784 0.027969 -0.338843 0.386064 0.018583 0.056506 0.023421 0.286468 0.027375 -0.183257 0.035513 -0.320773 0.154043 -0.141959 -0.059756 -4.62E-4 0.433691 -0.163565 -0.006133 0.137052 0.027178 0.076441 -0.026326 0.02191 0.471658 -0.10916 -0.186142 0.128537 -0.108169 -0.094966 0.149771 -0.12976 -0.085279 0.06562 0.209839 -0.028604 -0.181326 -0.111418 0.23951 0.124347 -0.137789 0.300992 -0.021984 -0.270301 -0.393561 -0.153113 0.303265 0.07423 0.146805 0.097313 0.221502 0.419872 -0.311573 -0.029463 -0.304069 0.099567 0.018354 -0.121817 0.05902 -0.180369 -0.065339 -0.051956 0.272262 -0.079972 -0.232995 0.198201 0.100819 0.269596 -0.232497 -0.071883 -0.028407 0.294741 0.12498 0.092078 -0.194443 0.292753 -0.087313 0.069714 -0.213405 0.111191 -0.131629 -0.119809 -0.254212 0.504363 0.033968 -0.227441 -0.150218 -0.360621 0.059999 0.073608 -0.079066 -0.026072 -0.100177 0.095573 0.136637
disability -0.288219 -0.374637 -0.228368 -0.169485 -0.607638 -0.42063 -0.265224 0.202074 -0.115735 0.117826 -0.202428 -0.258311 -0.044682 -0.071973 0.535538 -0.291609 0.404862 -0.130578 0.12194 -0.34813 0.163229 -0.005867 -0.317502 -0.227435 -0.019344 0.272871 0.014949 0.300986 -0.002675 0.293027 0.101755 0.348719 0.062865 0.192404 -0.089949 0.082117 -0.210997 0.023157 -0.183449 0.289853 -0.142263 0.385138 0.30112 0.27588 0.110061 0.206973 -0.320235 0.159688 0.288673 0.114074 0.408449 -0.220536 0.184931 -0.229814 0.059657 -0.151301 0.356926 0.1027 0.027488 -0.226229 0.04845 -0.135055 -0.137784 0.152873 -0.350874 -0.104041 -5.8E-4 0.13981 -0.608542 0.221582 0.395565 0.547102 -0.224184 -0.222238 0.409747 0.780682 0.26683 -0.239843 -0.082121 -0.177676 -0.246847 0.104221 -0.146701 0.159798 -0.201867 -0.020312 -0.044429 -0.139648 -0.098731 -0.093713 0.023254 -0.314361 0.228319 0.168456 0.117036 0.231019 -0.120516 0.185782 0.45454 -0.358389
experience 0.058168 0.061441 -0.010341 -0.111044 -0.480267 -0.189112 -0.181921 0.027708 0.18645 0.136102 0.16756 -0.094714 -0.080738 -0.007543 0.047947 -0.258736 -0.06063 -0.263309 -0.304992 -0.19373 -0.050582 0.183895 0.120677 0.176088 0.174951 0.210009 0.028623 0.05496 -1.34E-4 0.327588 0.266841 0.10941 -0.155066 -0.152623 0.216395 0.383704 -0.128871 0.121204 -0.213726 -0.056726 -0.260476 0.039333 0.007691 0.177565 0.188295 -0.050921 -0.025836 0.262319 -0.196173 -0.279272 -0.025974 0.038249 0.189998 0.127487 -0.090875 -0.04724 0.106969 0.224063 -0.181017 0.057662 -0.155247 0.154612 0.013324 0.218221 0.104512 -0.037918 -0.022278 -0.173947 -0.07757 0.116117 0.248983 0.182316 -0.090502 0.06258 0.132473 0.005143 0.061015 -0.044209 0.098669 -0.215963 -0.124418 0.097514 0.001467 0.070828 -0.051549 0.199087 0.003724 -0.103599 0.005911 -0.327891 -0.154463 -0.324499 0.286494 -0.293954 0.017066 -0.143962 0.103694 -0.240211 0.122722 -0.304069
discipline -0.198961 0.176741 -0.010042 0.050239 -0.343392 -0.281822 -0.254674 0.095985 -0.068143 0.29193 -0.149771 -0.006949 -0.231032 0.238453 0.004545 -0.400537 0.157215 -0.010729 0.091447 -0.32941 0.041274 0.112193 0.224696 -0.158454 0.167779 0.138349 -0.01064 0.024896 0.065343 0.245226 0.215615 0.169224 0.046689 0.254405 0.198302 -0.216476 -0.142151 0.393563 -0.197712 0.531299 0.034489 0.14407 0.09698 -0.046815 -0.133591 0.103452 0.012906 0.364671 0.158246 -0.221505 0.119967 0.146684 -0.049132 0.147244 0.02833 0.086392 -0.015315 -0.004235 -0.03453 0.077896 -0.043617 0.014133 -0.191833 0.106116 0.423461 -0.192696 -0.225499 -0.231763 -0.140537 0.139934 0.390705 0.020445 0.087806 0.343814 0.33149 0.331111 0.007024 -0.241539 -0.088557 0.066596 -0.17612 0.083579 -0.291545 -0.045332 0.001363 0.086772 0.006903 -0.210471 -0.25983 -0.276627 -0.183003 -0.17653 0.15581 -0.160468 0.16937 -0.157597 -0.233888 -0.373883 0.051107 -0.214152
activity 0.069104 0.138685 -0.047272 -0.237606 -0.246017 0.163352 -0.233406 -0.190741 0.086512 0.010386 -0.209569 -0.037657 0.294507 0.13425 0.102114 0.236023 -0.083791 -0.483641 -0.159305 0.01304 -0.116975 0.211006 0.373899 -0.037407 -0.060185 0.219997 0.070714 0.35939 -0.200262 0.162325 0.061876 0.086053 0.243825 -0.014813 -0.293733 0.018853 0.067689 0.10705 0.343876 -0.08807 0.051838 0.323502 -0.072774 0.214075 -0.065058 -0.055555 -0.101559 0.154565 -0.235045 -0.44615 -0.07087 -0.075174 0.348676 0.119108 0.079145 0.019093 0.425729 -0.257629 -0.562061 0.010066 -0.200719 0.211042 -0.068085 0.190557 0.017661 -0.135647 -0.305745 0.317057 -0.143263 -0.202734 0.311271 0.155499 0.065209 0.085414 -0.022367 0.223503 0.289617 -0.129347 0.173635 0.111484 -0.204846 -0.225093 -0.105092 0.094155 -0.207933 0.079785 -0.071897 -0.086755 0.168205 -0.442321 -0.050489 -0.502968 0.137998 -0.048549 0.097994 -0.080455 -0.009373 -0.333632 -0.085541 0.017252
quarrel 0.130374 0.316672 -0.079725 -0.220584 0.324405 -0.244588 0.248367 -0.239473 0.296269 -0.158172 0.507884 0.102437 0.111297 -0.206158 0.116618 -0.081968 -0.045258 -0.498508 0.291608 -0.432364 0.22882 0.345651 0.16465 0.056662 0.622179 0.196199 0.231682 -0.112909 -0.023209 -0.179346 0.284338 0.001094 0.051267 -0.350599 0.408494 0.17167 0.262765 0.158958 -0.104409 0.068327 -0.017547 0.100969 0.071577 0.005443 0.061309 -0.047124 -0.489104 -0.031964 0.075188 -0.26995 0.439767 -0.340733 0.118066 0.252768 -0.030724 0.040753 0.178182 -0.272194 0.048717 -0.294101 0.145916 -0.245456 -0.399757 -0.091191 -0.378695 -0.375396 0.385759 -0.138669 -0.478873 -0.052441 0.034216 0.102714 0.240371 -0.014008 0.20853 -0.455952 0.179131 -0.380793 -0.005865 0.037582 0.007466 -0.028173 -0.17041 0.389639 -0.183159 -0.284148 -0.107633 -0.115044 0.04661 -0.237268 -0.153663 -0.106041 0.328035 0.094063 -0.124339 -0.048569 -0.306793 -0.231887 -0.113286 -0.580994
population 0.220929 -0.041997 0.037105 0.067619 -0.638069 -0.31134 -0.058564 0.010424 0.054748 -0.256795 0.062252 -0.199748 0.332314 0.148628 -0.044722 -0.426841 -0.083494 -0.1767 -0.098476 0.390724 -0.079955 0.448864 0.411779 0.134872 0.29828 -0.152337 -0.177058 -0.033034 -0.207421 0.36139 -0.153545 0.297393 0.194315 -0.003765 -0.471294 0.021479 -0.387286 0.048827 0.15496 -0.187126 -0.088413 0.11747 0.269947 0.351981 -0.06983 -0.072447 -0.14777 -0.041327 0.210109 -0.368174 -0.337172 -0.159506 0.26744 -0.114174 0.280013 0.027702 0.28224 -0.518348 -0.240043 -0.460641 0.254023 0.035874 0.285667 0.329337 -0.181102 -0.062231 0.608619 0.123055 0.016599 -0.21071 0.44894 0.206078 0.011567 -0.203712 0.37798 -0.092745 0.155169 0.144421 -0.178846 0.032448 0.031562 0.144844 -0.034216 -0.03067 0.357538 6.26E-4 0.122625 -0.104543 0.310698 -0.231509 -0.105475 -0.228065 -0.28439 0.235015 0.232605 0.203751 -0.063547 -0.115637 -0.457623 -0.09222
music 0.069238 -0.088282 -0.125944 -0.042886 -0.119133 -0.345907 0.29398 0.087272 0.12108 0.226957 -0.172783 -0.104421 -0.083804 0.028945 0.165029 0.176871 -0.119541 -0.151328 -0.514757 0.132591 -0.528778 0.224638 0.21116 0.103568 0.393568 0.429259 0.117509 -0.03995 0.113157 0.283204 0.294991 0.035969 -0.05866 -0.016059 -0.068305 -0.058379 0.2394 -0.25609 -0.023632 -0.249777 -0.104133 0.083285 0.051999 0.208815 0.243007 0.33487 -0.021763 0.088802 -0.013858 -0.204073 -0.355236 0.228779 -0.166008 0.194766 -0.35021 0.209234 0.067215 -0.15517 0.051164 -0.010783 -0.023856 0.007685 0.315033 0.047222 0.322265 -0.16717 0.019534 -0.163398 0.337594 0.201174 0.292292 -0.051665 -0.234718 0.051749 0.087139 -0.255283 -0.594788 -0.182326 0.259875 -0.173668 -0.181327 0.188452 -0.26435 -0.177942 -0.204606 -0.275429 0.104841 0.194201 -0.325546 -0.104817 -0.133923 -0.141995 0.164842 -0.276473 -0.463274 -0.06352 0.047222 0.064064 0.08636 -0.050055
law -0.075921 0.172875 0.392864 0.014591 -0.339618 -0.194953 0.033555 0.284947 -0.04716 0.658773 0.253114 -0.159627 0.609172 0.045989 0.052851 0.099383 0.10286 -0.47716 0.002804 0.032461 0.308157 0.037265 0.321128 -0.194173 -0.263684 0.164154 -0.33533 -0.225683 0.087407 0.145189 -0.073138 0.290887 0.050296 0.377492 -0.194915 -0.442662 -0.50583 0.464824 -0.125504 0.491778 0.186119 0.070962 0.131505 0.280062 0.579764 0.340126 -0.135905 0.168045 -0.323191 -0.040258 0.19921 -0.204662 -0.035597 -0.180391 -0.089394 0.11579 0.243079 0.020926 0.092559 -0.142864 0.130956 -0.180557 -0.187697 -0.00115 0.137382 -0.207246 -0.407005 0.307366 -0.178834 0.203669 0.380108 0.265456 0.062794 0.272694 0.098933 0.134766 -0.034806 -0.266152 -0.169891 -0.081154 0.280256 -0.166203 -0.391452 -0.15513 -0.12634 -0.171073 0.442459 -0.071502 0.116112 -0.008947 0.170431 0.159076 -0.045468 -0.036103 -0.342664 0.478512 -0.36036 -0.109241 -0.088687 -0.020086
five -0.11944 -6.5E-5 0.248711 -0.031944 -0.322915 0.317652 -0.093047 -0.121108 0.192048 0.178536 -0.224356 0.228181 -0.162292 0.329189 0.258837 -0.130532 -0.262512 0.017165 0.237438 0.097783 -0.098254 0.07388 -0.219796 -0.232641 0.262969 0.022558 -0.003834 0.099319 -0.26248 0.073963 0.144649 -0.399449 -0.417184 -0.389704 0.045614 0.237336 0.038891 -0.137275 0.106427 -0.00604 -0.073263 -0.081153 -0.028526 0.418931 0.23651 0.124757 -0.005364 0.154151 0.199199 -0.038205 -0.092885 -0.501159 0.046312 0.317323 -0.16082 0.235496 -0.180233 0.081884 0.208896 -0.025575 -0.109831 0.184035 -0.059061 0.336677 0.553846 -0.017891 -0.298971 -0.171501 -0.014058 -0.111043 -0.200523 0.330724 0.23928 0.054291 0.014457 -0.097713 0.661481 -0.262754 0.154683 -0.105522 -0.153268 0.187026 0.347741 0.156857 0.008712 -0.208851 0.551672 -0.266187 -0.008483 0.144077 0.259019 0.378198 -0.267593 -0.159603 0.277161 0.222853 0.07579 0.06795 0.127313 0.167523
decoration -0.070627 -0.056784 0.157321 0.139842 -0.112632 -0.534563 0.102532 -0.438065 -0.007223 0.288943 -0.151159 -0.031071 -0.077964 -0.299724 0.423514 -0.400563 -0.075582 -0.221267 -0.119217 -0.407003 -0.012068 -0.034242 0.190015 0.017626 0.365143 0.037248 -0.186261 -0.018187 0.311011 0.328153 0.074989 -0.075493 0.213093 0.351275 0.128837 0.089028 0.339076 -0.081607 -0.012566 0.254922 -0.110035 -0.11996 0.290984 -0.055316 -0.063195 0.171575 0.350226 0.030479 0.06117 0.055124 -0.298907 -0.385039 0.153301 0.08466 -0.024149 0.013237 0.374146 -0.340162 -0.158646 -0.059766 -0.145939 -0.01815 0.285485 0.205601 0.366456 -0.319085 -0.026034 0.08933 0.012914 -0.153538 0.046305 0.024974 -0.040587 0.318649 0.4923 -0.221094 -0.559262 -0.137308 0.376051 -0.065566 0.198185 0.223066 0.032452 -0.318227 -0.138766 -0.214885 -0.123503 -0.495625 -0.115106 -0.104468 -0.273715 0.170961 -0.165625 0.287695 0.013129 -0.181076 -0.037455 -0.032811 0.408374 0.289004
communication -0.233192 0.107792 -0.412353 -0.212879 -0.394819 0.079182 0.217614 0.044389 0.026029 0.061726 0.018752 -0.175927 0.192869 -0.05113 0.079841 -0.192304 0.021723 -0.167721 -0.256039 -0.252629 0.192118 0.151516 0.177307 0.346449 0.26106 0.388674 0.125512 0.071101 -0.065928 0.370316 0.012633 0.035078 0.093551 0.025408 0.527302 0.203168 -0.189652 0.429651 -0.118148 0.239317 0.175911 0.142226 -0.219737 0.386233 -0.340137 0.184824 -0.269023 0.221106 0.046 -0.514046 -0.141284 0.01541 -0.063561 0.413822 -0.329657 0.195565 0.184588 0.168639 0.045984 0.03253 -0.008822 -0.204805 -0.255443 0.265727 0.181907 -0.188777 -0.165251 -0.124016 -0.096403 0.097614 0.431857 0.244363 -0.072912 0.274984 -0.070586 0.141369 -0.072327 0.048313 0.150737 -0.156039 -0.137118 -0.06729 -0.093676 0.250348 -0.100559 0.081742 0.052749 0.114217 -0.130405 -0.42701 -0.049897 -0.37543 0.252092 0.073831 -0.336872 -0.239866 0.266225 -0.256535 0.356501 -0.056875
maker 0.089509 -0.368248 -0.018114 -0.111481 -0.337519 0.624245 0.339482 -0.081014 -0.090594 -0.065486 0.393933 -0.161252 -0.059986 -0.290863 -0.360782 0.376723 0.285239 0.294811 -0.16472 -0.202737 -0.124407 0.083671 0.143529 0.648281 -0.215159 -0.162357 -0.437393 0.017685 0.347708 -0.178203 0.455177 0.263501 0.209606 -0.057134 -0.107665 -0.418787 0.609417 -0.099864 0.611092 -0.495196 -0.073068 -0.136334 0.134864 0.46319 -0.032148 -0.002983 -0.035205 0.259416 0.347158 -0.145327 -0.839941 -0.085087 0.157462 0.198034 0.079687 -0.320798 0.010356 -0.221728 -0.254633 0.237982 -0.086693 0.38712 -0.248125 -0.550408 0.544683 -0.094795 0.515839 0.031661 0.179324 -0.189622 0.440864 -0.228992 -0.101332 0.052996 0.532433 -0.027306 0.047594 0.183041 0.245554 -0.214418 0.052735 -0.081578 0.002692 0.304407 -0.033199 -0.163317 0.075282 0.445344 -0.210662 -0.246814 0.620091 -0.061812 -0.31912 -0.094484 -0.72442 0.210297 -0.28185 0.290969 0.404847 0.351456
sea 0.074954 0.603161 -0.541867 -0.048326 -0.22104 -0.254121 -0.00645 -0.002369 0.414261 -0.214711 -0.188388 -0.353936 -0.153486 0.13453 0.072437 0.032042 -0.101733 -0.127337 -0.099656 -0.241061 -0.140939 0.649496 0.248581 0.178409 0.075245 -0.228975 -0.069524 -0.272579 -0.079711 0.590162 -0.22986 0.092 -0.247375 0.046531 -0.288689 -0.019395 0.144762 0.034082 0.070022 -0.062206 0.013471 -0.03183 -0.03327 0.007421 0.383173 0.195434 0.105962 -0.066495 0.357066 -0.501938 -0.049379 -0.375091 0.218373 -0.102798 -0.063096 0.370278 0.094441 -0.415605 -0.188494 0.31715 0.118978 0.172235 0.111355 -0.105507 -0.439255 0.092274 -0.304376 0.325845 -0.257373 -0.43956 -0.309123 -0.204531 0.231753 0.119453 -0.025615 -0.051671 0.15374 0.23503 0.439794 0.361187 0.166739 0.166243 0.104862 -0.249447 0.326535 -0.069447 0.033699 -0.506721 0.099306 -0.091429 0.018931 -0.172333 -0.296416 0.154465 0.286665 -0.088568 -0.079225 -0.336248 -0.384154 0.199496
departure -0.049638 0.361728 0.243244 0.032414 0.283035 -0.115971 -0.331501 0.035388 -0.054037 0.049127 -0.046163 -0.417475 0.15812 0.032371 -0.115486 -0.27897 0.210935 0.023842 -0.229343 -0.372507 -0.196824 -0.299605 -0.121375 -0.24728 0.232688 0.154848 -0.206937 -0.239403 -0.295998 0.247479 0.30049 -0.021988 0.033676 -0.078783 0.290437 0.461355 0.659239 -0.097799 -0.267386 -0.163563 0.083586 0.131936 0.02704 -0.367096 0.281891 -0.064106 0.122437 0.01179 -0.327294 -0.512219 0.139534 -0.169453 0.136915 0.609468 0.002493 -0.011316 0.156792 0.008364 -0.392008 -0.101229 0.002266 -0.041127 -0.091385 0.043044 0.057184 0.237281 0.408219 0.296336 0.089528 -0.08548 -0.134911 -0.177113 0.127426 -0.003309 0.196288 0.137354 0.158639 0.151098 -0.117469 -0.253002 0.088845 0.10748 0.347082 -0.160929 -0.028691 -0.145326 0.397977 0.533909 -0.055693 -0.100497 0.039088 -0.050709 0.176454 -0.126399 0.028571 0.051441 -0.067652 -0.067137 0.076549 -0.121841
laboratory 0.009531 -0.29855 -0.479137 0.203134 -0.343794 0.242256 0.117833 -0.297641 0.296189 0.17928 -0.186094 -0.143288 0.297734 -0.081599 -0.358603 -0.117307 -0.058938 -0.232446 -0.370673 -0.458078 0.351666 0.302851 0.205477 -0.093552 0.013094 0.20395 0.079163 -0.2517 -0.192005 0.219091 0.367508 0.101579 -0.05023 0.262237 -0.424174 0.237123 0.020854 -0.053531 0.178602 0.147172 -0.132387 0.250443 0.088659 0.053061 -0.058145 0.38487 0.335828 0.152766 0.253408 -0.172294 -0.223044 -0.277751 0.545712 0.108337 -0.320969 -0.385012 0.343947 0.058487 0.005443 0.371738 -0.250807 0.036747 -0.328983 -0.223046 0.180526 0.072467 -0.333297 0.023899 0.350066 0.105933 0.53397 0.051835 -0.383298 0.223224 0.0021 -0.089879 0.060366 0.12753 0.251025 0.032555 0.344508 0.079984 -0.001785 -0.107257 0.035422 -0.060535 -0.377719 0.094842 0.386008 -0.003181 0.261772 -0.086713 0.029776 0.183874 -0.017809 0.295956 0.315523 -0.073296 -0.062322 0.731957
game -0.400896 0.157972 -0.149833 -0.038354 -0.108167 -0.07391 -0.241707 0.00509 0.430155 0.44312 -0.195316 -0.066824 -0.139658 -0.123517 0.094434 -0.04258 -0.224084 0.163471 -0.013111 0.312757 -0.022727 0.043083 0.097967 0.29222 0.496646 0.050819 -0.066904 0.160067 -0.066028 -0.01148 0.396617 -0.028179 -0.385139 -0.126154 0.018951 -0.022726 0.009908 -0.097813 -0.181419 0.111168 0.101644 -0.225216 0.240241 0.142604 -0.003579 0.001644 -0.022266 0.412391 -0.389343 0.033396 -0.165803 0.119769 -0.321337 0.61769 -0.090005 0.035596 0.260856 0.187249 0.0818 0.104047 0.303989 -0.083777 0.139599 -0.082402 0.162188 0.222536 0.112512 -0.01976 0.155852 -0.183644 0.276653 -0.357089 -0.079314 0.007124 0.086214 -0.082231 0.385013 -0.279433 0.297859 0.017671 0.355194 0.160143 -0.090688 0.22816 -0.254475 -0.064245 -0.060784 0.038039 0.115131 -0.24247 0.202844 -0.13831 -0.280813 -0.263591 -0.126391 0.128063 -0.191255 -0.087407 -0.271522 -0.246993
peace -0.065283 0.338622 0.229454 -0.185038 0.189289 -0.217407 0.149008 -0.201295 0.00677 -0.3287 0.280526 -0.019644 0.328032 0.440333 -0.457895 -0.030561 -0.242547 -0.444634 -0.559775 0.084843 0.49616 0.002662 0.033087 -0.300521 0.702992 -0.187473 0.20652 0.336671 -0.006678 0.364305 -0.225609 -0.131875 0.046858 0.009096 0.118759 -0.115369 0.431552 0.282705 -0.369739 0.435071 0.060406 -0.43437 -0.237312 -0.076293 0.075341 -0.122501 -0.26445 -0.261861 -0.084106 -0.093946 0.796958 0.035635 -0.284529 -0.059115 -0.325757 0.415072 0.339175 -0.757588 0.577284 0.348639 0.11561 -0.296955 -0.26899 0.335504 -0.117669 -0.403007 0.032601 0.117774 -0.223739 -0.038685 0.413115 0.339199 -0.350084 0.479685 0.298574 -0.063949 0.17227 0.041121 -0.046411 0.22041 -0.098474 -0.314839 -0.084299 0.71123 0.225821 -0.16528 -0.217798 0.372081 -0.164141 -0.548304 0.09595 -0.313355 0.486996 0.381324 0.391079 0.012187 -0.416797 -0.080765 -0.566241 -0.307871
