437 200
president -0.014432 0.163189 0.032316 -0.219524 0.038873 0.251465 -0.125733 -0.075078 -0.249057 0.192038 -0.144445 0.11284 0.017312 0.311753 0.122729 -0.053713 -0.083559 0.214989 0.577267 0.237725 -0.172959 0.123403 -0.278126 -0.078444 -0.137923 -0.266829 0.128758 0.064121 -0.210258 -0.284016 0.286288 -0.036984 -0.125946 -0.148203 0.140926 -0.155822 0.141461 -0.01192 -0.078191 -0.139473 0.137376 0.219959 0.111318 0.007918 0.131788 7.2E-4 0.207485 -0.091305 -0.269144 0.254823 -0.020156 0.180248 -0.194565 -0.145147 0.15821 -0.161514 -0.068168 -0.036792 -0.080429 0.134441 0.138127 0.220195 -0.165669 0.130003 0.317573 -0.288275 0.033391 -0.303646 0.057517 -0.001158 -0.004568 0.186956 0.056773 -0.311477 0.102028 -0.195744 -0.151714 0.063071 -0.133334 0.128747 -0.095223 -0.09444 0.103059 0.034761 0.110174 0.23438 0.156707 0.123303 -0.17305 -0.177678 0.147808 0.051089 -0.186924 0.093133 -0.008081 -0.210488 0.279235 0.198881 0.363178 0.026868 -0.120705 0.038756 -0.020382 0.051475 -0.150086 0.005336 -0.04574 -0.145736 0.287496 0.268716 0.095344 -0.084086 -0.10511 -0.004074 0.417249 0.212436 -0.177865 0.080459 0.04884 -0.176856 0.294421 -0.138075 -0.094417 -0.0021 0.138817 -0.219886 4.85E-4 0.13097 -0.18227 -0.197313 -0.124778 -0.160163 -0.046975 -0.416175 0.132399 -0.102052 0.069885 0.339342 0.137236 0.181564 -0.010583 -0.308855 -0.241339 -0.143355 0.116892 0.043997 0.143169 -0.079696 -0.14529 -0.32749 -0.326911 -0.048812 0.23726 -0.213893 0.05363 0.066465 0.248104 0.140715 -0.19552 0.323912 0.120874 0.11423 -0.001046 -0.186291 0.016619 0.050933 0.049898 -0.019323 0.048103 -0.030427 -0.06752 -0.030612 -0.2321 -0.004318 -0.004287 -0.118404 -0.055835 0.086607 0.17378 0.178808 0.402198 -0.18315 -0.045304 0.00896 -0.209348 0.092857 -0.123096 -0.009157 0.231362 -0.024181 -0.119496 -0.167905 6.57E-4 0.013751 0.297404 -0.207749 0.009395 0.193966 -0.033344 -0.05673
monk -0.345686 -0.273654 0.360533 0.137818 -0.028688 -0.380469 -0.604931 0.228048 0.065298 0.161661 -0.027517 -0.061664 -0.218637 0.048109 -0.091685 0.177713 -0.09882 0.347389 0.036623 -0.311547 0.456311 0.169967 0.211809 0.244646 0.033373 0.002117 0.272296 0.02195 -0.168659 -0.16953 0.069038 0.062998 0.415738 -0.362714 -0.066398 0.007518 -0.206685 -0.060264 0.216117 -0.119193 -0.055527 0.224925 0.070034 -0.194476 0.20422 0.053668 -0.507169 0.460897 -0.169863 0.019149 0.199803 0.051969 -0.146104 0.09861 -0.175655 -0.097415 -0.019105 0.32206 -0.19596 -0.197554 0.091344 -0.024619 -0.391755 0.201669 0.134495 0.350305 -0.37972 -0.314731 -0.012135 -0.177032 -0.137669 -0.164722 0.282144 0.091651 0.154596 -0.098584 -0.146901 -0.021342 -0.070513 0.305439 -0.400252 0.388919 0.122333 0.264286 -0.064258 -0.587333 0.226701 -0.17099 0.151781 -0.405129 -0.161409 -0.150524 0.034451 0.253259 0.203027 -0.010056 -0.10702 -0.092264 -0.22609 -0.543608 -0.090598 -0.272183 0.006003 0.459531 -0.073725 0.133587 -0.068286 -0.122 0.141751 0.333924 0.20004 0.117928 -0.051725 0.112997 -0.082744 -0.276333 0.021007 0.190424 -0.001173 -0.277905 0.111046 -0.105194 0.207536 -0.105663 -0.191304 -0.004579 0.181422 0.224117 -0.097454 -0.11155 0.030974 -0.175569 0.019471 -0.009513 0.023286 0.326076 0.14255 0.036793 -0.144003 0.250387 -0.372682 0.162827 0.317721 0.102362 0.226065 0.194383 0.059992 -0.041336 0.380563 0.237211 -0.350507 -0.253626 0.223 -0.121437 0.082258 -0.016504 -0.001269 -0.209521 -0.026497 0.303918 0.090126 0.250875 -0.028074 0.328438 0.569693 -0.079187 -0.39144 0.250321 0.16422 0.379232 -0.017693 -0.097182 -0.413545 0.06797 0.047014 0.098764 -0.171147 -0.087736 0.133243 -0.211113 -0.312461 -0.254381 -0.080521 0.050478 0.138962 -0.271332 0.156837 0.16271 -0.24952 0.014822 0.303614 0.230756 -0.163688 -0.191091 0.273587 0.308905 0.081909 -0.210926 -0.019746 -0.139076
chance -0.218333 -0.011366 0.13769 -0.008874 -0.206826 -0.012879 -0.373645 -0.014201 0.2108 0.014277 0.166804 -0.027464 -0.014216 -0.111115 -0.139993 0.193679 0.012626 0.24711 -0.06774 0.073867 -0.081161 -0.060114 -0.071224 -0.034252 -0.137861 0.003125 0.316063 -0.073594 0.051172 0.15719 0.160995 -0.003811 -0.047051 0.042747 -0.083372 -0.192924 0.094292 -0.197258 -0.129448 -0.164154 0.088352 -0.076033 0.018908 -0.154411 0.050671 -0.034435 0.051152 0.061841 0.051412 0.208042 -0.010746 -0.061391 0.027183 -0.243875 0.069382 0.006152 -0.259646 -0.043933 0.174995 -0.158629 0.041842 0.172758 0.083268 0.043736 0.089812 -0.178857 -0.21065 -0.134233 0.170548 0.050684 -0.093669 0.113935 0.230153 -0.189231 -0.072257 0.047851 0.246361 -0.030617 0.063774 -0.220279 0.16526 -0.110851 0.076072 1.72E-4 0.129565 -0.07348 -0.022217 0.020274 -0.224462 0.129401 0.123481 0.008296 -0.14986 -0.120438 0.23785 -0.381065 -0.087406 0.042746 -0.243882 0.109853 -0.077556 -0.2934 -0.133381 -0.191568 -0.237699 0.344252 -0.198312 0.034761 -0.047884 0.00604 0.036942 0.068444 0.249139 -0.170906 0.006455 -0.006458 -0.051827 -0.150802 -0.093989 -0.129498 -0.048393 0.023295 0.105053 -0.032005 0.183728 0.060545 -0.060713 0.196734 0.271028 -0.072781 0.099006 0.15464 -0.266894 -0.232379 -0.00199 -0.346094 0.17169 0.089268 0.012026 0.038057 0.073434 -0.049779 0.177248 0.283249 0.319814 0.102943 0.025945 -0.237207 0.090801 -0.080124 0.042126 -0.082373 0.053657 0.092153 0.185341 -0.029205 -0.071448 0.092325 0.162685 0.001279 -0.037952 -0.026619 0.134717 -0.165648 -0.041744 -0.008703 -0.184069 -0.049409 0.015788 -0.355931 0.075644 -0.041346 0.086002 -0.018954 0.462465 0.179941 0.039675 0.136989 0.005217 0.204957 -0.199782 0.036606 -0.196416 -0.027145 0.009456 -0.288748 0.099546 -0.03885 0.030893 -0.25226 0.049115 0.078203 -0.069289 -0.165452 0.204597 0.251654 0.187033 -0.005105 -0.074695 -0.112068
party -0.296255 -0.06333 0.393279 0.221444 0.077331 -0.235419 -0.038076 0.206107 0.085415 0.364189 0.173815 -0.073842 -0.188771 0.110783 0.211981 0.275483 -0.071441 0.013151 0.338823 0.33941 0.022755 -0.072332 0.042371 0.011409 0.067905 -0.305051 0.248349 -0.064865 -0.118577 -0.223007 0.035913 0.35358 0.052676 -0.066778 -0.235327 0.041784 0.154395 0.066199 0.125161 -0.142982 0.13216 0.167899 -0.063227 -0.480413 0.213177 -0.020729 -0.047272 -0.056064 0.081808 -0.204309 0.081488 -0.006517 -0.013817 -0.074458 -0.040384 0.184333 0.082729 0.056988 -0.00321 0.018921 -0.033772 0.100892 0.173908 0.052456 0.149189 -0.08719 0.205991 -0.193218 0.018548 -0.076249 0.152103 0.200641 0.178738 0.10102 -0.058853 -0.088467 0.156327 -0.0012 0.124432 -0.168718 0.002241 -0.318055 0.288343 -0.010071 -0.078709 -0.477685 0.015578 0.268266 -0.063831 -0.022511 0.107486 -0.204176 -0.164392 -0.127095 -0.064758 -0.106079 -0.09432 0.018446 3.81E-4 -0.082513 0.16127 0.076971 0.203764 -0.010176 -0.226398 0.317071 0.063779 0.113714 0.048212 -0.037547 0.340872 -0.057926 -0.245681 -0.095738 0.026228 0.114613 -0.061117 0.297712 -0.030063 0.261324 -0.003173 -0.047791 -0.00299 0.071872 -0.062823 -0.153165 0.207245 0.025904 -0.179794 -0.057875 -0.003421 -0.061696 -0.17191 -0.221057 0.099341 0.183419 -0.12465 0.111242 -0.089372 0.18769 -0.020896 -0.14168 -0.302217 -0.145549 -0.115345 0.076333 0.170574 -0.091463 -0.153657 0.028403 0.125228 -0.068549 -0.089876 0.005743 0.010201 -0.082475 0.127894 0.05923 0.241493 0.175734 0.030529 -0.037527 0.019237 -9.5E-4 0.11542 -0.074895 0.07482 0.108695 -0.271991 -0.197215 0.051717 0.237209 -0.053176 -0.268871 0.305928 -0.24726 -0.161028 0.137017 0.094046 -0.12866 0.281507 -0.141002 0.11254 0.065419 -0.428359 0.00217 0.039835 -0.124223 0.043554 -0.070336 0.178385 0.304282 -0.280637 0.060405 0.297702 -0.023032 -0.213479 0.200313 0.295408 0.03276
fuck -0.135092 0.240451 0.125916 -0.116428 -0.1826 -0.382502 -0.270827 0.144992 0.158709 -0.053446 -0.1351 0.039679 0.199128 -0.230639 0.065963 0.008476 0.010133 -0.111604 -0.074394 -0.266187 -0.152536 -0.213041 -0.35502 0.112798 0.235718 -0.127149 0.029936 0.334858 0.166732 0.104991 0.040611 -0.141368 -0.026162 -0.04499 -0.091206 0.120868 0.028905 0.06105 0.085093 -0.024641 -0.431708 0.312276 -0.155425 0.012697 0.350815 0.223229 -0.131604 0.049995 0.157153 -0.121464 0.135469 -0.098639 0.031296 0.124655 0.390605 0.026407 -0.117025 -0.220512 0.336931 0.161182 -0.087838 0.302287 -0.323577 0.198256 0.036802 0.19375 0.036913 -0.365155 0.016231 0.333899 -0.268398 0.105839 0.07637 -0.136132 -0.452866 0.164274 0.029701 -0.23332 0.072088 0.32376 0.133964 -0.075413 -0.193736 -0.015857 -0.384998 0.007676 0.124346 0.136139 -0.005882 -0.191361 0.38044 0.062398 -0.007343 0.14734 -0.017871 -0.004743 -0.113307 -0.019366 0.050672 -0.167232 0.118005 0.077367 0.176879 0.176697 -0.050257 0.306148 0.292397 0.068959 0.134326 0.250671 0.326988 0.292645 0.109086 0.044707 0.386402 -0.075472 -0.157993 0.246488 0.096321 0.16627 -0.062935 0.137479 0.420066 -0.126766 0.009009 -0.054172 -0.125807 0.169018 -0.599493 -0.184818 0.24908 0.236238 -0.264017 0.087148 -0.182985 0.168421 -0.092638 -0.320904 0.019936 -0.046054 -0.075388 0.098818 0.318958 0.286575 0.063278 0.196879 0.162269 -0.111198 0.403668 -0.071939 0.243056 0.084694 0.412737 -0.299344 -0.230567 0.017768 -0.065649 -0.16962 -0.315159 -0.032098 -0.150661 0.030278 -0.080524 -0.084682 -0.146441 0.028574 -0.075313 -0.270394 0.337322 -0.254174 -0.154013 0.165998 0.136272 0.092075 0.051983 0.124451 -0.050928 0.065882 -0.020195 0.136733 -0.177013 -0.301441 0.046419 -0.264257 0.077253 -0.271274 0.094857 0.395451 0.13634 0.363706 -0.190725 0.309793 0.038246 -0.07179 -0.051426 -0.148048 -0.202387 -0.113815 -0.227431 0.152917
psychology -0.194527 0.187301 0.346954 -0.194983 -0.033306 0.364168 -0.29798 0.344317 -0.008876 -0.04428 -0.042381 -0.252509 0.215837 -0.259202 0.181508 0.26974 -0.195652 -0.311072 0.11827 -0.269441 0.119426 -0.035452 -0.001805 0.376623 -0.08447 0.441228 0.445243 0.062679 -0.235383 0.080881 0.04944 -0.023082 0.209723 -0.124876 -0.142085 0.281363 -0.081078 0.228995 0.081356 -0.107866 0.263247 0.153005 0.035945 0.266406 0.019428 0.38365 -0.067435 -0.222789 0.215926 0.266884 0.131444 0.031417 -0.051699 -0.011417 0.207114 0.241958 -0.332866 -0.028077 0.023704 -0.650536 0.028355 0.112202 0.219416 0.07187 0.317897 0.123065 -0.136269 -0.148706 0.007264 0.014811 0.25526 0.502341 0.046494 -0.032358 0.310702 0.104222 -0.006507 -0.249899 -0.146616 -0.049207 0.06418 0.307245 -0.049666 0.291039 0.039479 -0.296377 0.509248 -0.14625 -0.180827 -0.135451 -0.089467 -0.136414 0.385126 -0.0533 0.082355 -0.229021 0.326765 0.498461 -0.174134 0.015398 0.088988 0.032256 0.060384 -0.174622 0.337816 -0.259333 0.253273 -0.44693 0.018124 0.223995 -0.080002 0.127836 -0.119921 0.068113 0.09376 -0.505576 0.087416 0.372351 0.109369 0.118789 -0.007026 -0.154941 -0.133285 0.118195 0.093839 -0.214407 -0.062855 -0.382211 0.071746 -0.313491 -0.383174 -0.212243 0.170571 -0.019655 0.343443 -0.400194 -0.160968 -0.337801 0.075783 0.389754 -0.148249 0.162557 0.25696 -0.315056 -0.046194 0.199826 0.206363 0.055901 0.004739 -0.106408 -0.367254 0.040952 -0.14058 -0.235047 -0.196132 0.259285 0.108646 -0.091406 0.084905 -0.154395 -0.137939 -0.076414 0.046396 0.034461 -0.368257 -0.052611 -0.009824 -0.153396 -0.233743 -0.02404 0.141159 -0.155347 0.266112 0.496954 0.31324 0.092766 0.333802 0.082508 -0.259266 -0.040282 0.305557 -0.070027 -0.260148 0.318018 -0.094949 -0.148558 -0.121782 -0.277955 0.438428 0.331841 -0.119772 -0.368184 0.187193 -0.104043 -0.275118 0.487565 0.421253 -0.10966 -0.299038 0.264023
government -0.173831 0.103179 -0.002438 0.127379 0.247873 0.108787 0.217901 -0.167292 0.037043 -0.080818 0.103857 -0.066508 -0.228922 0.129394 0.090928 -0.1833 -0.014221 0.136198 0.055349 0.02435 0.161618 0.081314 0.076308 -0.027787 -0.075792 -0.088548 0.123402 -0.098218 -0.025461 -0.115182 0.13237 0.039933 0.197375 -0.034545 0.152972 0.016599 -0.208336 0.043805 0.170983 -0.054396 0.083339 0.097807 0.088157 -0.200437 0.121786 0.182166 -0.095168 0.102751 -0.054135 -0.052668 0.158156 0.032895 -0.380538 -0.028178 0.095204 -0.004415 0.123447 0.020444 -0.13232 -0.105902 -0.075902 0.008671 0.075416 0.028226 0.003928 -0.199942 -0.028617 -0.011845 -0.128949 -0.033811 -0.152811 0.181315 0.050068 0.141432 -0.014676 0.020318 0.221501 -0.089618 0.147878 -0.014425 -0.160424 0.270227 0.262024 -0.093709 -0.124288 0.00681 -0.122462 0.071369 -0.243707 0.049795 -0.070826 0.119002 -0.093793 -0.030349 -0.098928 0.025692 -0.117721 0.130465 -0.061834 0.023082 0.035799 -0.001717 -0.241062 -0.044191 -0.172801 0.10743 0.066049 -0.022614 0.190358 0.126288 0.053135 -0.082187 -0.010949 -0.126902 0.175701 0.263527 0.210392 0.321657 0.032724 0.146004 0.106805 -0.192466 -0.170885 0.071787 -0.011191 -0.005937 0.165609 0.023216 -0.059644 0.006976 0.029829 -0.118502 -0.118136 -0.353244 0.122208 -0.024841 -0.183796 -7.13E-4 -0.288737 0.077585 0.003139 -0.211965 -0.148673 -0.113738 0.005445 0.165188 -0.048757 -0.002655 0.13846 0.179293 -0.001855 -0.039945 0.010663 0.052592 -0.006176 0.125605 -0.087294 0.004686 0.084727 0.004403 0.068114 0.089502 0.140036 0.034544 0.01778 -0.121585 -0.090186 -0.096044 0.068219 -0.113321 -0.151382 -0.054516 -0.329365 -0.041365 0.002015 -0.217029 0.046568 -0.080305 0.064094 -0.237012 0.216905 0.041249 -0.179748 0.216104 -0.14033 0.096908 -0.140536 0.021837 -0.115951 0.232803 -0.029878 0.001797 0.058613 -0.056385 0.295198 -0.143305 -0.170725 0.385233 0.029942 0.1281
madhouse -0.406301 0.140424 0.110315 0.071991 -0.12495 -0.200774 -0.211507 0.263443 -6.0E-6 0.054991 -0.094547 0.08402 0.035681 0.142874 0.239835 0.121081 -0.097677 -0.197283 0.012812 -0.229934 0.098105 -0.070398 -0.013833 0.02541 0.180336 -0.027743 0.052528 -0.013402 -0.122793 0.047017 0.202547 -0.207482 0.166772 0.094601 0.063122 0.020023 -0.008885 0.088504 0.035868 -0.022108 -0.224097 0.140915 -0.006345 -0.090027 0.211072 0.208134 -0.090848 -0.133631 0.018791 -0.103525 -0.031722 0.03196 -0.012854 0.325945 0.161852 -0.077467 0.010803 6.37E-4 0.23326 -0.144075 0.086533 0.172394 -0.087622 -0.079375 0.34616 0.012668 -0.112613 -0.180287 0.123814 0.008681 -0.181803 -0.124029 0.167209 0.056407 0.026197 0.122255 0.278432 -0.155082 -0.283801 0.078933 -0.009562 0.119356 -0.148932 0.154034 -0.199261 -0.195477 0.041215 -0.046606 0.035284 -0.046828 0.071105 -0.09731 0.117742 0.262666 0.136954 -0.032638 -0.017991 -0.005028 0.09713 -0.078929 0.076568 -0.024349 9.7E-4 -0.173562 -0.096522 0.097318 0.036773 0.227382 0.31696 0.025829 0.031753 0.08179 0.006055 -0.070592 0.110964 -0.049223 -0.112338 0.097421 -0.053812 -0.251902 -0.027265 0.118044 0.114196 -0.206119 0.05785 -0.140446 0.033574 -0.037193 -0.177588 -0.082134 0.087017 0.128534 0.110335 0.045809 -0.137749 -0.073146 0.106721 -0.253075 0.061205 -0.056004 -0.235681 0.026242 0.154087 -0.059553 0.078599 0.036043 0.453099 -0.127824 0.044081 -0.094392 -0.006373 -0.241221 0.016509 -0.068434 -0.083078 -0.025661 0.171087 -0.049033 0.059503 0.114744 -0.315986 -0.002204 -0.122593 -0.165666 -0.025578 0.196749 0.099055 -0.121193 -0.015983 -0.141014 -0.111137 0.008269 0.046785 0.140381 -0.166643 0.071997 0.171633 -0.082033 0.034143 -0.020489 -0.186383 -0.130868 0.21572 0.046392 0.010557 -0.056054 0.032969 0.064499 -0.095277 0.173054 -0.038074 -0.085602 -0.02471 0.122481 -0.090801 -0.09443 0.20589 -0.321119 -0.107958 0.22943
video -0.017987 -0.352441 0.189764 0.026692 -0.067953 -0.267934 0.012584 0.270403 -0.079877 0.040303 -0.025421 0.287497 -0.136908 -0.222812 -0.118525 0.361097 -0.153328 0.296706 0.256971 -0.041341 -0.201353 -0.189372 -0.02857 0.056094 -0.128213 0.292647 0.036853 0.099404 0.121897 -0.261495 0.051188 -0.071436 -0.278002 0.039422 0.275067 0.036937 -0.281253 0.315009 0.17342 -0.016482 -0.181695 -0.122909 0.141384 0.100361 -0.215659 0.032492 0.038564 0.294367 -0.035654 -0.146771 0.306756 0.232057 -0.192886 0.062215 0.208247 0.044562 0.133064 -0.275006 -0.018224 -0.239877 -0.045019 0.196042 -0.187685 0.152996 -0.305598 0.021906 -0.065101 0.088523 -0.049003 -0.094116 -0.27101 -0.145307 0.097664 0.038508 -0.005673 -0.343909 0.083755 0.167732 0.298234 -0.144515 -0.099581 -0.269207 -0.099282 0.357603 0.04424 0.093039 0.197418 0.149228 0.034023 0.303329 0.095721 0.057202 0.316179 0.327671 0.099258 0.077684 -0.057675 -0.154907 0.402246 -0.316546 -0.155708 0.292742 0.12691 -0.039955 0.355738 -0.142635 -0.177738 -0.067641 -0.252458 -0.037167 0.328805 0.227274 0.035466 0.018187 -0.158077 0.183039 0.017483 0.17435 -0.120853 -0.18374 -0.268303 0.178977 -0.031679 0.369187 0.210733 -0.305286 -0.166265 -0.208414 0.244471 -0.014157 0.147066 -0.039443 -0.157946 -0.006572 -0.121808 -0.151974 -0.066536 -0.099172 0.145175 0.070637 0.272782 0.080346 -0.084958 0.099547 -0.033045 -0.068327 0.208732 -0.262055 -0.060974 -0.18476 0.035639 -0.112368 0.051887 0.149851 0.060041 -0.12531 0.055802 -0.104536 0.015603 -0.066304 0.015955 0.046358 -0.282295 -0.028545 -0.117185 0.381563 -0.12522 -0.193666 0.113346 -0.241042 -0.06182 -0.0531 -0.125051 0.281226 0.03427 -0.276305 -0.263896 -0.175094 -0.309864 0.215186 -0.160097 0.132472 -0.204398 0.11469 -0.057207 0.257685 0.05276 0.013441 -0.200448 0.008453 -0.277141 0.131938 0.067414 0.162743 -0.121931 -0.048124 0.20488 0.017406 -0.255293 0.186804
defeating -0.262237 -0.046685 0.392622 -0.162282 -8.0E-6 -0.007748 0.186693 0.229046 -0.079208 -0.310412 0.144112 -0.208212 -0.080193 0.34304 0.01204 -0.072416 -0.282516 0.023973 0.110373 0.60647 -0.042613 0.050072 -0.146527 0.016266 -0.228395 -0.111224 0.058957 0.010897 -0.08128 -0.054571 -0.143923 0.323978 0.319208 0.185512 0.181434 0.086947 0.239435 -0.237278 -0.293142 0.003929 0.012999 -0.110536 0.242869 -0.031114 0.146779 -0.451677 0.296983 -0.326138 -0.050226 0.086544 -0.283056 -0.082391 -0.2781 -0.187524 -0.108937 -0.471184 -0.053691 0.25539 0.067026 0.423784 0.096294 -0.299526 -0.010076 -0.149896 0.391578 -0.363712 0.136405 0.043081 0.019183 -0.203879 -0.026456 -0.191844 0.274866 -0.026106 -0.144292 -0.316835 -0.013791 0.114617 -0.006628 -0.329639 0.101924 -0.015334 0.386293 -0.101228 0.257723 0.02295 0.044391 -0.214624 -0.248245 0.126817 0.137066 0.054665 0.204377 0.455322 -0.059741 -0.151764 -0.085804 -0.110276 0.113487 0.151921 0.155388 0.042552 0.056288 0.113153 0.292882 -0.239801 0.311568 -0.187429 -0.380024 -0.015923 0.029476 0.212869 -0.261574 0.05201 0.06034 0.251743 0.053458 0.202162 -0.077846 0.087455 0.125708 -0.04671 -0.020225 -0.246954 -0.148979 -0.080266 0.146333 0.136917 -0.018374 -0.619632 0.100339 -0.218802 -0.085093 -0.204795 0.065234 -0.039272 0.096202 0.278629 0.268566 -0.024246 0.134166 0.221873 -0.111007 -0.179323 0.199285 -0.241497 0.051699 -0.167849 -0.106284 0.021321 0.039598 -0.281492 0.00216 0.259547 -0.304243 0.122501 -0.023109 0.200963 -0.2457 0.174697 0.069864 -0.137971 0.141256 0.013761 -0.319942 0.208357 0.138565 0.219354 -0.318881 -0.295069 0.310039 0.460303 -0.049041 0.146876 0.337597 -0.067529 -0.042562 0.164021 -0.138986 0.523339 -0.067489 -0.175532 -0.080917 0.412632 -0.239709 -0.323003 0.161461 -0.016336 0.126298 0.213491 0.200844 -0.321546 0.011143 -0.156584 0.552407 0.044644 0.215992 0.227253 0.162722 -0.100472
death 0.003222 0.075004 0.079191 -0.096007 -0.041619 0.293008 -0.150292 -0.022059 -0.05916 -0.07872 0.144778 0.352138 0.120163 0.038679 0.119219 0.190476 -0.209035 0.119312 -0.08901 0.201855 0.033706 0.19845 -0.250756 0.275367 -0.263616 0.184754 -0.092313 -0.127516 0.13158 0.023039 0.036797 0.116396 -0.045515 -0.073054 0.250045 -0.119242 -0.134426 -0.236661 -0.135392 0.175484 0.25248 0.064178 0.265817 -0.11585 -0.04394 -0.020308 -0.062961 0.352932 -0.205025 -0.251291 -0.058897 0.091865 -0.039629 -0.283315 -0.172188 -0.309823 0.017384 -0.062809 0.185008 -0.244469 0.114722 0.044495 0.080542 0.117603 -0.084825 0.133923 -0.01542 -0.262852 -0.106518 0.006746 0.318991 0.080916 -0.183081 0.021117 0.284202 0.110565 0.033953 -0.05118 -0.114383 0.153742 -0.035057 0.091532 0.127884 -0.123105 -0.23923 -0.309595 -0.108246 -0.080242 0.446076 -0.043134 0.186103 0.213041 0.097067 -0.088383 -0.040743 -0.006549 -0.312454 -0.506909 -0.142835 -0.549441 -0.043994 0.220896 -0.140972 0.091404 0.076343 0.085832 0.021086 -0.216446 0.091022 -0.083891 0.644596 -0.031514 -0.122067 -0.120088 -0.246197 0.076015 -0.030129 -0.111632 0.197931 0.044646 -0.181983 0.061091 -0.088162 -0.306517 -0.352582 -0.218358 0.171163 -0.057879 0.118635 -0.06746 -0.288952 0.063655 0.04073 -0.004829 -0.020965 0.204247 0.006629 -0.103341 -0.095805 0.208428 -0.04617 -0.181045 0.229701 -0.031279 -0.013224 -0.095911 0.136521 -0.081935 -0.024079 0.188549 -0.264845 0.35579 0.1134 0.129857 -0.101429 -0.012423 0.199159 0.1375 0.066816 0.009986 -0.285264 0.138695 0.259506 -0.079063 -0.008989 0.158233 0.258649 0.086099 0.108044 0.112699 0.055911 -0.015393 0.065361 -0.143364 -0.145797 -0.111469 0.257133 0.346761 0.047633 -0.085338 0.044623 -0.124489 -3.96E-4 -0.107924 -0.059103 -0.250957 -0.117929 0.021366 -0.211959 -0.020102 -0.176713 0.37868 -0.151941 0.109321 0.450593 -0.042845 0.146249 0.147275 0.02384 -0.070404
image -0.285617 0.069617 0.209562 0.030038 -0.118206 -0.388259 -0.094379 0.191683 -0.049539 0.071835 -0.018093 0.01174 -0.065286 0.03888 0.100029 0.032712 0.078897 0.402964 0.22748 -0.044123 0.125035 -0.012389 0.007831 0.054676 -0.143534 0.208124 0.171816 -0.030487 -0.047186 -0.166676 0.005745 0.030803 -0.063447 -0.004166 0.219644 -0.230384 -0.030895 0.003638 0.055875 0.062497 -0.240926 0.10492 -0.011059 -0.059887 0.20766 -0.050659 -0.230447 -0.054193 0.119357 -0.205456 0.045331 -0.142937 0.07855 0.120787 0.111565 -0.074125 0.285901 -0.162936 0.147813 -0.151001 0.050075 0.16654 -0.157574 0.149209 0.162201 -0.214852 -0.058658 -0.165518 -0.017552 -0.062879 -0.094893 -0.082346 -0.170287 0.055457 0.043735 0.069074 -0.085865 -0.02626 -0.050492 -0.055881 -0.028768 -0.148369 -0.140762 -0.067531 -0.09608 -0.121121 0.132135 -0.116732 -0.087779 0.091097 -0.348412 0.119598 0.367777 0.02391 0.0521 0.049754 -0.109781 0.079201 0.243535 -0.051893 -0.056734 0.146828 0.092947 0.024524 -0.034336 0.040661 -0.059955 -0.126503 -0.095268 0.003886 0.061795 0.073163 -0.037434 -0.118775 -0.10941 -0.003458 0.155529 0.21471 -0.041705 -0.06208 0.025401 0.159569 -0.096405 -0.11499 -0.061291 -0.064067 0.02365 -0.003256 0.014692 -0.04048 0.067495 0.002347 0.100182 -0.368775 -0.100049 -0.162276 -0.0238 0.063545 0.124264 0.280295 0.081865 -0.042432 -0.203787 0.200684 -0.157416 0.004964 0.213815 -0.17962 -0.192158 -0.050301 -0.285681 -0.200817 0.122384 0.117728 -0.052618 -0.029886 0.144507 0.061066 0.288627 0.004917 0.092138 -0.06009 -0.17097 0.029206 0.079918 0.141277 0.082388 -0.231775 0.132147 -0.110552 0.016013 -0.184617 0.143395 -0.006636 0.016687 -0.050397 -0.156099 0.039662 -0.39503 0.024268 -0.130752 -0.169137 -0.059696 0.20928 0.133802 -0.031619 0.086871 -0.1256 -0.123396 -0.034396 -0.289167 0.148987 0.025298 0.003416 0.077427 0.09174 0.310622 0.125895 -0.064221 0.015208
theater -0.094613 0.076349 0.274503 -0.24481 0.063832 -0.186352 -0.116893 0.069865 -0.004633 0.196682 0.109415 0.148411 -0.214703 -0.067998 -0.110035 0.234825 -0.138357 -0.133038 0.199713 -0.171852 0.120816 -0.098209 -0.071066 0.126259 0.038216 -0.158296 0.37731 0.245245 0.156615 -0.272576 0.00843 -0.14837 0.09002 -0.09009 0.048927 0.213531 -0.008851 0.28432 0.10941 0.186758 0.0946 0.056784 -0.127714 -0.023396 0.023434 -0.103456 -0.283049 0.248745 0.131378 -0.157716 -0.154067 0.071557 0.0777 0.020448 0.103494 0.311738 0.226449 0.135578 -0.183206 -0.202753 0.07383 0.146282 -0.039045 -0.082955 0.043748 0.183819 -0.037206 -0.353707 0.323531 -0.117874 -0.281015 -0.098978 -0.002925 0.062384 -0.014636 -0.003346 0.188288 -0.023756 -0.199491 -0.31712 -0.019231 -0.162835 -0.055091 0.116845 -0.022884 0.061185 0.053493 0.158111 0.114254 -0.069091 0.127748 0.260915 0.518313 0.287137 -0.18752 0.092777 0.005452 0.160995 0.097193 -0.148826 -0.077164 -0.004614 -0.041459 -0.274727 -0.184379 0.139986 0.104557 0.168379 0.31243 -0.101928 -0.027942 0.244076 -0.044226 0.014381 -0.093772 -0.097712 0.02013 -0.048983 0.205846 -0.00573 -0.208611 0.132887 -0.134519 -0.022164 0.128222 -0.02897 0.094944 -0.299465 0.217268 0.173854 0.41688 0.160616 -0.239163 0.058806 -0.098842 -0.00477 0.01495 -0.004918 -0.092162 -0.185488 0.031284 0.010171 -0.012958 -0.113264 0.288475 0.160625 0.229555 -0.138038 -0.15694 -0.160402 -0.038345 -0.157449 0.020081 -0.121283 -0.123772 -0.089531 0.087395 0.11548 -0.014844 0.047622 -0.23751 -0.124722 -0.139973 -0.337992 -0.010903 0.029569 0.057654 -0.072671 -0.082601 -0.148449 0.152654 -0.215587 6.16E-4 0.212239 -0.002055 -0.063525 0.233681 0.09045 0.043708 0.135167 -0.071976 -0.015216 -0.054916 -0.042992 -0.195823 0.035555 0.021846 -0.248187 0.122929 -0.023959 -0.05964 -0.092045 0.077556 0.129145 -0.149757 -0.274116 -0.084668 -0.141338 -0.006249 0.29826
number -0.178631 -0.112553 -0.063765 -0.310717 0.28127 -0.080774 -0.077784 0.281262 0.180093 0.025338 0.209208 0.191614 0.065745 -0.172487 0.155727 -0.148986 0.123653 0.018039 0.060944 0.040339 -0.143225 -0.134085 -0.150972 0.153251 -0.172127 0.146617 -0.021296 -0.230285 0.105688 0.142087 0.365186 -0.064353 0.116704 -0.009914 0.370536 -0.156406 0.033333 -0.096307 0.433112 0.034406 0.023786 -0.096126 -0.164505 -0.282637 -0.138434 0.057234 -0.065501 0.142155 0.081129 -0.041343 -0.313885 -0.041797 -0.025225 -0.064212 -0.025044 -0.427513 0.123111 0.09725 -0.13739 0.012129 -0.228844 0.029034 0.20936 0.043159 0.054504 -0.188921 -0.090708 0.234302 -0.100566 -0.274511 0.179412 0.048666 0.159537 -0.064779 0.250205 -0.149845 0.178052 0.153157 0.117115 0.363016 -0.098048 -0.037945 0.036177 0.150495 0.038019 -0.084154 -0.133892 0.152079 0.053119 -0.086794 -0.009476 0.158552 0.006212 0.350688 0.211856 0.017827 -0.05277 -0.048151 -0.037473 -0.004282 -0.041695 0.108831 -0.267971 -0.186663 -0.077093 0.161196 -0.020005 -0.129269 0.030619 -0.051176 0.136604 -0.111159 0.225641 -0.151956 -0.080427 -0.170335 0.105829 -0.14897 -0.063139 -0.079574 -0.119362 -0.138333 -0.138294 0.011347 0.039797 0.014738 -0.277196 -0.367339 0.042271 0.181636 -0.104113 0.079596 -0.129101 -0.054886 -0.101357 0.069173 -0.055679 0.11805 0.260497 -0.029249 -0.212943 -0.006903 0.119115 0.252724 0.069749 0.255968 -0.137621 -0.039067 -0.216263 0.074507 -0.206463 -0.349227 0.048276 0.143673 0.073044 0.118839 -0.111872 -0.036088 0.25393 -0.078065 -0.090041 -0.054668 0.179653 0.006139 -0.044637 -0.14523 -0.121126 0.136046 -0.061509 -0.090625 0.075608 0.034891 -0.104923 -0.052238 0.299451 0.019542 0.070923 0.065722 -0.234543 -0.124341 0.008721 0.192802 -0.007763 0.109284 -0.145269 -0.061565 -0.030953 0.2486 -0.053479 0.099848 0.114223 0.285399 -0.012765 -0.300842 0.077539 -0.063778 0.258115 -0.137194 -0.228824 -0.00289
astronomer -0.386438 0.053154 -0.031661 0.287408 -0.075962 0.093375 -0.238027 0.310204 0.288303 -0.065175 -0.083882 -0.220154 0.133299 -0.243458 -0.095652 0.21191 9.22E-4 0.260456 0.69441 0.034376 0.081695 0.01302 0.323788 0.459803 -0.086054 0.53918 0.178684 -0.292826 -0.223267 -0.362773 -0.08454 -0.223401 0.057466 -0.248387 -0.036881 -0.247359 0.091529 -0.06432 0.379266 0.238034 0.113066 0.201533 0.074643 0.515236 -0.108664 -0.125419 -0.051495 0.071813 0.151224 0.208591 -0.077568 -0.163965 -0.078979 0.182535 0.192057 0.106056 0.142906 0.442172 -0.209797 -0.103385 0.166317 -0.344789 0.027247 -0.026016 0.322548 -0.011287 0.452741 -0.530631 -0.036814 0.059317 -0.34989 0.012957 0.037696 0.060242 -0.150766 0.164285 -0.222501 0.298414 -0.159059 -0.079843 -0.005077 0.263564 0.253447 0.196454 -0.048226 -0.50392 0.572756 -0.412793 -0.115057 -0.142182 0.029518 -0.124318 0.309683 0.044759 0.135803 -0.020972 0.305109 0.082532 -0.133251 -0.543809 -0.437756 -0.272583 0.211326 -4.55E-4 0.267223 -0.26848 0.103335 -0.092406 -0.165629 -0.180914 -0.084207 0.085083 0.021599 -0.20109 0.03255 -0.448639 0.197294 0.366412 -0.023989 0.113861 0.014546 0.126501 -0.024555 0.038132 0.056165 -0.022702 -0.181193 0.208297 -0.1126 -0.175792 -0.087804 -0.396466 0.356293 0.011793 0.143812 0.121612 -0.465791 0.092614 0.227979 0.265183 -0.335761 -0.031714 0.392521 -0.037076 0.167299 0.176294 0.585771 0.409313 0.156925 0.06883 -0.620006 0.20187 0.084669 -0.131566 0.133811 0.071735 0.117878 0.095968 0.073615 0.242038 -0.209155 0.008742 0.353116 -0.283302 -0.178959 0.24814 0.167598 -0.268476 0.112704 0.016721 0.042818 -0.346075 0.095166 0.383713 0.014246 0.328439 -0.006355 0.044086 -0.530135 0.023382 0.137242 -0.653995 -0.250068 0.358543 0.139847 -0.189544 -0.03441 -0.080539 0.044534 -0.016813 0.012891 -0.234935 0.276732 0.237811 0.048313 0.023556 0.304557 -0.318381 -0.142592 -0.165207
project -0.074849 0.10826 0.225779 -0.087659 0.050274 -0.098188 0.005041 -0.162724 0.098379 0.012309 0.136067 -0.052259 -0.007327 -0.064304 -0.207331 0.081889 0.079981 0.210705 0.042577 -0.123654 -0.178036 -0.040048 0.247005 0.129933 0.069692 0.095638 0.103167 -0.039387 -0.047285 -0.225495 -0.125891 -0.117295 -0.005612 -0.109297 0.082872 0.059455 -0.084522 0.061095 0.086102 0.161807 0.073924 0.186859 -0.002863 0.196656 -0.052341 5.09E-4 -0.004362 -0.181267 0.2249 0.035264 -0.040696 -0.055662 0.173867 0.154814 0.129281 -0.22625 0.150766 0.154731 -0.065364 -0.111265 0.077169 -0.140042 0.043323 0.00945 0.205784 -0.051053 -0.197355 -0.10213 -0.002093 0.311639 -0.146375 0.109306 0.088522 0.079887 0.074777 0.18607 0.087635 0.217583 -0.052192 0.089518 0.026971 0.202702 0.236624 0.196513 -0.054735 -0.080701 -0.084956 0.052204 0.066855 -0.025448 -0.134197 0.215941 -0.041894 -0.157203 0.047621 -0.106186 -0.084536 0.122602 0.102511 0.094948 -0.205152 0.093485 -0.158478 0.059502 -0.106509 -0.113319 0.07983 0.006314 0.075091 -0.125824 -0.114522 0.1216 -0.052445 -0.278312 0.077089 0.316463 0.135249 0.012187 0.008231 0.100205 -0.074547 0.006883 -0.046483 0.140923 -0.072829 -0.028932 0.192938 -0.079991 0.103935 0.233462 0.017204 -0.372966 0.159698 -0.064836 0.145728 -0.071695 0.098409 -0.212875 0.029201 0.017415 -0.230188 -0.209177 -0.1966 0.10193 0.110747 0.253997 0.139174 -0.01802 -0.149741 -0.071763 -0.16701 -0.072935 -0.068314 0.225344 0.149028 0.20119 -0.144488 0.139802 -0.024533 -0.100349 -0.202948 -0.249681 -0.046379 -0.515504 0.056042 -0.15818 -0.158504 -0.030648 0.012662 -0.198482 -0.153464 -0.29745 0.049791 0.139596 0.148703 -0.24215 -0.078734 -0.043456 0.043946 -0.06181 0.046821 0.029916 -0.035988 0.145493 0.146335 0.155859 0.068386 0.109743 0.092473 -0.047128 0.022657 -0.243765 -0.232448 0.046387 -0.153661 -0.126603 3.6E-4 0.055437 0.043398 0.026277
dawn -0.220274 -0.122577 0.439751 0.208912 0.101521 -0.164763 0.056315 -0.103361 -0.282957 0.242536 0.06418 0.026376 -0.018067 -0.064399 0.039978 0.112325 -0.096334 -0.016489 0.246627 0.032086 0.158079 0.037019 0.070011 0.128068 -0.292018 -0.067328 -0.065737 -0.201607 -0.217275 -0.068647 0.122101 -0.162666 0.47334 0.246967 -0.149568 0.007577 -0.097026 -0.104333 0.124755 0.150799 -0.058946 0.177061 -0.120676 0.214162 0.13017 0.268737 -0.072456 -0.177687 -0.215239 0.002577 0.055146 -0.201745 -0.035789 0.191686 -0.066907 0.003042 -0.014112 0.186337 0.052404 0.014362 0.176794 0.058701 -0.257419 0.118491 -0.166177 0.150943 -0.044775 0.194819 -0.192639 -0.360565 0.026747 -0.072049 0.283392 -0.087365 -0.23344 0.017322 -0.043878 0.003134 -0.417005 -0.080676 0.042427 0.066261 -0.069441 -0.019605 0.394233 0.082098 -0.098932 0.081286 -0.080795 -0.231877 0.406232 -0.116088 -0.069729 0.074319 -0.05381 -0.395868 -0.129794 0.041258 0.185321 -0.196088 0.112607 -0.284168 -0.035115 -0.20974 -0.242979 -0.214248 -0.236819 -0.043091 -0.278476 0.001301 0.257494 -0.103919 -0.023744 -0.013139 -0.23219 0.111996 0.102555 0.529694 0.181405 -0.140047 -0.199413 -0.014482 0.160351 -0.029837 0.228877 -0.274659 -0.087273 -0.22716 -0.162091 -0.176331 0.030205 -0.204132 -0.118114 -0.31092 -0.190547 0.381624 0.108934 -0.249818 -0.081206 -0.009515 -0.24184 0.114428 0.137952 -0.391291 0.091594 0.112904 -0.163646 -0.24599 0.181627 0.177711 -0.542772 0.173963 0.100754 -0.244138 -0.28268 0.032937 -0.080132 0.171276 -0.056071 -0.160029 -0.512332 0.186474 0.154667 -0.083312 -0.226745 0.129651 0.087885 -0.142461 0.219552 0.122004 -0.161481 -0.031445 0.088503 0.084861 -0.173842 -0.070544 0.314281 0.079292 -0.149421 0.15868 -0.026441 -0.38425 0.139545 -0.087087 0.051132 -0.059761 0.029262 -0.375831 -0.421619 -0.007414 0.195169 -0.010558 0.070149 0.080082 -0.079007 -0.082725 0.012205 -0.421696 0.058742 -0.041868
ear -0.16222 -0.146746 0.288552 0.157883 -0.254555 -0.220881 -0.09234 0.335822 0.007634 0.031528 -0.208031 -0.10322 0.037607 -0.010421 0.489617 0.162764 -0.024104 0.095845 0.262894 -0.02264 -0.118221 -0.017125 -0.023998 0.104048 0.222539 0.124308 0.09859 -0.028162 0.164503 0.221276 -0.015274 0.031511 0.070478 -0.050137 -0.153658 -0.02895 0.204219 0.021911 0.387709 0.205812 -0.085228 -0.377938 -0.10512 0.036485 0.230513 0.08424 0.078268 0.268891 0.022066 -0.366768 0.291821 0.077515 -0.017468 -0.212138 -0.181748 -0.042288 -0.091284 -0.253731 0.187129 0.018314 0.210915 0.256388 -0.023555 0.439752 0.107521 0.250554 -0.117156 -0.478974 -0.018922 -0.242067 -0.016608 -0.257362 -0.297093 0.036874 0.187386 0.100446 -0.216515 -0.436844 0.020937 0.019698 -0.219769 -0.074398 -0.034472 -0.222332 -0.205792 -0.136665 0.21291 0.019361 0.203415 -0.066548 0.143936 -0.108956 0.357169 -0.312915 0.050072 0.142115 -0.10621 -0.055695 0.502663 0.080162 0.150238 0.070903 -0.268521 -0.194884 0.043759 0.276631 0.110485 -0.053472 0.251787 -0.047509 0.081199 0.230159 0.118469 -0.090081 -0.150841 -0.144277 0.183488 0.044657 -0.174696 -0.24273 0.068943 0.075432 0.048338 -0.099033 -0.028072 0.196575 0.235193 -0.09556 -0.098734 -0.231568 0.006846 0.22319 0.118756 -0.011688 0.008096 -0.13208 -0.28539 -0.115476 -0.383651 0.050824 0.184659 -0.463716 0.200041 0.204033 0.009635 -0.264281 0.083896 -0.111153 -0.035118 1.92E-4 -0.038824 -0.043851 0.078771 -0.090809 0.021654 -0.045419 0.236268 0.234591 -0.094414 0.102073 0.295359 -0.134794 0.200308 -0.106941 -0.211509 0.054485 -0.186697 -0.285212 0.045524 0.03774 0.188441 0.268441 -0.052141 -0.161864 0.022868 0.008062 -0.100308 0.246688 -0.303475 0.110378 -0.346936 -0.188099 -0.074867 -0.20736 0.38088 -0.108272 0.205412 0.259461 0.063139 -0.064724 -0.086166 0.339024 -0.163839 0.226013 0.164029 0.013625 0.218336 0.002283 -0.295862 0.036645
voyage -0.218903 0.026296 0.159775 -0.08143 0.118065 -0.500326 -0.144968 -0.173111 -0.03297 0.167101 0.261988 -0.028537 -0.185627 -0.136666 -0.627852 0.274297 -0.018573 -0.007131 0.152689 0.175381 -0.192069 0.258223 0.253643 0.330038 0.4021 0.127648 -0.157802 -0.191778 0.020355 -0.515512 0.067822 -0.030979 -0.022958 -0.198959 -0.060421 0.014612 0.25285 -0.260653 -0.120042 0.112455 -0.121789 0.398534 -0.115682 0.295544 0.043244 -0.324507 -0.037975 -0.195585 -0.327263 -0.077415 0.010667 -0.277787 -0.071578 -0.14974 -0.263132 0.135325 -0.197839 0.268875 0.304842 0.052203 0.516482 -0.057071 -0.176497 -0.163076 0.265663 0.127183 0.129123 -0.006558 0.064751 -0.108914 -0.137291 -0.029208 0.01474 -0.03869 0.168502 0.242567 -0.142561 -0.179549 -0.389908 -0.044054 0.074844 0.151695 -0.03721 0.026997 -0.041569 -0.29688 -0.286332 0.160638 -0.01839 0.317991 -0.110771 0.113386 0.053966 -0.028237 -0.004499 -0.216524 -0.115359 0.40989 0.255312 -0.289075 -0.023334 0.015467 -0.409562 -0.260192 -0.122579 -0.06059 0.242554 0.106345 -0.331635 0.042472 0.002407 -0.162529 0.086475 -0.374757 -0.326636 -0.0823 -0.041912 0.325583 -0.244659 -0.139492 -0.212117 -0.231545 -0.032288 -0.113062 0.085331 0.042193 -0.215254 0.314142 -0.017453 0.241352 -0.001735 -0.107312 0.839233 -0.005474 -0.389231 0.049694 0.147892 0.13993 0.0423 0.234157 -0.306943 -0.084643 0.199614 -0.190277 0.1273 0.05697 -0.012152 -0.160585 -0.093593 0.143114 -0.172675 -0.063162 0.002344 -0.113582 0.16999 -0.435374 -0.211925 0.168659 0.298089 -0.027247 -0.388962 0.161761 -0.027841 -0.138356 0.060999 0.184645 0.157765 0.110222 0.389627 0.103487 0.273409 -0.109324 0.09878 -0.004463 -0.134305 -0.013859 -0.379981 -0.108666 -0.18807 0.195519 -0.374079 -0.264189 -0.0215 0.006874 -0.146092 -0.075637 0.304635 0.126687 0.056132 -0.125046 0.355215 -0.188618 -0.193819 0.305866 -0.342513 -0.067671 0.222166 -0.267747 0.090426 -0.38568
valor -0.378426 0.097973 0.230875 -0.1479 0.013915 0.010521 -0.417286 0.520628 0.033637 0.035823 0.121709 0.296583 0.133337 -0.161875 -0.362298 0.220685 -0.117992 -0.260045 0.329052 0.167222 -0.106264 -0.230534 -0.038556 -0.058736 0.060019 -0.188316 0.409769 -0.396055 -0.12407 0.092417 0.299165 -0.052024 -0.120433 0.042517 0.392392 0.290773 0.025882 -0.227418 -0.45969 -0.031294 0.00155 -0.018516 -0.151523 0.245102 -0.096757 -0.020847 -0.002539 0.077021 -0.317088 0.433495 0.406718 -0.038683 -0.103071 -0.071378 -0.182178 -0.336212 0.067394 0.156774 0.589367 -0.248532 0.038855 0.309195 0.00607 -0.10568 0.236048 -0.345721 0.16202 -0.362844 -0.383886 -0.10814 -0.020197 -0.353411 0.239858 -0.097411 0.401157 0.255352 -0.268802 -0.219813 -0.171838 -0.349049 -0.374151 0.014084 -0.143723 0.210371 -0.385378 -0.23536 0.065553 -0.374639 -0.233727 0.632411 -0.051385 0.464838 0.09973 0.024414 -0.305262 -0.043308 0.205574 -0.236628 -0.259562 0.146025 -0.188675 0.199383 0.512411 0.192188 -0.315854 -0.01785 0.312849 -0.169084 -0.046928 -0.00336 -0.138815 -0.088658 -0.236202 -0.300347 -0.054723 -0.24178 0.237699 -0.166981 0.328628 -0.062632 0.068202 0.174076 -0.023792 -0.525978 0.1107 0.029214 0.055171 0.033327 -0.220159 -0.233895 0.134226 -0.213412 -0.555963 -0.01792 -0.074727 0.229082 8.0E-4 0.604033 0.12618 0.081689 -0.125386 0.202034 0.08279 -0.302694 0.397496 0.301601 0.116287 -0.38124 0.264787 0.253246 -0.122097 -0.028311 0.230592 0.019334 0.407714 -0.103668 -0.002513 -0.119391 0.026359 -0.071772 -0.379268 -0.070304 0.243094 0.102239 0.075621 0.110124 0.132162 -0.269042 0.26202 0.09799 0.131053 -8.03E-4 -0.048161 -0.210198 -0.210753 -0.352345 -0.006621 0.356152 -0.197065 0.267675 -0.47293 0.172466 0.271468 0.399326 0.200305 -0.254704 0.239736 -0.27141 0.017652 0.215956 -0.151198 0.153259 -0.00723 0.153827 0.197141 -0.136733 -0.397404 0.087339 0.403263 -0.362295
butter -0.217265 -0.070343 0.097541 -0.67397 -0.161264 -0.404276 0.131817 -0.218148 0.197589 0.363292 -0.750506 -0.189287 -0.385047 -0.268982 0.313445 -0.035141 0.020958 -0.119141 0.266262 -0.325466 -0.502662 0.170314 0.220849 0.340792 -0.051987 -0.341524 0.309216 -0.216934 -0.067838 0.507491 -0.082346 0.302954 0.276455 -0.122573 0.631505 -0.135037 0.197897 -0.214863 0.089455 -0.395946 -0.96417 0.162582 0.04087 0.460714 0.56701 -0.130772 -0.421427 0.178086 0.161567 0.064933 -0.276706 0.107968 -0.162479 0.3882 0.435529 0.162691 -0.205629 -0.403867 -0.198152 -0.377321 0.088273 0.048837 0.334707 0.142734 0.111142 -0.083491 -0.109493 0.06745 0.256763 0.094402 0.400438 0.165459 0.14316 0.282453 -0.332355 -0.090148 0.281804 -0.420551 -0.082613 0.264346 0.022013 0.144011 -0.008436 0.10601 0.101369 -0.57692 -0.309831 -0.056655 -0.124722 0.113675 0.038726 -0.008429 0.589339 -0.120799 0.137637 0.191912 -0.397743 -0.714023 0.413492 0.047598 -0.336441 -0.121028 -0.364781 0.316014 0.010301 -0.347701 0.014357 0.393617 -0.418587 -0.258225 0.186963 0.020495 0.306745 -0.271398 -0.165881 -0.503718 0.173055 0.156529 0.03482 -0.015435 0.003707 -0.27709 0.117071 -0.189761 0.055599 0.106048 0.566852 0.101756 0.34561 -0.160032 -0.569982 0.142825 0.260078 -0.295524 0.039677 0.152805 -0.095476 -0.152459 -0.241894 -0.939485 0.217566 0.331269 0.036187 -0.056126 0.169603 -0.534907 -0.133651 -0.148294 -0.029123 -0.283695 0.078526 0.012195 -0.256009 -0.60451 -0.126182 0.241436 0.404367 0.015296 -0.41771 0.451443 0.195793 0.548158 0.341558 0.480545 -0.228515 0.101971 -0.322745 -0.00637 -0.008848 0.14855 -0.243686 0.417418 0.528669 0.051308 -0.377237 -0.066271 -0.492655 -0.12073 0.327379 0.235633 0.055191 -0.137043 -0.110992 -0.072672 -0.244191 -0.320424 0.231014 0.521767 0.509343 -0.057045 -0.140187 0.484821 -0.043243 -0.027306 -0.454024 -0.303315 -0.211926 -0.22308 -0.122076 -0.226763
gin -0.246223 -0.099927 0.389536 -0.240082 -0.122215 -0.579548 -0.270568 -0.229107 0.240808 0.307906 -0.183186 -0.054309 -0.156513 0.060203 0.362355 0.243888 -0.140632 -0.352143 0.530292 -0.20229 -0.028284 -0.127699 -0.05104 -0.160302 0.019839 -0.092007 0.099941 -0.53483 -0.392708 0.111065 0.273927 0.009008 0.179725 -0.123047 0.166757 0.001974 -0.195886 -0.103431 0.036037 -0.376406 -0.971757 -0.014726 -0.207136 -0.052938 0.206029 -0.22533 -0.355421 0.148684 0.249644 0.394781 -0.161199 -0.165751 0.260009 0.085246 0.203608 0.127233 -0.122604 0.042875 0.089292 -0.029902 -0.116571 -0.190621 0.123846 -3.93E-4 0.164115 0.034354 0.207589 -0.054473 0.149732 -0.001883 0.24824 -0.05874 0.194091 0.036301 -0.014273 -0.00452 0.13302 -0.322337 0.089858 0.060966 0.077151 -0.230587 -0.044351 0.127284 0.057698 -0.286651 -0.148338 0.042932 -0.083019 -0.127714 0.157069 0.24171 0.335567 -0.237712 -0.089144 0.062819 -0.182942 -0.428868 -0.203847 0.272638 0.073687 0.114902 -0.018224 -0.143587 -0.156179 0.015518 0.191095 0.159575 0.258831 -0.186523 -0.112493 0.009509 0.184377 -0.236345 -0.114679 -0.397746 0.201883 0.225354 0.008399 0.11977 -0.05632 -0.443951 -0.008498 -0.108185 0.12547 0.106174 0.056345 0.198898 0.168994 0.057848 0.137464 0.43743 0.323019 -0.32292 0.203357 0.267614 -0.022007 0.028565 -0.088424 -0.407126 0.274932 -0.043875 -0.303402 -0.232665 0.012928 -0.012281 -0.224959 -0.11688 0.193471 -0.103608 -0.076913 0.184817 -0.190866 -0.311559 -0.095207 0.320711 0.24371 0.149136 -0.206949 0.177164 -0.158781 0.370752 -0.169105 0.16032 0.051744 0.244615 0.039878 -0.105493 0.158375 -0.165407 -0.353863 0.190959 0.385057 0.441861 -0.127679 -0.08286 -0.052713 -0.127125 0.212165 0.134997 -0.156801 -0.189812 -0.104586 -0.281036 -0.391881 -0.182684 -0.073366 0.174783 0.265828 -0.064978 0.188005 0.447568 0.097185 0.036615 -0.234337 -0.149756 0.361735 -0.511228 0.14678 -0.057134
reservation -0.027822 -0.05552 0.31413 0.026818 0.147152 -0.294311 -0.109012 0.105595 0.139436 -0.132303 0.296393 0.318052 -0.111439 0.080131 -0.213227 0.066396 -0.061341 0.003682 0.177927 -0.045894 -0.033776 0.094151 -0.079272 0.193364 0.286793 -0.103891 0.097902 -0.029509 0.22158 -0.022543 0.101403 0.012189 0.326793 -0.026097 -0.08042 0.091341 0.017804 0.119292 0.130092 0.110175 -0.295368 0.266087 -0.243637 -0.123822 -0.257802 0.300731 -0.081491 0.0759 0.094473 0.020235 -0.162471 0.048094 0.0879 -0.069523 -0.047992 0.04329 -0.129489 -0.110274 -0.003581 -0.034477 0.030548 0.117654 -0.018036 -0.059588 -0.056029 0.370672 -0.169854 0.224052 -0.487793 0.12893 -0.233182 0.067253 0.04741 -0.012017 -0.062899 -0.274429 0.265459 -0.09353 -0.159381 -0.019608 0.016706 -0.202459 -0.248021 -0.092107 0.252242 0.071629 -0.207515 0.189923 0.08961 0.020643 -0.009368 0.07522 -0.104306 -0.209373 0.146532 -0.086034 0.117777 -0.126601 0.319557 -0.284528 0.125255 -0.17239 -0.464961 0.077209 0.116148 0.369428 0.322247 0.070922 0.363688 -0.219871 0.2015 0.190572 -0.060099 -0.061407 -0.04683 0.057891 0.147333 -0.058369 -0.018516 0.07035 -0.094452 -0.271221 0.093563 -0.078806 0.389456 -0.38014 -0.138072 0.186902 -0.017814 -0.062877 0.0231 -0.174236 0.004471 0.144968 0.174726 -0.126332 0.08379 0.062395 -0.124247 -0.224711 -0.263292 0.164257 0.300806 0.112659 0.006864 0.166418 0.017228 0.088057 0.125814 0.045736 -0.146074 0.055386 0.275767 -0.134187 -0.043826 0.061471 -0.076679 0.079029 0.256871 0.143928 0.114708 0.082641 -0.149836 -0.138454 0.237253 -0.058707 -0.184224 -0.023282 -0.003276 -0.198218 0.187564 -0.290451 -0.067925 0.44747 -0.157329 -0.332628 -0.130885 -0.319723 0.052558 0.018152 -0.189312 -0.00614 0.056205 0.017275 -0.056255 0.093564 0.061877 -0.132926 -0.011872 -0.173602 0.279874 -0.003546 0.180254 -0.13446 0.053051 -0.397889 -0.083084 -0.039072 -0.059127 -0.050697
wealth -0.655848 -0.051571 0.285584 0.030139 0.06494 0.119553 -0.142119 -0.101765 0.303106 0.332045 0.056231 0.060782 -0.054596 -0.057555 0.031107 -0.077909 0.153473 0.079373 -0.133196 -0.16224 -0.053304 -0.032367 0.331972 0.006008 0.033869 0.095666 0.039186 0.13662 0.130399 -0.224886 0.094063 -0.050464 -0.143387 -0.122707 0.258934 0.369592 -0.070994 -0.022012 0.155279 0.2901 0.060317 0.009089 0.070376 -0.277324 0.002994 -0.094112 0.020584 -0.060002 0.154679 0.193358 -0.098917 -0.010878 -0.051394 0.172131 0.232568 0.014487 -0.092482 -0.011397 0.142197 -0.171806 -0.123337 -0.161562 0.057852 0.133258 -0.058174 0.126504 -0.269857 -0.356399 -0.238224 0.051368 0.452878 0.344051 -0.233018 -0.025236 0.152058 0.108426 0.085494 -0.098396 -0.26802 -0.151984 0.255458 0.026378 0.225707 -0.114831 0.095705 -0.215979 0.104102 -0.164666 -0.13313 0.081139 -0.406147 0.301269 -0.120126 0.075322 -0.248663 -0.367614 0.042609 -0.076353 0.262876 0.286884 -0.068924 0.20138 0.032334 -0.086151 -0.195253 0.004387 0.227347 -0.153156 0.294335 0.380793 0.140171 0.001477 -0.117884 -0.107603 -0.248906 -0.015989 0.171737 0.235391 -0.077195 0.308385 0.246828 -0.778164 -0.088537 0.220313 -0.008974 0.317556 -0.12383 -0.30961 0.035232 0.021869 0.171373 -0.028617 -0.044109 -6.97E-4 -0.168907 -0.216556 0.169847 -0.169676 -0.090955 -0.007325 -0.183973 0.036184 -0.202318 -0.221553 -0.105482 0.033435 0.022922 -0.211356 -0.070427 0.142659 -0.091965 -0.28023 0.079023 0.237916 0.195496 0.200295 0.048561 0.192518 0.229693 0.125097 0.24197 -0.025215 -0.087099 0.074871 -0.138059 -0.06334 0.052711 -0.306063 0.290572 -0.276467 -0.156365 0.249844 0.188688 0.089083 -0.029675 0.02222 0.245536 -0.214094 -0.235471 0.071419 -0.150094 0.013028 0.134013 0.083472 -0.0403 -0.103048 -0.152162 0.25847 0.088288 -0.035199 -0.083899 0.215282 0.054495 -0.012057 0.066917 0.16428 -0.126929 -0.038923 0.082428 0.048099
eat -0.178831 0.032356 -0.293722 -0.183401 -0.126579 -0.622915 -0.107226 0.005463 0.195669 0.128286 -0.186452 -0.186677 0.06891 -0.088865 0.22433 0.278912 -0.001441 -0.280543 -0.013733 -0.335963 -0.194892 0.231003 0.024972 0.234057 -0.072199 -0.266625 0.103069 0.002275 -0.149046 0.090096 -0.368696 -0.151584 0.118406 -0.124696 0.041297 -0.329327 -0.210415 -0.28809 -0.016397 -0.496004 -0.758596 0.05245 0.111805 -0.049013 0.235346 0.068106 -0.24765 0.165842 0.189787 -7.33E-4 0.085068 0.00219 -0.047922 0.082903 -0.016308 0.068392 -0.096912 0.050862 -0.121662 -0.088703 -0.004037 0.057144 0.22739 -0.16262 0.254093 0.373611 0.007264 -0.101233 0.17946 0.097459 0.097035 0.127596 -0.229866 -0.048179 -0.048533 0.204975 -0.322807 -0.100891 0.306343 -0.082108 0.172823 -0.004481 -0.00853 0.191882 0.025002 -0.253955 -0.045045 0.203708 -0.146906 -0.045716 -0.075428 0.056163 0.184571 -0.148131 0.063964 -0.322898 0.051531 -0.355137 0.074369 -0.060393 0.085232 -0.276309 0.027673 -0.109919 -0.185344 -0.074641 0.007034 0.417356 -0.136514 -0.077413 0.20888 -0.05441 0.182754 -0.045629 -0.033133 -0.269929 -0.245132 0.074529 -0.047553 -0.078482 -0.0653 -0.323141 0.111755 -0.028785 0.142374 -0.042837 0.048899 0.336848 0.034682 -0.063015 -0.358845 0.380063 -0.483112 0.171222 0.048859 0.035644 -0.29836 -0.077791 -0.343582 -0.25574 0.169436 0.299756 0.120479 0.097515 0.259272 -0.452859 0.070059 -0.477254 0.166036 -0.277094 -0.029133 0.222328 -0.125489 -0.51788 -0.171766 0.118827 0.186377 0.003848 -0.04698 0.02626 -0.220829 0.269461 0.139895 0.122502 -0.08312 -0.051206 -0.238521 -0.033198 0.066622 -0.03199 0.015822 0.210083 0.020911 0.084845 -0.328622 -0.217666 0.073191 -0.252771 -0.161432 0.248743 -0.100735 -0.263236 -0.141596 -0.214402 -0.213701 -0.131654 0.231798 0.585946 0.17467 0.028962 0.131376 0.478558 0.028515 -0.100224 0.087803 0.044567 -0.041301 -0.127978 -0.151289 0.284301
soap 0.187062 0.107422 0.088494 -0.173124 0.057908 -0.48101 -0.30604 0.115775 0.114214 0.017981 0.077209 0.241126 -0.289916 -0.231147 0.301671 -0.297971 -0.132522 -0.156454 0.154404 -0.44835 0.323633 0.089544 -0.194282 0.16748 0.061635 -0.497544 0.381141 0.222471 0.145669 -0.093919 -0.021805 -0.197623 0.092597 -0.175246 0.311716 0.1486 -0.202519 -0.12903 0.033267 0.108821 -0.109683 0.147609 -0.017746 0.128737 0.486343 -0.063039 -0.370252 0.525384 -0.013004 -0.333326 -0.100958 0.127731 -0.149639 0.090363 0.161698 -0.308355 -0.047015 0.229216 -0.133405 -0.314126 0.030862 -0.185208 -0.176331 0.167213 0.123363 -0.094855 -0.083087 -0.013588 0.317752 -0.202189 -0.138678 -0.12783 -0.039678 0.203497 0.38835 0.093788 0.058605 0.057825 -0.059379 0.114533 0.198583 -0.217418 -0.187049 -0.258211 -0.464323 -0.114886 0.096881 0.171632 0.248944 0.573213 0.220899 -0.261974 0.462721 0.219585 -0.122084 0.096786 -0.148101 0.088468 -0.010619 -0.016302 -0.026992 0.02496 -0.009641 -0.111172 0.135873 -0.015541 0.310742 0.283802 -0.368558 -0.095611 -0.120719 0.070203 0.188103 -0.020619 -0.194786 -0.266312 0.025066 -0.037153 0.101701 0.427707 -0.092837 0.108628 0.116951 -0.146266 0.290786 0.107578 0.003373 0.30393 0.235774 -0.070109 -0.130324 0.184502 0.119341 -0.276866 -0.072634 0.0016 -0.039058 -0.03446 -0.024208 -0.314495 0.300257 0.076437 -0.017821 -0.242279 0.092729 -0.101897 0.240261 -0.065135 0.233372 0.066685 0.433404 -0.041828 0.044535 -0.329036 0.006144 0.039461 0.665071 -0.013978 -0.068325 0.146195 -0.179592 0.240737 -0.231206 0.125153 -0.415328 0.143462 0.09398 0.008928 0.246022 -0.439343 -0.380518 -0.159793 -0.226211 0.214711 -0.132897 -0.076834 -0.210613 0.139057 -0.116321 0.098858 -0.025869 -0.165173 -0.093325 -0.182912 0.061221 -0.056261 -0.071303 0.184183 0.181027 0.038042 0.074579 0.227743 -0.023868 0.219214 0.178485 -0.249291 -0.228117 -0.210502 -0.012014 0.31601
discovery -0.035285 0.073151 0.207891 -0.300429 0.250042 0.001289 -0.160865 0.225118 0.003314 0.024605 -0.077058 0.362489 -0.092367 -0.09843 -0.12455 0.309296 -0.157005 0.17142 0.345913 -0.163102 -0.217826 0.023961 0.173225 0.631043 0.160955 0.139347 -0.172272 -0.122225 -0.180669 -0.134166 -0.103987 0.036722 0.113675 -0.083886 0.32903 -0.079219 0.009417 -0.187379 0.312408 0.048756 -0.059357 -0.048485 0.054948 0.077144 0.188914 -0.115231 -0.158023 -0.122939 -0.023694 0.105115 -0.093767 -0.019881 0.016066 0.110364 0.007525 -0.264321 0.056324 -0.074801 -0.043031 -0.058854 8.5E-5 -0.089948 0.069713 0.225632 0.008282 0.167119 -0.233051 0.129667 0.08832 0.137359 0.083309 0.156643 -0.114847 0.084106 0.132266 0.229938 0.145526 -0.09707 -0.080227 -0.022696 -0.034627 0.266308 0.073724 -0.088372 -0.006817 -0.385625 0.094478 -0.340161 0.145542 0.020036 0.16393 0.098585 0.137239 -0.070438 0.179337 -0.383743 -0.111275 0.010546 0.033689 -0.221677 -0.063065 0.027401 0.097404 0.13105 0.225099 -0.090544 0.083369 -0.253308 0.018886 -0.114895 -0.063171 -0.13173 0.080105 -0.173364 0.129594 0.359097 0.14862 0.402318 -0.073786 0.176729 -0.042787 0.014085 -0.055409 0.203158 -0.163136 -0.077064 -0.188135 -0.32735 0.2095 0.205227 -0.103681 -0.169744 0.293946 -0.351437 -0.054521 0.232866 0.093403 -0.097975 0.262543 0.220847 -0.200066 -0.384977 0.362904 -0.033244 0.001221 0.007238 -0.074095 -0.093236 -0.050889 -0.119958 -0.229401 0.150169 0.208198 -0.064321 -0.030839 0.024371 -0.21221 0.161091 0.024487 -0.148232 -0.251695 -0.058306 0.213057 -0.150876 -0.037118 0.01509 0.13834 0.085865 0.068981 -0.126307 -0.030229 -0.382656 0.191921 0.068867 -0.090198 -0.045946 0.142072 -0.066146 -0.196222 -0.074763 -0.034299 0.199042 0.168561 0.144341 0.480897 -0.159367 0.207483 -0.133414 0.03644 -0.164841 -0.136587 0.218805 -0.112163 -0.109258 -0.018703 -0.055932 0.124049 -0.017632 -0.024512 -0.045966
Jerusalem -0.310801 0.196523 0.244037 -0.088741 -0.168581 0.229106 0.227937 -0.293346 -0.295423 -0.089124 -0.064488 0.114021 0.068101 0.448348 0.231856 -0.2082 0.152645 0.23636 0.173466 -0.453248 -0.611248 0.161852 0.169019 0.271086 0.052264 0.069143 0.237128 -0.368045 -0.271369 -0.251663 -0.108495 -0.219403 0.574978 -0.31868 -0.092908 0.233831 -0.171439 -0.096371 -0.0696 0.456337 -0.218256 -0.219539 0.118637 0.186573 0.439963 0.681318 -0.400244 0.344025 0.353977 -0.107495 -0.03814 -0.021095 0.394953 0.433066 -0.523297 0.019877 0.005869 0.359199 0.26533 0.066988 0.355293 0.004405 0.265394 -0.250278 -0.038044 -0.503282 0.010181 -0.524869 -0.060829 0.431592 -0.101446 -0.21246 0.102768 -2.46E-4 -0.004675 -0.585135 0.071558 -0.18569 -0.224033 -0.247472 -0.100706 -0.42265 0.114409 -0.109269 0.174432 0.091828 -0.032321 0.086182 0.491237 -0.042276 -0.018102 0.394812 0.097722 0.052675 0.59205 0.039687 -0.096804 0.1593 -0.019862 0.053098 -0.194773 -0.184202 0.248787 -0.210028 0.121466 -0.32834 -0.241072 -0.457 0.346178 -0.131212 0.379795 -0.145047 -0.249534 0.234134 -0.71124 0.204701 -0.126731 0.507643 0.355152 -0.001364 0.137691 0.037706 0.366964 0.383272 -0.201934 -0.012961 -0.038766 0.065931 -0.40511 0.198761 0.102754 -0.379903 -0.266443 -0.053532 -0.123707 -0.130963 -0.303809 -0.243981 -0.273144 0.03041 -0.003295 -0.131591 0.003486 -0.122023 0.43778 0.504883 -0.356612 -0.220993 -0.251563 -0.277378 -0.309414 0.161668 -0.020459 -0.082667 -0.233022 -0.186856 0.256693 0.031641 -0.080999 -0.131799 -0.101193 0.248857 -0.0688 -0.11008 0.390096 -0.181412 0.325546 0.741075 -0.20666 -0.524382 0.128533 0.307101 -0.194324 0.134305 0.294645 -0.201802 -0.745995 0.128327 -0.027863 -0.206183 0.122205 0.003703 0.358615 0.403468 0.002195 0.028526 -0.152518 0.070934 -0.659947 0.235351 -0.136892 -0.205474 0.150919 -0.433294 -0.406664 0.212731 -0.471597 -0.365675 0.395431 0.102083
hospital 0.102167 -0.080276 0.128636 -0.086196 -0.022053 0.134269 0.02421 0.035349 -0.018562 -0.054554 0.285446 -0.309184 0.17809 -0.357183 0.38025 -0.238659 -0.217729 -0.097152 0.119802 0.188692 0.157561 0.139871 0.206224 0.111736 0.028805 0.073585 0.170985 -0.245049 0.021612 0.042123 -0.277124 0.198849 -0.06296 -0.080225 0.036633 0.029554 -0.461451 0.074007 -0.075558 0.172684 0.021518 0.080755 -0.3122 -0.362542 -0.104834 0.08243 -0.06593 0.076075 -0.243761 -0.435886 -0.061209 -0.031526 0.119868 0.006199 -0.093327 0.31943 -0.151098 0.081027 0.108883 -0.424296 0.199912 -0.133983 -0.128165 0.060777 -0.170316 0.412851 -0.001304 -0.168013 0.063206 0.057801 -0.001473 -0.129782 0.331765 -0.104188 0.268482 0.173568 -0.412617 -0.014453 -0.205942 0.243305 0.082529 0.020642 0.00948 -0.17114 0.04512 -0.103733 -0.057164 0.327084 0.278234 0.044819 0.013789 -0.008029 0.04165 0.006257 -0.149334 0.155199 -0.078844 -0.177429 -0.100105 0.033387 -0.091648 0.102749 -0.145545 -0.103205 -0.18554 -0.038327 0.192446 -0.175458 0.033123 -0.147669 0.167567 -0.068334 0.005494 0.091005 -0.101986 -0.249594 -0.288948 0.045468 -0.199559 -0.236976 0.019371 0.006796 0.071116 -0.105591 0.120379 -0.255981 0.52339 -0.092462 0.46307 0.21207 -0.002981 0.088567 -0.107303 -0.172067 -0.170539 -0.26862 -0.201914 -0.202594 -0.178778 0.280398 -0.051598 -0.274765 0.350678 -0.052067 0.235182 0.111185 -0.091269 -0.003199 -0.08824 0.259024 -0.537241 0.166265 0.374757 0.029054 0.201014 0.172215 -0.169966 -0.213856 -0.040112 0.002774 -0.080755 0.425178 0.269169 -0.015926 -0.097766 -0.046382 0.162665 0.174837 0.176064 -0.004769 -0.037067 -0.215982 -0.336163 -0.049674 0.233184 -0.348379 -0.012528 0.121529 0.203277 0.001659 -0.113811 -0.280857 0.148089 -0.219164 0.579144 -0.014351 0.09197 0.090236 -0.347562 0.113118 0.050261 -0.036583 -0.459362 0.007367 0.259867 -0.01257 0.067509 0.184168 -0.442466 0.37939
computer 0.016711 0.008335 0.301326 0.155184 0.249629 -0.031359 -0.322716 0.220549 -0.051485 -0.255077 -0.277666 0.194605 -0.127207 -0.130905 -0.07379 0.210464 0.095391 -0.001323 0.053055 -0.177597 0.057679 0.042961 0.110013 0.318543 -0.084097 0.272633 0.171594 0.10473 0.133621 -0.148619 0.11275 0.016879 -0.10165 -1.89E-4 0.044617 0.035603 -0.250184 0.229522 0.441578 0.23076 0.069179 -0.030684 0.032548 -0.103793 -0.147417 -0.058772 0.142196 0.140892 0.238503 0.009135 0.315962 -0.035961 -0.042022 0.13815 0.076371 0.167607 -0.109522 -0.371712 0.081441 -0.435718 -0.135312 0.094215 -0.138772 0.232603 -0.065861 0.032997 0.14268 0.103786 -0.227761 0.039638 -0.067748 0.292747 -0.028821 0.04082 -0.150988 -0.26199 -0.077806 0.186813 0.342021 -0.179523 -0.118844 0.056749 -0.120717 0.460837 -0.143061 -0.070701 0.219384 0.138203 -0.13415 0.11888 0.31 0.222832 0.20379 0.022724 0.007393 0.136124 -0.202415 -0.095467 0.496087 -0.109941 0.150105 0.064066 -0.059339 -0.106857 0.208095 -0.195108 0.194982 -0.356322 -0.249803 -0.101233 0.240104 0.33803 -0.081262 -0.139352 -0.166905 -0.124426 0.011961 0.169385 -0.439998 -0.132098 -0.006699 -0.0981 0.074649 0.097835 0.235115 0.041163 -0.055108 -0.040586 0.196508 0.135211 0.112301 -0.041475 0.056147 -0.250664 0.030328 -0.21584 -0.362747 -0.230314 0.158065 -0.029947 -0.008022 -0.133684 0.100483 0.200103 -0.148169 -0.199872 0.127999 -0.092018 -0.146491 -0.124875 -0.212679 -0.122335 0.105795 -0.154698 -0.051541 0.107391 -0.113745 -0.297876 0.213679 0.116249 -0.02561 -0.037462 -0.136276 -0.100157 -0.390173 0.019995 -0.125376 -0.176725 -0.059205 -0.049865 -0.005851 -0.154859 -0.203502 0.368265 0.080013 -0.100582 -0.277215 -0.100471 -0.338303 -0.067543 -0.195252 0.225489 -0.159573 -0.012232 0.103202 0.178359 0.206631 -0.087638 0.145876 -0.218667 -0.334588 -0.078768 0.262222 -0.010555 -0.139744 -0.038305 0.061855 0.173229 -0.107119 -0.018648
queen -0.283155 -0.035157 0.420825 0.188134 -0.053592 -0.04296 -0.535762 0.052037 0.319873 0.12882 -0.072152 0.224579 -0.161017 0.329065 0.094165 0.218697 -0.055641 0.352736 0.203751 0.166371 -0.176268 0.013167 -0.426756 0.187848 0.096303 -0.213413 0.137901 -0.015624 -0.116095 -0.026774 0.262142 -0.242886 0.030802 -0.150646 -0.021582 -0.190878 -0.305439 -0.145083 0.024497 0.284358 -0.136155 0.24296 0.064065 -0.088934 0.310014 0.030515 -0.311104 0.210571 -0.084517 -0.043089 -0.024915 -0.011456 0.08085 -0.032648 -0.034847 -0.117854 -0.076694 0.155867 0.073076 -0.078262 0.218757 -0.040012 0.154753 -0.121467 -0.202487 -0.179018 0.121488 -0.036451 0.450365 0.068483 -0.332946 -0.184111 -0.012935 0.096326 0.596994 0.17938 0.229684 0.10631 -0.200648 0.045497 -0.030729 -0.02983 -0.074592 -0.351554 -0.182712 -0.345269 -0.152382 -0.001865 0.157443 0.033962 -0.173832 0.140241 0.502355 -0.201415 -0.133498 0.034907 0.217696 0.026438 -0.278968 -0.256159 0.042631 0.102904 -0.061137 0.080367 -0.184513 0.043358 0.19267 0.016372 -0.181823 0.137809 0.264979 0.125719 -0.095228 0.161592 0.187731 -0.023955 -0.131597 -0.043134 0.083238 0.214302 0.097955 0.209567 0.196276 -0.126454 0.145622 -0.107154 0.013904 -0.218233 -0.313631 -0.088652 0.161973 -0.003337 -0.29092 -0.176192 -0.014111 -0.195534 0.176401 -0.085105 -0.001664 0.265453 0.104204 0.002788 -0.004505 0.091904 0.517593 -0.051252 0.095685 -0.192653 -0.023243 0.095425 0.032149 -0.045882 0.059757 -0.228597 -0.115819 -0.072672 0.290462 -0.155671 0.282422 0.126724 0.122343 0.125761 0.0327 0.05249 -0.505766 0.141765 -0.109706 0.330627 0.165824 -0.119809 -0.097383 -0.012603 -0.049663 -0.21261 0.111968 -0.268902 0.091306 0.005927 -0.022613 0.138856 0.134815 -0.14783 -0.098817 -0.087144 -0.175819 -0.085868 0.18407 -0.216382 0.106256 0.211885 0.096566 0.166716 0.136408 0.208692 -0.059724 -0.081143 0.013881 -0.432413 0.009361 -0.035587
wizard -0.200222 0.184315 0.141944 0.031768 0.289629 -0.26466 -0.386603 0.253636 -0.180438 0.014759 0.038107 -0.111421 -0.05161 -0.20443 0.130857 0.061358 -0.084492 0.024534 0.088334 -0.159471 0.149701 -0.067779 -0.107729 0.022998 0.213142 0.302345 0.304615 0.041464 -0.108784 -0.107458 0.152382 -0.234373 -0.454385 0.03426 -0.175307 -0.021836 -0.180644 0.045496 0.251011 0.055303 0.188414 -0.019137 0.236797 0.090504 0.066313 -0.080549 -0.312106 0.271722 -0.021965 -0.05277 0.085737 0.200727 -0.069365 0.063617 0.236827 -0.28764 0.096749 -0.054537 0.227926 -0.154672 0.218187 0.220269 -0.238232 -0.103843 -0.1105 0.08661 -0.219108 -0.435713 0.453727 -0.066091 -0.365855 0.17544 -0.096136 0.2752 -0.108611 0.28601 0.124998 0.24392 0.161133 0.038861 0.055698 0.191141 0.178187 0.735942 -0.078606 -0.432018 0.19139 -0.105589 -0.068497 -0.203991 0.066948 0.232331 0.360763 0.409108 0.006816 0.068689 -0.223927 0.166518 -0.024095 -0.06794 -0.134428 0.072464 -0.254401 0.26592 0.097755 0.416201 0.171575 -0.248493 -0.175312 -0.013325 0.365133 0.308442 0.090902 0.111565 -0.072012 -0.249908 0.053605 0.163395 0.096821 0.076259 -0.180277 0.342415 0.198585 -0.084889 -0.1357 -0.120062 -0.125072 0.046468 0.029564 0.074247 0.535388 0.019599 0.202626 -0.082138 -0.079733 0.031793 0.10101 -0.24485 0.173324 -0.015479 -0.273589 0.076694 -0.116912 0.054759 0.011291 0.175123 0.248757 0.117717 0.201243 -0.194715 0.008521 -0.141206 -0.00697 -0.14398 -0.019279 0.119404 0.118195 0.23195 0.294446 0.445009 0.139827 0.100703 0.072647 0.323848 -0.100222 0.367837 0.094561 0.066136 0.263231 0.08728 0.096637 0.129145 0.158307 -0.009335 0.146935 -0.070475 -0.057344 0.154406 -0.084557 0.267956 -0.254711 -0.204576 -0.136407 0.059921 0.070734 -0.311158 0.293723 -0.179884 0.464929 -0.096841 0.232901 0.023348 -0.013854 0.192063 0.135023 -0.202766 0.275409 -0.011072 0.065132 0.298614
oil 0.120968 -0.011916 0.104055 -0.229971 0.228796 0.005687 0.297661 -0.326955 0.165236 0.350127 -0.152888 0.09704 0.076489 0.100567 -0.022399 0.334534 0.046686 0.243595 -0.02379 -0.089194 0.052323 -0.056413 0.38992 -0.042942 0.290405 0.082748 0.260581 -0.165327 -0.002214 -0.228076 -0.094084 0.229978 0.177828 -0.219979 0.313116 0.122154 -0.04547 0.114546 0.194297 0.745473 -0.011527 0.237365 -0.094602 -0.011471 0.047588 -0.096689 -0.282713 0.120217 -0.250028 0.334167 -0.473544 -0.065584 -0.047982 0.049752 0.311365 0.166666 -0.319117 0.283821 -0.184194 -0.040545 -0.047845 0.242935 0.050839 0.243723 -0.214841 0.135452 -0.339633 0.039988 -0.378888 0.074547 0.092929 0.346643 -0.097655 -0.008497 0.162251 0.177536 0.402241 -0.320439 -0.174101 0.086792 0.42739 -0.061135 0.300963 0.099044 0.1445 0.029329 -0.322227 -0.028806 0.11112 0.401283 0.041481 0.396209 0.096451 0.06508 -0.027811 -0.046241 0.190433 -0.207263 0.38693 0.183199 0.233167 0.042089 0.041202 0.218391 -0.187322 -0.357936 -0.14058 -0.050494 0.134529 0.134652 -0.192767 -0.281743 0.082744 -0.105677 0.024746 -0.008499 0.050064 0.428358 -0.234427 0.353149 0.238623 -0.144208 -0.185277 -0.201714 0.005396 0.470523 0.05964 -0.054051 0.126852 -0.138086 -0.190554 -0.147364 0.027888 0.147559 0.027247 0.679555 0.221024 -0.261077 -0.105424 -0.49175 -0.058913 -0.267731 0.118608 0.114419 0.236849 -0.03676 -0.134729 -0.071202 -0.064646 0.121473 0.096364 -0.277882 0.258191 -0.083086 -0.015321 0.281499 0.394763 0.142692 0.008697 -0.220652 0.249559 0.120777 0.289272 -7.28E-4 -0.257574 -0.102642 -0.064992 0.070008 0.38718 -0.047534 -0.743802 -0.025601 0.24243 -0.183796 -0.144792 0.063898 -0.205598 0.052659 -0.147449 -0.161215 -0.03928 0.265334 -0.194457 0.133557 -0.09518 0.119624 0.089674 0.512523 0.267558 -0.145441 0.179638 -0.125086 0.13613 0.236567 -0.225902 0.132999 -0.154107 0.242964 -0.142862 0.142808
currency -0.050061 0.185882 0.101814 0.105676 0.331777 0.095806 0.264631 -0.234181 0.165781 -0.108554 -0.407465 -0.069453 -0.067192 -0.187304 0.481588 0.085369 -0.003495 -0.137215 0.128225 -0.073237 0.334564 -0.107789 0.337894 -0.047744 -0.248091 0.001981 0.240693 -0.329571 0.029478 -0.154235 0.044408 0.231515 0.136609 -0.557711 -0.308503 -0.080943 -0.260386 0.247266 0.067134 -0.046007 0.078922 0.285704 0.109168 -0.036413 0.057679 -0.382333 -0.02322 0.126041 -0.250114 0.024106 -0.470088 -0.114948 -0.164799 0.191375 -0.205778 0.129402 0.21801 -0.058103 -0.196612 -0.208506 -0.194062 -0.14585 0.205855 0.128001 0.08979 0.121733 -0.019394 -0.007425 -0.390053 -0.076489 -0.202537 -0.037028 -0.235405 -0.008311 0.034134 0.251786 0.147675 -0.512458 -0.528124 0.014748 -0.037765 -0.243049 0.16527 -0.097997 0.361999 -0.031593 -0.150635 0.140903 -0.310755 0.380759 -0.193783 0.144804 -0.015918 0.171557 0.171532 -0.070843 0.276231 -0.147312 -0.038117 0.142041 0.030513 0.028947 -0.37789 0.319197 -0.148485 0.299421 0.145463 -0.165317 5.45E-4 0.670778 0.241163 0.293217 0.155993 -0.225495 0.074496 0.012749 -0.353759 0.313368 -0.270803 0.068316 -0.029711 -0.236759 -0.273921 0.498607 -0.129211 0.382091 -0.04028 0.034179 -0.316812 0.277387 0.119579 -0.526625 0.089275 -0.015377 0.042873 0.104348 -0.033609 -2.25E-4 0.012017 -0.173246 0.256222 0.173267 0.139298 0.382502 -0.324561 -0.027593 -0.167039 -0.084618 -0.081882 0.794661 0.151723 -0.269996 0.268024 0.05767 -0.223718 0.289156 0.214655 0.030507 0.565752 -0.072179 0.006983 0.009758 0.01486 0.216048 0.245387 0.223695 0.026879 -0.373244 0.159456 0.035522 -0.084824 0.276156 -0.162033 0.177157 -0.259944 -0.523974 0.003991 -0.126397 0.224487 -0.133735 -0.219702 -0.02954 -0.096914 0.398427 -0.1976 0.049758 0.012089 0.408605 0.116707 -0.072228 0.124013 -0.235538 0.337561 -0.049038 0.004148 0.082687 -0.024377 0.081193 0.042225 -0.153056
laundering 0.366495 -0.132812 0.030706 -0.246234 0.216476 0.234614 0.239361 0.338607 -0.751005 -0.147657 -0.311365 0.761296 0.097882 -0.106243 0.183482 -0.237267 -0.039704 0.05132 -0.100986 -0.173526 0.582615 -0.312418 -0.138263 -0.213539 -0.399693 0.273781 -0.257912 0.107573 -0.699799 -0.530857 -0.086187 -0.111364 0.012589 -0.020708 0.319221 0.488832 0.174768 -0.277566 0.839641 0.110167 -0.446203 -0.291514 -0.255509 -0.155032 0.225268 0.021987 0.040052 0.387159 0.069146 0.241517 -0.002658 -0.480378 0.153977 -0.417323 -0.076137 0.608403 0.052801 0.162101 0.327072 -1.048898 1.067512 -0.867868 -0.010685 -0.078862 -0.469877 0.179676 -0.002874 0.226723 -0.342029 0.228642 0.588549 0.097585 -0.144667 -0.034673 0.198858 0.264074 0.263607 0.450453 -0.273384 -0.223083 0.336268 -0.094255 0.191443 -0.248988 -0.182136 -0.066331 0.412397 -0.339594 -0.197052 0.2455 0.199009 0.313065 -0.729993 0.863942 -0.144465 -0.038907 -0.344247 -0.501021 0.220103 0.275092 0.133846 0.618276 -0.453037 0.061086 0.004917 0.203365 0.627055 -0.164671 -0.012016 -0.259125 0.444077 -0.106709 -0.52878 0.200896 -0.0749 0.559628 0.295868 -0.027509 0.727241 0.039305 -0.655796 -0.933584 -0.359057 0.294185 0.232792 0.869519 -0.055008 0.121787 0.008074 -0.10378 -0.495331 0.383611 0.563518 -0.082749 0.677111 -0.183716 -0.352084 0.151515 -0.356276 -0.271932 -0.008228 -0.118085 -0.355997 -0.261375 0.059953 -0.092281 0.279354 0.103716 0.248501 0.469685 0.442961 0.255769 0.122912 0.557213 -0.077555 0.400664 0.015826 -0.116131 0.142225 0.700733 -0.540762 -0.252187 0.190212 -0.076036 -0.010746 0.307253 0.441161 0.241906 0.090419 -0.083639 0.27351 0.683943 -0.056519 0.028874 -0.385085 0.238231 0.237311 -0.450375 0.370299 -0.112823 0.078619 -0.178285 -0.243969 0.683281 0.199286 0.175194 -0.097988 -0.240964 0.353811 0.505079 0.248369 0.222271 0.203844 0.051832 0.649376 -0.029023 -0.058867 0.521361 -0.058562 -0.334172
midday 0.160818 -0.242017 0.451531 0.178631 -0.400625 -0.247489 0.241927 -0.282233 -0.448875 0.241541 0.138257 0.20972 -0.007944 -0.047274 0.028119 0.198771 0.040466 -0.265327 -0.158716 0.066962 0.169247 0.018718 -0.083116 0.143726 -0.027548 0.086736 -0.144783 -0.308889 -0.256128 0.013094 -0.308738 0.222348 0.085433 -0.027366 -0.4942 0.290346 -0.096553 0.242279 -0.272649 -0.204918 0.251931 -0.303968 -0.25044 0.046245 0.045302 -0.191774 -0.178072 -0.215757 0.224691 0.37041 -0.210071 0.187109 -0.253305 0.031355 -0.092627 0.498645 0.058837 -0.17618 -0.379323 0.478231 -0.211655 0.120714 0.111564 -0.168698 -0.553634 0.091859 -0.085143 0.169129 -0.06142 -0.340446 0.094568 -0.517561 -0.227986 -0.146984 -0.074166 -0.062397 0.136634 -0.259017 -0.225504 -0.005389 0.139045 0.208048 0.514498 -0.264678 0.41949 0.114594 -0.154404 0.142291 -0.478949 -0.085192 0.107528 0.037528 0.115454 0.415125 0.068299 -0.284672 0.125175 -0.170438 0.176986 -0.173046 0.107078 -0.199895 -0.049883 -0.067145 -0.181201 0.123086 -0.254364 0.02947 0.22008 -0.18657 0.499978 0.062035 -0.109276 -0.46551 -0.214275 0.068276 0.012418 0.023767 0.001595 -0.192468 -0.149539 -0.123141 0.265949 -0.142566 -0.078047 0.127373 0.177707 -0.45967 0.009531 0.076882 -0.081973 -0.223224 0.034419 -0.304278 -0.184615 0.198513 -0.477411 -0.402542 -0.227823 -0.573774 -0.250451 0.33678 0.653301 -0.146545 0.123349 0.164917 0.321194 -0.192306 -0.263647 0.399119 -0.13495 0.203209 0.172002 -0.204472 -0.343938 -0.007626 -0.273353 0.144052 0.173798 -0.136112 -0.227672 -0.096504 0.303965 -0.076386 -0.395532 0.074989 -0.186932 0.296605 0.331286 0.157761 -0.490886 0.13257 -0.053246 0.033873 -0.192589 0.137965 -0.281425 0.107098 0.147867 0.367855 0.010654 -0.463424 0.350088 -0.022686 -0.27168 0.302676 0.076898 -0.241903 -0.24152 -0.421498 0.33042 -0.662312 -0.005055 0.51365 -0.320145 0.046517 0.182588 -0.322501 -0.105459 -0.043085
Arafat -0.247179 0.360153 -0.253793 0.315728 0.286494 -0.025251 0.115747 -0.289909 -0.263748 -0.00547 -0.141912 0.528496 -0.196855 0.397117 0.175137 -0.142272 0.078198 0.524882 0.433716 -0.30416 -0.321321 0.049646 -0.318208 0.024772 0.041869 -0.11082 0.444277 -0.619571 -0.074632 0.050282 -0.27562 -0.255637 0.014408 -0.260872 0.094251 -0.129586 -0.46492 -0.32762 0.203771 0.283625 -0.103402 -0.124536 0.692106 0.176548 0.288342 -0.125001 -0.114744 0.717138 -0.111665 0.071613 0.687372 -0.333335 0.19615 -0.092444 -0.209474 -0.470671 0.391804 0.213734 -0.346667 0.189756 -0.237056 0.801227 0.319225 0.110193 -0.36096 -0.066166 0.140667 -0.356189 -0.247597 -0.112687 -0.140121 0.136466 0.319069 -0.198906 0.197571 0.176252 0.131816 0.052924 -0.155161 -0.504706 0.038699 -0.191829 0.075613 -0.180265 -0.249166 -0.267017 0.202763 0.336011 0.136304 -0.214705 0.28087 0.190416 -0.248155 0.022386 0.164677 -0.040698 -0.193293 -0.026319 -0.147121 -0.347327 0.07729 0.260698 0.240847 -0.01663 -0.005169 -0.213395 -0.249726 -0.532607 0.24996 -0.506865 0.404112 -0.281101 -0.639664 0.218138 -0.619057 0.267582 -0.178447 0.443005 0.130404 0.003786 0.157585 -0.053347 0.396447 0.135092 -0.382881 -0.448731 0.204952 0.612448 -0.088237 -0.683518 0.080293 -0.106885 0.079582 0.002146 -0.099144 0.175948 -0.025295 0.161264 -0.1737 -0.157836 -0.077636 -0.31278 0.072021 -0.092656 0.411147 0.491823 -0.138456 -0.309764 -0.606413 -0.115593 -0.11987 0.046788 0.002944 0.07974 -0.361475 -0.481487 0.414828 0.215483 -0.257239 0.069173 0.107769 0.584907 0.280863 0.044993 0.070727 0.040557 0.533681 0.222227 0.056949 -0.114645 -0.243442 0.61487 -0.657977 0.117638 0.182743 -0.118606 -0.12939 0.367816 0.166966 0.010435 0.563344 0.175942 -0.254263 0.252286 0.035237 -0.221539 0.365224 -0.270047 -0.518914 -0.119905 0.30976 -0.107277 -0.901369 0.131988 -0.119218 0.47546 -0.160283 -0.379594 0.440317 -0.142399
man -0.183299 -0.078415 -0.038498 -0.108227 0.129194 0.188396 -0.290049 0.106417 0.034829 0.13889 0.220141 -0.026257 0.17286 -0.064188 0.128123 0.002376 -0.131989 -0.013254 -0.066887 -0.074831 0.228901 0.073857 -0.274902 0.12794 0.041706 0.192303 -0.157281 -0.167693 -0.097092 -0.156339 -0.172351 0.046612 -0.110633 -0.160347 0.045732 -0.159045 -0.099302 -0.153101 0.028957 0.134126 -0.194191 0.105887 -0.073099 -0.352648 0.196701 0.211808 -0.242944 0.012131 -0.140023 0.204853 0.09661 0.072275 0.088665 -0.004027 -0.130445 -0.23927 0.096167 -0.114344 0.238789 -0.248916 0.167536 -0.21692 -0.248037 0.204734 -0.01764 0.073575 -0.071946 -0.254561 -0.014154 0.393746 -0.154909 0.11373 0.330955 -0.031915 0.078722 -0.058491 -0.005364 0.148111 -0.010418 0.255237 -0.194596 -0.119795 0.089225 0.120937 0.027978 -0.121911 0.425316 -0.001056 0.042659 -0.134246 0.082037 0.005053 0.430359 0.23917 0.044215 0.124931 -0.080809 -0.257983 -0.089043 -0.29555 -0.137148 -0.107525 0.138206 0.126704 -0.094608 0.244633 -0.035229 -0.144103 0.016327 -0.057686 0.365932 0.168196 -0.13724 -6.41E-4 0.095767 -0.171458 0.144 0.160752 -0.117117 0.081507 -0.168229 0.217996 0.215831 -0.033041 0.051767 -0.156962 0.305202 0.09228 -0.094103 -0.125812 0.241111 -0.013853 -0.118318 -0.152633 -0.04513 -0.011275 0.111574 -0.215259 -0.18739 0.013371 0.067537 -0.368663 0.151383 0.054579 0.084248 0.040078 -0.098298 -0.106561 0.172805 0.096885 -0.448386 -0.165291 0.176445 0.042903 0.071269 0.075625 -0.10743 0.118216 0.151325 0.172165 0.138196 0.061643 -0.144291 0.055258 0.133145 0.125285 -0.161315 0.134294 0.141567 0.177717 -0.105384 -0.230772 -0.033638 -0.05318 -0.072926 0.077976 0.165033 0.117527 -0.102861 -0.116664 -0.254538 -0.134511 -0.069708 0.01732 0.017927 -0.121767 0.167499 0.102191 -0.079939 -0.109031 -0.048141 0.119469 -0.337696 0.212029 0.308431 -0.076163 0.326759 -0.070267 0.212008 -0.220064
keyboard -0.279397 -0.093896 0.663073 0.195135 0.06542 -0.198261 -0.218956 0.448271 0.19575 -0.265296 -0.530459 0.194782 -0.424279 0.00301 0.111361 0.241308 0.106403 0.122631 -0.228581 -0.243216 0.042007 -0.034391 -0.319769 -0.040306 0.264857 0.363577 0.24523 0.036202 0.068533 0.310955 0.106512 -0.001331 0.203522 -0.27473 0.244161 -0.008457 -0.034461 0.506585 0.347566 0.151286 -0.152172 -0.012466 0.332177 -0.04779 0.162107 -0.297764 0.300955 0.279509 0.018051 -0.027376 0.299311 0.057032 0.021054 -0.011504 -0.004298 0.234514 -0.18159 -0.319555 -0.099849 -0.025878 0.055425 0.092852 -0.28403 0.118604 -0.128107 0.16018 0.041527 -0.101653 -0.076607 -0.230555 -0.069662 0.107052 0.217539 0.078372 -0.192384 -0.193426 -0.074072 0.011489 0.36384 0.045038 -0.146222 -0.251378 -0.30535 0.323538 -0.257124 -0.318496 0.221551 0.209327 0.054013 -0.152166 0.128441 0.116844 0.555188 -0.111227 0.151372 0.285966 -0.292584 -0.230922 0.642042 0.010618 0.193607 -0.007523 -0.572936 0.050947 -0.086699 0.096984 0.021519 -0.108913 -0.145009 -0.067482 -0.086734 0.477013 0.07287 -0.345423 -0.211555 -0.189532 0.218431 0.109341 -0.269565 -0.376946 0.040759 -0.006028 0.087505 -0.026849 0.012283 -0.056676 0.195017 0.166264 -0.060848 0.228419 0.421467 0.075111 0.069821 -0.024396 0.113672 -0.344995 -0.380939 -0.066243 -0.034856 -0.322919 0.043783 -0.132949 0.333895 0.287667 -0.097125 -0.019915 0.109569 -0.185805 4.59E-4 0.055638 -0.063313 -0.380495 0.212159 -0.461583 0.25394 -0.345012 0.155927 -0.266535 0.073314 -0.054287 -0.006401 0.015612 -0.129173 -0.225018 -0.151662 0.289002 -0.269366 -0.347572 -0.025732 -0.155027 0.333096 -0.16435 -0.346983 0.305643 0.025124 -0.238289 -0.361907 0.144627 -0.414125 0.102315 -0.004264 0.140719 -0.376753 0.097084 -0.202545 0.020477 0.06648 0.084621 0.231306 -0.039093 -0.24078 0.124047 0.204043 0.304287 -0.527213 -0.036133 0.172845 0.017928 -0.28663 0.036229
announcement 0.094658 0.159161 0.199123 0.078606 -0.333235 -0.0571 0.308912 -0.224873 -0.306686 -0.012776 0.261749 0.019613 -0.108427 -0.139775 0.359015 0.148315 0.00646 0.074326 0.312052 0.183977 -0.423877 0.192874 0.085496 0.401046 -0.16542 -0.219989 0.0374 -0.288286 -0.091621 -0.129166 0.089902 -0.01992 -0.051301 0.106569 0.182198 -0.131389 -0.103076 -0.077653 -0.130536 -0.080468 -0.015496 0.068235 0.068232 0.214782 0.32039 -0.060305 -0.197346 -0.243509 -0.034936 -0.174287 -0.246845 0.234296 -0.136218 0.097843 0.140139 -0.017712 -0.143374 -0.096333 -0.138368 0.307106 -0.259738 0.195037 0.03162 -0.074082 0.088018 -0.245476 -0.277032 -0.141432 0.219465 -0.083273 0.102687 0.04182 0.078273 -0.106571 0.072291 0.101096 0.174212 0.130752 0.010534 -0.03768 -0.203774 -0.04253 0.084665 -0.030188 0.167609 0.173811 -0.138132 -0.099624 0.017041 -0.076358 0.045539 -0.038775 -0.29646 0.046329 0.212814 -0.111368 0.019022 -0.017009 0.00331 -0.175904 0.03052 0.256563 -0.19305 -0.03656 0.22861 0.005137 -0.215763 -0.030585 0.117089 -0.159082 0.021434 -0.079321 -0.038076 -0.343295 0.257711 0.514232 0.05036 0.298498 0.12689 0.035358 0.044011 -0.05536 0.060996 -0.216706 -0.145218 -0.269735 -0.189177 0.047994 0.10097 0.340029 -0.048192 -0.013989 0.162153 -0.179277 -0.130753 0.363771 0.09356 -0.144786 0.023884 0.075665 0.027424 -0.434131 -0.0868 -0.120757 -0.011974 0.062908 0.112728 0.017367 -0.352836 0.193801 -0.335362 0.014567 0.457297 -0.059555 0.003715 -0.199604 -0.128291 0.246673 0.287425 -0.154936 -0.070651 -0.0581 -0.120962 -0.155554 0.094275 0.043769 -0.356462 -0.165629 0.144262 -0.023376 0.021485 -0.095973 -0.109749 -0.12505 -0.049029 -0.012655 -0.15342 -0.126326 -0.027385 -0.063593 0.332046 0.1043 -0.138903 0.292276 0.04306 0.210315 -0.207261 -0.394254 -0.151226 0.019365 -0.35679 0.080512 -0.182375 -0.374826 0.046137 -0.049155 0.126329 0.061175 -0.080562 -0.029113
racket -0.066368 -0.382785 0.421193 -0.040056 -0.112579 -0.404806 -0.063086 0.099582 0.055476 -0.216765 -0.281073 0.06052 0.1161 -0.015519 0.178293 0.010161 0.047715 0.34639 -0.192587 -0.220718 -0.036982 -0.4092 -0.283914 0.089203 -0.055839 0.114265 0.148699 -0.163515 0.287257 -0.066852 0.084667 0.070277 0.053161 0.176771 -0.273521 0.190788 0.240395 0.058329 0.236773 0.080567 -0.227405 -0.136727 -0.084809 -0.099414 0.48341 -0.164918 -0.0879 0.273434 0.135859 -0.143286 0.086213 -0.059576 -0.015525 -0.165764 -0.021784 -0.004504 0.106231 0.003328 -0.016057 0.18453 0.264205 0.023975 -0.275501 0.244211 -0.060131 0.128795 0.156004 -0.109543 0.049895 -0.370671 0.034747 -0.066956 0.121369 -0.081231 -0.035322 -0.068795 0.282315 -0.278295 -0.20098 0.104698 -0.029092 0.083414 -0.249416 -0.269446 -0.099547 -0.034769 0.204286 -0.298928 -0.072807 0.101131 0.548526 -0.056827 0.138378 0.312929 -0.150681 -0.194351 -0.025621 -0.013274 0.113445 0.154745 0.203846 0.127436 -0.282095 0.073671 -0.150634 -0.036227 0.33184 -0.0593 0.08738 0.115053 0.451993 0.481331 -0.206564 -0.124774 -0.023667 -0.125423 0.249062 -0.041307 -0.182217 -0.119486 -0.226913 -0.023136 0.208896 -0.30176 0.155073 0.057955 0.412848 0.096527 -0.298193 0.026367 -0.167723 0.181282 0.07292 -0.025588 0.156474 -0.156126 0.101172 -0.102487 -0.157788 0.023114 -0.023238 -0.356394 -0.018587 -0.002506 -0.031789 -0.20073 -0.205776 0.082009 -0.126823 -0.034533 0.149906 -0.140882 -0.155084 -0.007094 -0.097228 -0.147552 -0.030132 0.021041 0.36866 0.015537 -0.087187 -0.123563 0.122341 0.002245 -0.399467 0.086677 -0.036148 -0.166969 0.298436 -0.165307 0.152118 0.122526 -0.146724 0.166013 0.250339 -0.051008 0.13918 -0.219192 -0.185154 0.27768 -0.370866 -0.106026 -0.191223 0.033385 0.078516 -0.087855 -0.187209 0.09902 -0.152369 0.07917 0.336287 0.281898 -0.00722 0.036442 0.09089 -0.002905 0.338072 -0.118733 0.046546 -0.165944
Maradona -0.033281 0.208967 0.247512 0.105735 0.017911 -0.00947 -0.171238 -0.120799 0.360698 0.323358 0.018967 0.043749 0.308977 -0.12308 0.004954 -0.127045 -0.250599 0.436838 0.200946 -0.264861 -0.017248 0.384749 -0.198274 0.267421 0.18324 -0.038028 0.20069 -0.166969 -0.229341 0.217456 0.2875 0.692665 -0.402352 0.597492 -0.121071 -0.319497 0.304179 -0.340541 0.036303 0.241656 -0.343006 -0.155227 0.263566 0.026773 0.064505 0.273515 -0.126656 0.031397 0.044875 -0.178188 -0.147338 0.027767 0.281761 -0.195942 0.221247 -0.527193 0.151965 0.052587 -0.202769 -0.088449 0.099045 -0.171089 -0.039265 -0.010744 0.051172 0.229259 -0.046245 -0.539705 -0.125393 -0.266789 -0.13222 0.214785 0.197208 0.083746 -0.062327 -0.333483 0.129958 0.030485 0.097439 0.042621 0.089228 -0.159146 0.448149 -0.121057 -0.81094 0.049507 0.114397 0.307182 -0.126663 0.527854 -0.002458 0.113442 0.279218 0.353852 0.131283 -0.339288 0.069883 -0.005696 -0.044436 0.023767 0.184076 0.19148 0.345904 0.237273 -0.267452 -0.29786 -0.144164 0.044298 0.205901 0.300387 -0.018606 0.036359 0.133057 -0.017271 0.122539 -0.215605 0.129204 -0.014486 -0.311331 -0.494572 -0.208162 -0.105128 -0.104255 0.070287 -0.175914 -0.548802 0.008854 0.279477 -0.188195 0.088599 0.148408 0.231875 0.131123 -0.042479 -0.200364 0.028385 0.02831 0.015072 -0.010346 -0.250677 -0.204716 -0.269821 -0.249704 0.358798 0.271768 0.002233 -0.018733 -0.058855 -0.00169 -0.084991 -0.133734 -0.190712 0.057829 -0.049141 -0.16959 -0.488392 -0.463285 -0.004959 -0.09353 0.159455 0.030818 0.007988 0.054235 -0.302661 0.17754 0.03635 0.018346 -0.0885 0.364043 -0.048001 -0.082481 0.130733 0.137902 0.093114 -0.541988 0.022582 0.22479 -0.136796 0.209775 0.151904 -0.269298 -0.234177 -0.399854 -0.221562 0.140621 -0.121432 0.022652 -0.235868 -0.260808 0.190452 0.076099 -0.679978 -0.098296 0.104768 0.363175 0.278031 0.290327 -0.101779 -0.152298 -0.043698
anxiety 0.085877 0.278761 -0.085238 0.015007 0.199172 0.010108 -0.103465 0.394934 0.07538 -0.248749 0.023186 -0.320774 0.328669 0.210355 0.057773 0.015446 0.24982 -0.101444 -0.041471 0.255583 -0.190239 0.098887 0.126041 -0.094658 0.022976 0.112891 0.429182 -0.122261 0.0616 0.370798 -0.084626 -6.37E-4 0.018937 -0.117691 -0.055049 0.061232 -0.09617 0.086176 0.291269 0.008706 -0.160097 -0.106582 0.125271 0.224434 -0.021374 0.227852 0.012107 0.058906 -0.061801 -0.149067 -0.091718 0.154806 -0.051991 -0.016067 -0.257942 0.029422 -0.284058 -0.444376 0.353116 -0.183126 0.064616 0.400697 0.133014 0.355287 0.255683 0.076414 0.320041 -0.074843 0.135489 -0.227324 0.30017 0.211366 -0.357876 -0.200787 0.320362 0.117579 -0.126071 -0.207118 -0.137032 -0.059562 -0.009841 -0.363853 -0.270005 0.007843 -0.164597 -0.481891 -0.05961 0.078422 0.35147 0.260596 -0.109232 0.287569 0.142123 -0.099343 -0.24074 -0.089047 0.047351 -0.094316 -0.201305 0.393477 0.162413 0.087863 -0.196087 -0.335209 0.189724 0.278569 0.043129 -0.076928 -0.004436 0.293468 0.067183 0.137719 0.02438 0.033951 -0.060143 -0.086294 0.105652 0.092498 0.093323 -0.140237 -0.094122 -0.08273 -0.148509 -0.154993 -0.134793 -0.033352 3.2E-4 -0.120148 -0.133753 -0.044123 0.318858 -0.058506 0.052187 -0.539405 -0.316827 -0.026047 -0.008078 -0.038176 -0.176841 -0.159168 0.083937 -0.130264 -0.153523 -0.356431 -0.180625 -0.029309 0.218906 -0.359903 -0.231258 0.422423 0.05209 -0.047545 -0.031138 -0.124157 -0.10433 0.300016 0.104468 0.17763 -0.094856 -0.338004 -0.123979 0.010588 -0.181248 -0.219268 -0.038587 -0.055755 0.039309 -0.375756 0.286855 -0.18713 -0.102321 0.27211 0.445747 0.255393 0.10703 -0.246031 0.337238 -0.316221 -0.140436 -0.011888 0.168573 0.144157 0.173575 -0.079345 -0.229071 0.092814 -0.166993 0.209491 -0.084617 -0.014951 -0.267585 -0.023051 0.107431 -0.323762 -0.23073 0.494229 0.332387 0.189199 -0.152293 -0.004361
jazz -0.234646 -0.229855 0.364584 0.018473 -0.092755 -0.241448 -0.053445 0.189218 0.279783 0.197343 -0.14151 0.331992 -0.171355 0.394929 0.201796 0.641685 -0.170382 -0.032719 0.077352 0.067677 0.038705 0.07374 -0.090228 0.026573 0.014091 -0.329467 0.442022 0.305704 -0.018363 -0.123812 0.332271 -0.255893 0.1692 -0.349885 -0.062963 0.018279 -0.046509 0.326933 0.06997 0.010904 -0.024673 0.026152 0.106611 0.274539 0.020271 0.228505 0.024402 0.367943 -0.003442 -0.057258 0.01768 0.153229 0.291492 -0.127911 0.196686 0.266439 0.052216 0.300088 -0.125861 -0.180944 -0.076395 -0.184314 0.075254 0.030254 -0.224348 0.20775 -0.072 -0.362904 0.598806 -0.502453 -0.156679 -0.142729 0.311083 0.447055 0.073891 -0.071516 -0.175939 -0.185106 -0.238512 -0.131997 0.058499 -0.265411 -0.172373 -0.228223 -0.433057 -0.283614 0.468302 0.08498 0.250076 -0.211981 -0.238379 0.32301 0.51313 0.145091 -0.152992 -0.062573 -0.237491 0.003633 0.25337 -0.335424 -0.192283 0.059405 -0.31672 -0.038445 -0.227801 -0.217764 0.145912 -0.121286 0.233334 0.026765 -0.06066 -0.006488 0.38283 0.084338 -0.194807 -0.212183 0.195701 0.114685 0.463404 0.240926 -0.254862 0.104258 0.002142 -0.014967 -0.194619 0.181812 0.333149 -0.327292 0.056843 -0.27494 0.300857 0.186903 0.019364 0.338624 -0.246226 0.019456 -0.121927 -0.089488 0.095766 -0.152816 -0.112743 -0.021438 0.43596 0.018667 0.091695 0.179424 0.178785 -0.174824 0.307454 0.113872 -0.285767 -0.27502 0.041237 -0.08575 -0.032818 -0.094114 0.031578 0.1258 0.030118 0.04672 -0.209263 0.065658 -0.223463 -0.428061 0.046836 0.179703 0.20617 -0.140087 -0.026898 -0.20992 0.365227 0.112881 0.023571 0.272336 -0.07024 0.026299 0.321409 -0.043779 -0.066675 0.282171 0.031109 -0.176034 -0.477569 -0.055603 -0.30183 0.085777 -0.098 -0.205122 0.214339 0.185962 0.137009 -0.087054 0.015904 0.253655 -0.358015 -0.17324 0.014943 -0.309917 0.339721 0.109792
gain -0.42546 0.149137 0.058342 0.163021 0.072061 -0.018462 0.087786 -0.006905 0.236717 0.007749 0.044175 -0.006784 -0.073042 -0.027172 -0.193229 0.263947 0.207134 -0.126955 0.063633 0.024657 4.11E-4 0.037813 0.247911 -0.164394 -0.436742 -0.233177 0.040211 -0.247825 0.153047 -0.081229 -0.084804 0.230888 -0.009575 -0.269566 0.155043 0.102152 -0.091008 -0.033425 0.11944 -0.365202 0.133822 -0.075935 -0.131466 -0.204298 0.043881 -0.189052 0.032366 0.022727 -0.257972 0.245408 -0.086813 0.207976 0.185146 -0.018294 -0.005949 0.189773 -0.025574 -0.330068 0.022455 0.120567 -0.155455 0.004522 -0.032342 0.037899 0.078496 0.084008 -0.03513 0.088936 -0.022345 -0.14891 0.035321 0.031343 -0.127353 0.002547 -0.12602 0.102137 0.082621 0.048873 0.035434 -0.149229 0.00965 -0.06994 0.287296 -0.003096 -0.005905 -0.056124 0.159836 0.047931 -0.197482 0.050891 -0.078676 0.168277 0.028287 0.210079 0.115202 -0.233205 0.150102 -0.012216 -0.070021 0.139975 -0.043157 0.098672 -0.087393 -0.068921 -0.096318 -0.099583 0.060994 -0.140717 -0.255819 0.128645 -0.03945 0.084706 -0.150396 0.087445 -0.0517 0.289491 -0.185814 -0.067224 -0.073578 -0.092264 0.065161 -0.12724 0.055741 0.009866 0.077651 0.094367 0.115141 -0.014053 0.134862 -0.098447 -0.05942 0.149879 -0.129621 -0.032555 0.16006 -0.107692 -0.190638 -0.220533 0.123809 0.160194 -0.056449 -0.041413 -0.121344 0.020356 -0.156202 0.014385 0.140003 -0.117232 -0.069593 -0.013841 0.247573 -0.135528 -0.128866 0.300938 -0.124563 0.064601 0.016922 0.228466 0.567026 -0.153654 -0.144201 0.250995 0.04561 -0.025965 -0.234848 -0.170765 -0.151478 0.151332 -0.077695 -0.198982 0.061976 -0.092102 -0.055541 0.121139 -0.026089 -0.0023 -0.090293 -0.106344 -0.236036 -0.079913 -0.134406 -0.036522 -0.03259 0.195518 -0.092551 -0.171272 0.309129 0.196056 -0.111092 -0.098231 0.04925 0.034417 0.159916 -0.151691 -0.028565 0.385907 0.077804 0.033203 0.012423 -0.13376
history -0.120571 0.231503 0.033215 -0.129444 0.200979 0.018419 0.060753 0.062551 0.215369 -0.074802 -0.024074 0.097654 0.027435 -0.133794 7.28E-4 0.256872 -0.140959 -0.130394 -0.0021 -0.010119 0.183656 -0.007745 0.07254 0.120916 -0.064484 -0.03525 0.12281 0.063984 0.032093 0.039352 0.277276 0.076168 -0.105354 0.131097 0.081935 -0.156674 0.173984 0.053653 -0.140294 0.185354 -0.086332 0.04635 -0.172062 0.093982 0.097411 0.138343 -0.247882 0.204188 0.04894 -0.110115 -0.032908 -0.130109 0.058428 0.107838 -0.140386 -0.109004 -0.038247 0.088333 -0.007713 -0.213334 -0.131821 0.207356 0.042802 0.056829 0.128937 -0.018455 -0.162805 -0.10934 0.021709 -0.025363 0.056126 0.120362 0.122136 -0.006813 0.212373 0.126418 0.029847 -0.260068 -0.20292 -0.122164 -0.051655 -0.07908 -0.205652 0.12705 0.057654 -0.395726 0.020281 -0.095561 -0.04536 0.141939 -0.186066 0.230823 0.201083 0.139364 -0.141925 -0.192 0.185528 0.406239 -0.014391 -0.211131 -0.1837 -0.045431 -0.086364 0.15758 0.016404 -0.145484 0.279065 -0.357252 0.048008 -0.010394 0.159193 -0.063957 -0.084498 -0.084008 0.047521 0.061519 0.057506 0.143745 0.360856 0.01176 0.016766 0.075804 -0.04877 -0.011578 0.054261 0.002895 -0.027187 -0.081744 0.103598 -0.110967 -0.067058 -0.022187 0.046922 -0.308336 0.102491 -0.200043 -0.07851 0.228823 0.093445 0.139578 -0.067481 0.067825 0.160847 -0.105116 0.321429 0.070704 0.326269 0.160114 -0.067105 -0.063335 0.174887 -0.353805 -0.085253 0.261721 0.154642 -0.037838 0.067574 0.104088 0.175077 0.068983 -0.084414 -0.10208 -0.16839 -0.032011 0.036228 0.029599 0.319191 0.052757 0.00401 0.12191 0.047181 0.188014 0.308223 0.319058 0.142733 0.125572 0.024635 0.045932 -0.154773 0.228485 -0.131737 0.056966 -0.025609 0.106815 -0.085222 -0.081856 0.00147 -0.149155 0.058891 -0.271287 -0.231551 -0.035436 0.04393 0.142883 0.171312 0.03454 0.061147 -0.125366 0.011464 -0.13806
bird -0.066648 -0.275653 0.063101 -0.267206 -0.089373 -0.235706 -0.169876 0.431228 0.256249 0.223384 -0.082705 0.373465 -0.134648 -0.040279 0.24355 0.039421 0.206378 -0.015587 0.218786 -0.286794 -0.124945 0.155011 0.022368 0.551766 0.080857 0.15393 -0.262026 -0.028066 0.001567 0.280293 -0.022754 0.011946 0.407594 -0.076665 -0.083664 -0.391005 -0.116343 0.085286 0.27536 0.152634 -0.067946 -0.023942 0.177005 -0.074821 -0.103956 -0.089235 0.021214 0.49808 0.191312 -0.046378 0.030287 0.147111 -0.289815 0.031309 -0.229754 -0.254333 0.069194 -0.138574 0.299289 -0.271269 0.213212 -0.287674 0.029936 -0.045681 -0.213032 0.220878 -0.261006 -0.10041 0.22826 0.135446 -0.107315 -0.045951 0.003518 0.127969 0.118732 0.032307 -0.092803 -0.265768 -0.131546 -0.038904 -0.035827 0.084535 -0.043577 -0.062084 -0.078003 -0.229884 -0.146982 -0.16291 0.297877 -0.064629 -0.210442 -0.129303 0.134116 0.016041 -0.104952 -0.417909 0.105862 0.427105 0.326341 -0.337983 0.016498 -0.043596 -0.173158 -0.222425 -0.176275 0.013305 0.001162 0.030122 0.122639 -0.053726 0.010277 -0.205922 -0.017908 -0.355519 0.038798 -0.262826 -0.216211 0.019266 -0.362873 -0.275508 0.066473 -0.293452 0.012881 0.442494 0.241617 0.240485 -0.168276 0.209988 0.166973 0.293708 0.060035 0.029545 -0.16345 -0.362131 0.038561 0.478537 -0.230884 0.011781 0.008979 0.427668 0.219295 -0.055769 0.260213 0.343467 0.141931 -0.105876 0.158897 -0.177097 -0.098618 0.217233 -0.226214 -0.119366 -0.04278 0.038141 -0.030963 -0.138392 -0.290191 0.492116 -0.286133 0.381211 -0.078227 -0.225475 0.35233 0.124087 -0.074341 0.046875 -0.458837 -0.256793 -0.006383 0.019868 -0.003049 0.016199 0.042514 -0.045215 -0.114801 -0.489989 0.196678 -0.28971 -0.361096 -0.153307 0.039122 -0.062856 0.121376 -0.12813 0.372302 -0.303877 0.096827 0.449274 -0.191599 -0.20093 0.12617 0.231211 -0.128721 0.034007 0.20802 -0.331088 0.226077 -0.17993 0.090745 -0.001663
possession 0.047392 -0.11098 0.400111 -0.2449 0.270252 0.089506 -0.178512 -0.036808 -0.27736 -0.094985 -0.132883 0.107589 0.036027 0.246912 -0.198096 0.248432 0.038377 -0.326317 -0.142795 -0.186465 0.170975 0.047942 -0.322524 -0.043724 -0.528506 0.041723 0.234424 -0.098531 -0.460095 0.037443 -0.034084 0.147295 -0.087729 0.063448 0.332516 0.394714 0.170486 -0.064369 0.487819 -0.284484 -0.383725 0.043798 0.007589 -0.562081 -0.447074 0.155115 -0.255822 0.32125 -0.303387 0.066852 -0.092576 -0.310449 -0.011301 -0.033249 -0.071227 0.05668 -0.203678 -0.157827 0.164272 -0.485742 0.595109 -0.421969 -0.050925 -0.11279 -0.34791 0.060443 0.166209 0.187386 0.135896 -0.065459 0.319936 0.083634 0.323224 0.060506 0.030079 -0.030893 0.028372 0.221062 -0.060138 0.345662 0.367625 -0.205027 0.032031 -0.365051 0.011944 0.096773 0.035388 -0.298717 -0.007201 0.49819 0.549828 0.24637 -0.149907 0.263363 0.201972 -0.346014 -0.058949 -0.094636 -0.095888 0.049601 -0.176403 0.067919 0.031516 -0.17513 0.394891 0.075865 -0.093152 -0.275148 -0.206934 0.112576 0.208673 -0.095897 -0.282813 -0.145853 -0.116536 0.250539 0.214192 0.151431 0.194056 -0.104098 -0.232369 -0.037927 -0.172598 0.270033 0.158083 0.211292 -0.142712 0.057321 0.125698 0.149357 -0.217654 0.218342 0.381572 -0.131182 0.433341 -0.158314 0.037223 0.28318 -0.177339 0.080277 0.109132 -0.489778 -0.140964 0.255564 -0.163655 0.363099 -0.018356 0.110137 0.054406 0.162193 0.070287 -0.350839 -0.064061 0.038681 -0.381364 0.183093 0.204317 -0.184262 0.025945 -0.060557 -0.106431 -0.283878 0.033198 -0.064143 -0.28957 0.099588 -0.071323 0.455185 -0.004259 -0.018042 0.09129 0.105698 0.442724 0.254428 -0.266762 -0.024204 0.313603 -0.034503 -0.050405 0.319481 -0.223028 -0.132858 -0.278012 0.14638 0.283762 -0.16827 0.048056 0.137102 0.143927 -0.210261 -0.280028 0.207216 0.067603 -0.093495 0.530075 0.33395 0.377485 -0.043078 0.044462 -0.815356
chemistry -0.068928 0.298834 0.178133 -0.082983 -0.100064 0.204689 -0.720349 0.13932 0.199413 -0.422246 -0.314248 -0.105223 -0.012239 -0.161506 -0.005405 0.427804 -0.148114 -0.266504 0.114453 -0.027883 -0.156244 0.177871 0.175386 0.452051 0.163312 0.072614 0.336594 0.025191 0.061746 0.054999 -0.066017 -0.080471 0.168258 -0.099625 -0.176627 0.270504 -0.050322 0.14739 0.105786 -0.114972 0.207595 -0.013599 0.142229 0.168658 0.050589 0.317609 -0.216491 0.021343 0.299341 0.165768 0.104915 -0.106671 0.135431 0.013877 0.272727 -0.085412 -0.256571 0.022806 -0.092448 -0.275786 0.127149 0.25374 0.439126 0.001251 0.31322 0.231317 0.136993 -0.193583 0.057412 0.054284 0.066836 0.338245 -0.067903 0.076186 0.190388 0.149333 -0.228543 -0.165928 0.033624 -0.088037 -0.034127 0.184538 0.195664 0.188637 -0.06219 -0.205768 0.469865 -0.077463 -0.009089 0.018236 0.066988 -0.153508 0.450027 -8.09E-4 -0.077918 -0.049383 0.199279 0.144057 0.209041 0.19729 -0.060142 0.021472 0.25029 -0.061884 0.144107 -0.320602 0.319036 -0.179731 -0.144094 -0.207083 -0.101449 0.228813 2.7E-5 -0.121147 -0.108163 -0.006696 0.089122 0.306833 -0.025897 0.311692 -0.010196 0.046178 0.103194 0.162735 0.142572 0.158991 -0.092103 -0.368263 0.120446 -0.179907 -0.068175 -0.32369 0.095438 -0.112825 0.487382 -0.138455 -0.15497 -0.103296 0.0714 -0.142098 0.085308 -0.060885 0.421164 -0.329961 0.138085 0.154372 0.01558 -0.150768 0.01563 -0.17461 -0.178646 0.057959 -0.154693 -0.123609 -0.02954 0.200445 -0.004394 0.092155 0.136897 -0.088707 -0.182921 -0.234174 0.235257 -0.135556 -0.335235 -0.096857 0.093684 -0.062601 -0.069514 -0.01092 0.014616 -0.146883 0.357753 0.101118 -0.038923 0.136567 0.152703 0.267836 -0.210628 -0.029626 0.020063 0.054391 -0.188259 0.143518 0.028002 -0.103238 0.146446 -0.302564 0.293207 -0.046404 -0.267741 0.054402 0.099688 0.189397 0.001736 0.114003 0.103484 -0.077821 -0.008223 -0.076864
yen 0.378733 -0.136724 0.234692 0.228738 0.383468 -0.134203 0.385365 -0.555895 -0.227498 -0.46066 -0.262511 -0.070608 -0.37618 -0.482948 0.308278 0.91098 0.384344 0.063583 0.145248 -0.479916 -0.065905 0.243717 0.26533 -0.070051 -0.429279 -0.006813 0.230433 -0.570489 -0.011908 -0.011038 -0.204608 0.135958 0.036933 -0.7567 -0.521108 -0.253933 -0.534421 0.813729 -0.272211 -0.283058 0.641225 -0.087764 -0.008903 -0.67677 0.163021 -0.750312 0.100598 -0.588115 -0.332938 -0.004552 -0.271733 -0.110385 0.20808 0.018173 0.26529 0.416118 0.358147 -0.241879 -0.089105 0.394917 -0.532496 0.135366 -0.099476 0.110182 -0.617768 -0.176518 -0.108472 0.03608 -0.182868 -0.2481 -0.378784 0.20408 -0.609678 -0.482961 0.257256 0.831458 -0.100345 -0.940473 -0.546295 -0.236447 -0.434384 -0.161845 0.404501 -0.029542 0.756201 0.01805 -0.135352 -0.159504 -0.092918 0.334288 -0.495445 -0.116865 -0.251812 0.34155 0.470188 0.108339 -0.170826 -0.253257 0.103756 0.176694 -0.066193 -0.184105 -0.696263 0.609707 -0.24106 -0.092775 0.045091 -0.791079 -0.169028 -0.194456 0.228553 0.120038 -0.121185 -0.249789 0.294436 -0.103288 -0.238015 0.185196 -0.528105 -0.285138 -0.338632 -0.106376 -0.253742 -0.136277 0.38908 0.570894 0.149112 0.044796 -0.960796 0.48934 -0.134232 -0.341141 -0.869721 -0.373432 0.111549 0.430199 0.07558 -0.630517 0.345815 -0.404587 0.498848 0.184132 0.391335 0.530086 -0.42326 0.466725 0.020112 -0.45069 -0.511579 0.543804 0.465449 -0.495668 0.037892 -0.275466 -0.227241 -0.011124 -0.048676 -0.123655 0.131759 -0.205381 -0.328795 -0.241741 0.230477 0.638082 -0.204136 -0.017403 -0.104896 -0.610064 -0.302149 0.446467 -0.271919 0.482834 -0.301662 0.272311 -0.570077 -0.663007 0.014282 0.237337 0.712646 -0.400043 0.106688 -0.270081 -0.125391 0.619551 -0.359322 0.128652 -0.013178 0.15456 0.309591 0.277047 0.314305 -0.398955 -0.001675 1.098815 -0.049152 0.352605 0.16594 0.043885 -0.009604 0.380313
library -0.250158 -0.036099 0.479471 0.034888 0.038852 -0.068858 -0.130049 0.059946 0.064663 0.150717 0.104908 0.214512 -0.137204 -0.033533 0.140243 0.134797 -0.014096 0.047129 0.246091 -0.291168 -0.032269 0.080816 -0.040986 0.017182 -0.182457 -0.062253 0.280745 -0.036911 0.332964 -0.255146 -0.068458 -0.003123 -0.108807 -0.119511 -0.040579 0.007322 -0.276256 0.209484 0.107025 0.305046 -0.046081 0.195816 -0.207929 0.024206 0.127543 -0.024032 -0.046973 -0.029069 0.096993 0.027167 0.024495 -0.007646 0.015279 0.075802 0.197761 0.361558 0.224568 -0.049433 -0.217955 -0.357392 0.038028 -0.013383 -0.029669 0.10669 -0.069787 0.181932 -0.007429 -0.159984 0.143528 0.035575 -0.03315 0.17207 0.108512 -0.038285 0.150088 0.053141 0.147388 0.170845 0.226163 -0.278524 0.02672 7.77E-4 -0.008059 0.229513 0.079661 0.013996 0.145696 0.182731 0.145729 -0.14884 -0.157954 0.499688 0.092325 0.059614 0.005059 -0.011695 -0.170953 0.220123 0.22426 0.044268 -0.133987 0.221351 -0.113571 -0.314955 0.140179 -0.014844 0.231007 -0.298518 0.096336 -0.015891 0.25323 0.082467 -0.151809 -0.152504 0.039867 -0.050455 -0.029623 0.044397 0.063235 -0.249603 -0.146899 0.095368 0.057298 0.302793 0.357997 -0.304512 0.016111 -0.271129 0.177787 0.144863 0.082834 -0.229258 0.073268 0.077108 0.120209 -0.316721 -0.253405 0.232101 0.229933 -0.109277 -0.177923 0.112382 0.086849 0.212591 0.281265 -0.164437 0.161718 -0.00398 -0.176584 -0.380789 -0.041539 -0.030819 -0.060211 -0.003762 -0.187693 0.075896 -0.036035 0.035513 -0.127985 0.086554 0.024599 -0.091013 -0.089776 -0.221143 0.120272 0.164701 -0.094745 -0.049621 0.013657 -0.02125 -0.012125 -0.053915 0.175935 0.400296 0.166095 -0.229575 -0.094252 0.034153 0.007945 -0.053797 -0.055031 0.067539 0.12351 0.012981 0.102676 0.045925 -0.015009 -0.019138 -0.125577 0.024354 0.030631 0.088598 0.251872 0.094165 -0.06316 -0.17479 0.053377 0.031386 -0.15818 0.160625
virtuoso -0.299978 -0.254425 0.36568 0.068504 -0.188339 -0.017386 -0.011423 0.298316 0.257313 -0.063393 -0.115715 0.240162 -0.274011 0.172218 0.122275 0.545379 -0.238134 -0.003304 -0.092179 0.204505 -0.055423 -0.102471 -0.140866 -2.34E-4 0.006305 -0.212026 0.245464 -0.006163 -0.137146 -0.032927 0.096305 -0.171287 -0.143609 -0.259755 -0.085052 0.079563 0.05572 0.181985 0.102643 0.015739 0.046213 0.019482 0.233029 0.037448 0.151816 -0.139729 -0.070675 0.363739 -0.038394 -0.02052 0.059082 0.15547 0.081253 -0.098366 0.029979 0.250434 0.167527 -0.012703 -0.095041 -0.086812 0.15519 -0.21183 0.192141 0.074484 -0.00569 0.031338 -0.20872 -0.310418 0.340726 -0.498329 -0.1136 -0.10811 0.196277 0.241938 -0.1146 -0.036056 -0.321192 -0.157562 -0.302004 -0.026087 -0.033136 -0.2152 -0.159351 0.087723 -0.42233 -0.085002 0.378107 -0.226225 0.235198 -0.128207 -0.04663 0.258851 0.565787 -0.01209 -0.018674 0.204888 -0.120059 0.03722 0.185727 -0.163303 -0.166545 0.139751 -0.164898 0.029685 -0.140635 0.145386 0.151858 0.087798 -0.035603 0.024921 -0.255053 -0.053989 0.123563 -0.12412 -0.131101 -0.046331 0.186763 0.049487 0.12484 -0.07855 -0.157407 0.168494 0.003964 -0.257025 -0.056787 0.302722 0.355924 -0.20869 -0.257846 -0.188409 0.478508 0.144024 0.211238 0.165965 -0.083314 0.115429 0.112773 -0.062102 -0.048402 0.121113 -0.137862 -0.253852 0.100288 0.107237 -0.001451 0.323533 0.295825 -0.374705 0.235759 0.282383 -0.195687 -0.466581 -0.044609 -0.264213 0.065277 -0.406193 -0.15232 -0.019737 0.115487 0.131729 -0.255754 -0.03603 0.010689 -0.158954 -0.025867 0.283366 0.04038 -0.192349 0.067753 -0.091718 0.321735 -0.075812 -0.063464 0.367901 0.007922 0.239855 0.17508 0.018482 -0.188677 0.306489 -0.166543 0.045577 -0.819751 0.069902 -0.075932 0.017199 -0.098853 -0.069973 0.177154 0.334683 0.009704 -0.143775 -0.111898 0.325338 -0.104294 -0.008127 0.122735 -0.295965 0.284065 -0.073952
psychiatry 0.045259 0.364287 0.423915 -0.407937 -0.196485 0.649754 -0.023247 0.362494 -0.102995 0.105098 0.094149 -0.343337 0.365906 -0.314499 0.293958 0.451161 -0.102908 -0.310905 0.407781 -0.3524 0.096004 -0.058983 0.174082 0.323465 0.291484 0.431886 0.527751 -0.127794 -0.147802 0.108949 0.081045 0.18698 0.148419 -0.042893 -0.066207 0.175463 -0.268924 0.255806 0.346188 -0.145407 0.374049 -0.215549 -0.244042 0.304943 -0.003619 0.426945 -0.088825 -0.369033 -0.165643 0.211299 0.152916 -0.294049 -0.415562 0.308703 0.003868 0.252232 -0.333337 0.326737 -0.037726 -0.768298 0.044041 0.029556 0.253472 -0.091116 0.365903 0.044471 -0.090512 -0.293716 -0.179199 -0.242257 0.218941 0.216039 0.175497 -0.088188 0.684603 0.586946 -0.198483 -0.080827 -0.232374 -0.214022 0.148131 0.069569 -0.033416 0.455276 0.061865 -0.476829 0.240402 -0.102605 -0.032274 -0.285455 0.333776 -0.319061 0.276517 0.088029 -0.180804 -0.036917 0.378202 0.401007 -0.34622 -0.018026 0.045182 -0.260175 -0.049886 -0.070138 0.494821 -0.103185 0.048898 -0.216207 0.00725 0.257904 -0.018297 0.169281 -0.139903 0.024857 0.320182 -0.626901 -0.030105 0.630193 0.180384 -0.173928 0.041127 -0.109056 -0.048714 0.100008 -0.114112 -0.367609 0.177202 -0.362412 0.052487 -0.469438 -0.658586 7.95E-4 0.383007 0.018373 0.285331 -0.287073 -0.536303 -0.032315 -0.10845 0.64515 -0.312312 -0.048791 0.174558 -0.493553 0.0499 0.344829 0.384547 0.112435 0.107408 -0.044704 -0.566417 0.339357 0.122049 -0.527533 -0.45529 0.130539 0.113398 -0.254602 0.027488 0.125498 -0.152861 0.029578 0.170774 0.117518 -0.479739 0.237759 0.210837 -0.280179 -0.267588 -0.214634 0.193871 -0.291077 0.130914 0.558592 0.659853 -0.19876 0.369439 0.109408 -0.131885 0.448141 0.425671 -0.269628 -0.295355 0.337382 0.137147 -0.430404 -0.131482 -0.267462 0.358182 0.318745 0.079662 -0.632783 0.162443 -0.310076 -0.139032 0.574459 0.038836 -0.414251 -0.4738 0.540939
