437 300
president 0.0135 -0.015887 0.047832 -0.381489 0.091541 0.07726 -0.038035 -0.076682 0.078273 0.096588 0.110248 -0.08508 -0.080622 -0.100879 0.504415 0.047056 0.042099 0.004728 -0.244862 0.119701 0.118521 0.07614 -0.057169 0.074673 -0.080763 -0.249422 0.200994 -0.15873 0.117592 0.317827 -0.220082 0.225149 -0.290702 0.02802 0.08077 -0.16042 0.129703 0.088758 -0.13526 0.075724 -0.088098 -0.375851 0.088807 0.02426 0.087485 -0.23442 0.188277 -0.08282 -0.084761 0.256489 -0.048203 8.57E-4 0.233469 -0.072129 0.07678 0.059563 0.20047 -0.041621 -0.164876 -0.220442 -0.231393 0.008223 0.036782 -0.227179 -0.03918 -0.15229 0.10256 -0.128679 0.08887 0.224759 0.115943 0.50974 0.113653 -0.113549 0.014767 0.093907 0.002467 -0.058839 -0.023576 -0.001979 -0.230233 -0.311909 0.104926 -0.021918 0.199945 0.319065 0.200418 0.052488 0.153614 0.289681 -0.180092 -0.029088 -0.45952 0.100969 0.04098 -0.014037 0.033294 0.012069 -0.122559 -0.206639 -0.303187 -0.001849 -0.096978 -0.059147 0.142844 -0.095164 -0.114446 -0.073835 -0.162955 -0.035314 0.153412 -0.088428 0.075795 0.015184 -0.3946 -0.128657 -0.069449 0.043858 0.089197 0.081884 0.551368 0.219227 -0.065142 0.044661 -0.292829 -0.037919 -0.06406 0.012864 0.239421 -0.139726 0.078212 0.275881 -0.025352 -0.210294 0.094784 0.26413 -0.082881 -0.032324 0.278335 -0.100042 0.016226 -0.142865 -0.045999 -0.045779 -0.12286 -0.121696 -0.096431 -0.066251 -0.088538 -0.136831 -0.07885 0.40287 0.04589 0.029794 -0.050308 -0.083779 -0.053458 -0.07191 -0.130552 -0.131179 -0.104963 0.133003 -0.059005 -0.016789 -0.171246 0.092248 -0.086108 0.230474 -0.058142 -0.123508 0.054828 -0.001331 0.140954 0.038523 -0.227253 -0.110809 0.082375 0.356491 0.172262 -0.251107 -0.130411 -0.050116 0.215285 -0.083187 -0.150898 -0.054328 0.072954 -0.137032 0.101692 0.109197 0.115179 -0.129574 -0.137641 0.371825 0.289369 -0.036713 -0.094637 -0.01827 0.071311 -0.201098 0.247401 0.279933 0.148944 0.170045 -0.083917 0.032367 -0.166845 -0.227569 -0.003322 -0.092974 0.09715 0.031477 -0.429763 -0.126275 0.096416 0.461919 -0.152094 0.179011 0.120524 -0.201052 0.242596 0.006459 -0.076415 0.114606 -0.306304 -0.294784 -0.181882 0.396063 -0.192722 -0.100797 -0.046502 0.111356 0.214361 -0.061293 0.019415 -0.002243 -0.147623 -0.186766 0.016087 0.183927 0.346496 0.027114 0.024252 0.138639 0.129674 -0.055109 0.029942 0.242382 0.110156 0.02417 -0.075976 0.069195 -0.117071 0.408609 0.047108 0.036092 -0.052662 -0.074179 0.417123 -0.096045 0.174274 -0.135982 -0.270147 -0.300164 0.03901 -0.136171 0.053575 -0.35674 0.077209 -0.02886 -0.116166 0.070837 0.273796 0.330376 0.013721 0.176504 -0.193694 0.031414 0.009842 0.092803 -0.017299 0.200962 0.058611 -0.083207 0.09677 0.040993 -0.11136 0.029782 -0.353889 -0.161901 -0.247134 0.252888 0.041091 0.023503 0.187327 0.102494 0.053744 0.038182 -0.479981 0.057786
monk 0.123211 -0.106266 0.136829 -0.239929 0.048937 -0.121892 0.199372 -0.232495 0.290939 0.064606 -0.37643 0.062493 0.186652 0.047357 -0.136219 -0.170978 0.152247 0.211003 0.035966 -0.22351 -0.141699 0.125732 0.141818 0.106731 0.266741 -0.071539 -0.244941 0.200459 0.273801 -0.349927 -0.40272 0.12602 -0.294122 -0.077994 -0.006129 0.275344 -0.010635 0.092836 0.088169 -0.184678 0.292486 -0.116653 0.168937 0.008909 -0.002745 0.02307 0.422831 0.16379 0.044036 0.240014 0.043291 -0.391953 -0.264629 0.318978 -0.192831 0.16543 -0.11237 0.197842 -0.056236 -0.11224 -0.3577 -0.083192 -0.182702 -0.106801 -0.113827 -0.111449 -0.340749 -0.023182 0.245549 -0.410091 0.242454 0.011749 0.15278 -0.046721 -0.084093 0.091884 0.37914 0.019778 -0.049825 0.104492 -0.188701 -0.027062 0.023851 -0.065602 0.231411 -0.298853 0.084029 -0.538584 0.176997 -0.131853 -0.171643 0.247351 -0.159844 -0.074246 0.059088 0.12812 0.053997 0.132392 -0.596032 -0.374735 -0.093788 -0.183263 0.290694 -0.124366 0.15676 -0.15671 0.109678 0.194026 0.123716 0.238247 -0.092644 0.117188 0.116954 -0.055853 -0.23153 0.21307 -0.101844 -0.16108 0.019796 0.238405 -0.054665 0.187083 -0.130553 0.261727 -0.380394 -0.182565 0.237719 -0.194022 0.194692 0.021705 -0.054132 0.052991 0.002716 -0.066873 -0.138297 0.123181 -0.083521 -0.027263 -0.093387 0.051708 -0.023966 -0.108005 0.032281 -0.024557 -0.051595 -0.093086 0.095989 -0.166761 0.173012 -0.13612 0.018408 -0.133949 0.1177 -0.190246 0.032959 0.409688 -0.136869 -0.059918 0.033411 0.143319 0.147129 -0.082455 -0.036913 0.046975 0.074878 0.071192 -0.20717 0.300496 0.050381 -0.076873 -0.431111 0.139942 -0.013547 -0.365624 -0.345614 0.528439 0.349279 0.242347 0.23638 -0.183453 -0.014868 -0.10301 0.084112 0.013525 -0.237609 -0.03892 0.261181 0.023444 -0.045039 0.373857 0.04662 -0.198972 -0.063238 0.011602 0.257479 0.676523 -0.488045 -0.20923 -0.144683 -0.002498 0.099685 0.091185 -0.082303 -0.082079 -0.010231 -0.035275 -0.213606 -0.063028 0.050058 0.069116 -0.14911 -0.094603 -0.110576 0.10735 0.007084 0.038631 -0.232114 -0.15003 -0.02133 0.192162 -0.066135 -0.339954 -0.05131 -0.144935 -0.244055 -0.141198 -0.006691 0.437578 -0.556821 -0.0953 -0.146724 -0.071718 0.032387 -0.058108 -0.05293 -0.043227 -0.017132 -0.238267 0.102535 0.25836 -0.141481 0.280262 -0.214703 0.082474 -0.20526 -0.043949 0.026443 -0.191722 -0.038717 0.061073 -0.302786 0.169718 -0.250972 -0.128131 -0.177514 -0.184133 -0.240046 0.117524 0.162117 -0.089836 -0.128934 -0.689896 -0.298497 0.309317 0.154385 0.0666 0.033596 -0.241747 0.106868 0.050584 0.188971 0.1313 -0.134554 0.088835 0.169025 0.013297 0.119998 0.028376 0.16497 0.161694 -0.213934 0.027057 0.486953 -0.012051 0.377661 -0.158941 0.075418 -0.170083 -0.300452 -0.073751 0.063861 -0.049585 -0.273267 0.107722 -0.217544 0.031525 -0.286638 0.300672 -0.397597 0.166068
chance 0.111662 0.047626 -0.032979 0.224653 -0.038038 -0.325164 0.054601 -0.120166 0.274845 -0.325144 0.193841 0.032758 -0.251953 -0.190658 0.025755 0.238661 0.168771 -0.098639 0.253878 0.035805 -0.101122 -0.093232 0.100023 0.126942 -0.024918 0.302012 -0.089478 -0.031043 0.072611 0.045341 -0.044431 0.26984 0.032503 -0.174297 0.047888 0.349743 0.102006 0.238488 -0.23983 -0.090077 0.243558 -0.249947 -0.040558 -0.141529 -0.169389 -0.006845 0.115369 -0.157131 -0.195091 0.07918 0.094527 -0.202895 0.226911 -0.030287 0.283885 -0.041104 0.155164 -0.135528 0.01399 -0.169668 -0.062501 -0.052696 0.093172 0.068314 -0.105264 0.221327 -0.277763 -0.159695 -0.431513 -6.97E-4 0.027868 0.163141 -0.069825 -0.077657 -0.206367 0.194229 -0.181789 0.23664 -0.131418 0.167094 -0.339398 0.119653 0.552432 0.024766 -0.154679 -0.038118 0.084907 -0.218342 0.00633 0.194952 0.06955 -0.281076 -0.29498 -0.250632 0.096564 -0.253385 0.087996 -0.2818 -0.063668 -0.06705 -0.103812 0.081267 -0.179656 0.086872 0.029742 -0.126477 -0.012052 0.111245 0.117183 -0.061548 -0.045902 0.032422 0.283334 -0.308066 -0.326402 -0.106779 -0.094781 -0.066943 -0.042685 0.025194 0.112602 -0.194388 0.044287 0.148941 -0.10644 0.007969 0.171898 -0.07055 0.004445 0.069607 -0.016619 0.198523 0.272254 0.045129 -0.037846 0.221213 0.222789 0.144327 -0.210111 -0.071229 -0.031506 -0.1566 0.14278 -0.148051 -0.035738 0.101606 -0.109334 0.011353 -0.139546 -0.062597 0.16343 0.136097 0.116936 0.178156 0.032852 0.130938 -0.05152 0.081961 0.043419 -0.088068 0.008532 0.154823 -0.391563 -0.308084 -0.0081 0.031401 -0.011405 0.062003 0.174816 -0.01235 -0.074792 -0.190206 -0.131888 -0.109483 0.218932 0.022262 -0.010194 -0.026643 0.179964 -0.206908 0.102028 0.025541 -0.204621 -0.023901 -0.135067 -0.291724 0.074119 0.053695 0.021896 0.180517 0.239503 -0.076866 -0.197297 0.319617 -0.093782 -0.034007 -0.153853 -0.131554 -0.013361 -0.240638 -0.039807 0.042211 0.074999 -0.00614 0.164594 0.204358 0.028617 0.027072 -0.078305 -0.050658 -0.060781 -0.151591 -0.01884 -0.232316 0.399115 0.1227 0.058538 -0.234704 -0.265519 0.02311 0.144289 -0.085491 0.259604 0.036428 -0.201501 0.080141 -0.138495 0.177233 -0.109652 -0.023531 0.134291 0.007936 -0.01563 0.287174 0.212613 0.010788 -0.296146 -0.387858 -0.331073 -6.59E-4 -0.164167 -0.028319 -0.145012 -0.277461 0.416097 0.030727 0.038447 0.001116 -0.160179 -0.029638 0.087257 -0.178754 -0.03528 -0.123179 0.251274 -0.012874 -0.013566 -0.241897 0.05933 -0.075928 0.106418 -0.330877 -0.42443 -0.161273 0.237874 0.096642 0.001321 -0.06146 0.23912 -0.073978 0.225189 0.230491 -0.129138 0.393693 -0.30925 -0.100546 -0.020389 0.093357 0.110243 0.004314 -0.148564 0.297636 -0.075739 0.072572 0.137047 -0.011041 -0.30657 -0.161238 0.01008 -0.028013 0.006134 0.153595 0.048691 0.033038 0.08397 0.194926 -0.184987 0.187452 -0.213768 0.059974
party 0.218083 0.258096 -0.104534 -0.128287 0.05412 -0.104917 -0.136174 -0.291425 0.056464 -0.135831 -0.102058 0.047398 0.240142 0.167984 0.279443 0.030907 -0.045088 0.030855 -0.066563 -0.02749 -0.160618 0.196047 0.227451 0.281914 -0.033862 0.044592 0.057646 -0.461252 -0.056188 -0.135729 -0.348975 0.385872 -0.296888 -0.055395 0.095092 0.231614 0.061078 0.238729 0.084194 0.045461 -0.109465 -0.016673 -0.124361 0.123864 -0.299458 0.138952 0.158929 0.164092 -0.01187 -0.06274 -0.014236 0.156002 -0.061343 0.05058 0.211374 0.300926 0.07294 -0.047997 0.067155 -0.258811 0.03444 0.228663 0.019918 -0.286858 -0.031965 0.167527 0.072952 0.097182 0.2073 -0.087195 0.079658 0.156211 0.106089 0.213565 -0.026099 0.080338 0.151636 -0.04146 0.207338 0.003292 -0.074798 0.044115 0.045963 -0.057344 0.00357 0.064616 0.140187 -0.022254 -0.050909 0.00382 -0.120405 -0.181362 -0.349374 -0.060267 0.110126 -0.152765 0.006004 -0.12864 -0.200904 -0.04963 -0.331628 0.128569 -0.110354 -0.083369 0.079968 0.253684 0.142496 0.102024 -0.242846 -0.08178 0.027559 -0.036866 0.263659 -0.159222 -0.411672 0.252113 -0.114385 0.211538 -0.015287 0.132776 0.264439 0.08313 0.0745 0.233607 -0.097955 0.089616 0.185654 -0.135644 -0.10925 0.25382 -0.240014 0.041297 -0.094303 0.15056 -0.034459 -0.087378 0.024354 0.148066 0.109876 0.27107 0.080276 -0.128244 -0.050756 0.069814 0.042146 0.094049 -0.227524 -0.03244 -0.096583 0.069815 -0.015928 0.026198 0.185209 0.305763 0.079454 0.355569 -0.094481 0.093851 0.082175 0.100609 -0.061463 0.057608 -0.065084 -0.415609 0.016995 -0.00588 -0.321231 0.148951 0.038673 -0.064532 0.033261 0.021632 -0.099033 -0.088868 -0.134062 0.136696 0.241227 0.107715 -0.215814 -0.218781 -0.233967 -0.135777 -0.061794 0.250558 -0.208979 0.027264 -0.223341 0.090424 0.057829 0.22835 0.195792 -0.103085 -0.258031 0.138466 0.358045 0.065302 0.122487 -0.118773 0.18586 -0.290271 -0.130191 0.208394 -0.024314 0.118825 -0.122632 -0.069802 -0.062621 0.287344 -0.217403 -0.026439 -0.173423 0.113223 -0.156934 -0.057644 0.003225 0.331548 -0.186128 -0.022832 -0.246605 -0.207752 0.281023 0.132602 0.173493 -0.170508 -0.283239 -0.026446 0.051933 0.087353 -0.004164 0.130381 -0.011493 0.006311 0.251494 0.084324 0.226764 0.255528 -0.13755 -0.103806 -0.197404 0.241871 -0.158314 0.005446 -0.32096 -0.04725 0.011907 0.036808 -0.105491 -0.088736 0.170515 -0.235357 -0.10766 -0.049026 -0.116292 0.185891 0.251062 0.034539 -0.068928 -0.272971 0.371558 -0.143316 0.077297 -0.198043 -2.28E-4 0.103049 0.181474 -0.17249 0.088691 0.023729 -0.278369 0.12176 -0.302447 0.080043 0.199925 0.512533 0.121915 -0.096841 -0.013548 0.15438 0.057872 -0.022945 -0.057745 0.200387 0.025048 0.149749 0.114287 -0.044519 -0.093526 0.113971 -0.254902 0.060868 -0.170557 0.130316 -0.18687 0.004749 0.081338 0.096933 -0.030653 0.035061 -0.270741 -0.393076
fuck 0.219515 -0.052226 0.098387 -0.067722 -0.148427 -0.215612 0.070778 -0.244277 0.15765 0.22822 0.205991 0.242182 -0.200889 -0.158555 -0.126786 0.065692 -0.151636 -0.076827 -0.177337 -0.083805 -0.148924 0.261629 0.057615 0.264441 0.004566 -0.060849 0.054108 -0.008812 0.027152 0.201096 -0.17271 0.195894 -0.231734 0.075125 -0.011523 0.245246 -0.107166 0.075592 -0.062686 0.193498 -0.243802 -0.180101 -0.120659 0.134111 -0.015958 -0.212653 0.117678 0.192731 -0.077213 -0.117359 0.002981 0.026169 -0.101229 -0.150925 0.106982 0.006259 0.155987 0.024557 0.136225 -0.388239 0.009905 -0.085682 -0.240201 -0.029711 0.049763 -0.197241 -0.028585 0.09507 -0.167773 0.089678 -0.079596 -8.06E-4 -0.086895 0.009104 -0.264627 0.058067 0.083884 0.116378 0.270838 0.032222 -0.340111 -0.139813 0.043432 -0.177962 -0.106997 0.190216 0.075907 -0.262995 -0.181979 -0.311266 -0.173026 0.183582 -0.058184 -0.042063 0.115971 -0.199363 -0.008842 0.168909 -0.20541 -0.093007 -0.470865 0.195265 0.056721 -0.166518 0.095156 -0.023517 0.053525 0.086672 -0.157419 0.031685 -0.148802 -0.125706 0.291615 -0.098421 -0.07633 0.015967 -0.0387 0.109097 0.187592 0.029022 0.306403 0.209815 -0.139433 0.293633 -0.173431 0.08848 0.261866 0.248864 0.20938 -0.124841 -0.138234 0.192856 0.272502 -0.140391 0.02183 0.146961 -0.007409 0.075651 -0.151039 0.185214 -0.02659 -0.06334 -0.069674 0.124434 -0.031791 0.251042 -0.09294 0.067502 -0.002041 0.066398 0.169067 0.324298 0.181299 -0.137129 -0.165197 0.388975 -0.117616 0.087597 0.174216 0.042593 -0.329949 0.089279 -0.333559 -0.33493 -0.055855 0.124513 -0.130967 -0.020252 0.013825 -0.003148 -0.005673 -0.134013 -0.163355 0.02438 0.019659 0.085675 -0.008813 -0.154351 0.153759 0.016464 0.269161 -0.011064 0.035996 -0.113868 0.014787 -0.189233 0.366724 0.01141 0.038883 -0.050813 -0.152468 -0.106941 0.077809 0.04345 -0.153431 0.075104 -0.142599 -0.1644 -0.068492 -0.180473 0.097922 -0.006882 0.006326 -0.180646 0.039018 0.025464 -0.024682 0.146991 0.14511 0.061486 -0.179277 -0.016819 -0.082101 0.007174 -0.020154 0.063694 -0.006147 -0.049701 -0.070128 -0.006806 -0.183559 0.341115 0.057769 -0.222803 -0.155617 -0.221202 0.167092 0.213749 -0.21414 -0.012162 0.049936 0.028379 0.152114 0.086431 0.254443 0.018687 -0.044781 -0.189114 -0.309103 -0.0084 -0.073627 0.089464 0.041653 -0.109648 0.134474 0.22861 0.025322 0.068182 -0.0511 0.177553 -0.261057 0.058833 0.01447 4.22E-4 0.280483 0.05779 -0.210238 -0.113489 0.010625 0.058695 0.192041 -0.150131 -0.23661 0.098289 -0.04302 -0.102976 -0.058553 -0.352945 0.066475 -0.005845 -0.109185 0.26127 0.016499 0.075767 -0.285295 -0.206492 -0.194197 -0.11722 0.035857 -0.05652 -9.1E-5 0.042688 -0.018064 0.072026 0.195821 0.104111 0.227237 -0.001612 -0.152395 -0.100443 0.102866 0.065902 -0.080491 -0.024418 -0.048842 0.209983 -0.198103 0.189846 -0.277095 0.168847
psychology 0.115578 0.104758 -0.004461 -0.308079 -0.204682 -0.039896 0.265064 -0.193879 0.142624 -0.031521 0.247611 -0.095444 -0.204166 0.071022 0.078817 -0.185235 -0.076244 -0.065947 -0.138801 0.111142 -0.22047 0.461116 0.364189 -0.00651 0.333147 -0.041834 0.296564 -0.325041 0.045814 -0.06024 -0.255164 0.212144 0.218194 0.298367 -0.382262 0.299814 -0.120504 0.395476 -0.002075 -0.101439 0.321219 -0.08592 0.130876 -0.143806 0.248096 -0.261494 -0.392584 0.066936 -0.112651 -0.291676 0.089682 -0.094021 0.012133 0.011472 -0.233405 -0.034798 -0.055906 -0.032227 -0.084521 0.339238 0.462674 0.167805 0.685168 0.216439 0.173707 -0.305532 -0.293707 0.069514 0.113345 -0.135645 -0.268109 0.268463 0.124453 0.202598 0.139765 -0.030319 -0.201638 0.173866 0.363963 0.238806 -0.195085 -0.230906 -0.482757 -0.157406 -0.257424 -0.083958 -0.144701 0.154798 -0.089731 -0.040622 -0.016903 0.124965 0.052259 -0.159396 0.137568 -0.022203 0.246536 -0.001998 -0.356159 -0.291735 0.210846 0.258919 0.128256 -0.159067 -0.445081 0.288073 -0.121038 -0.11715 -0.18807 -1.3E-4 -0.16551 -0.239507 0.284122 -0.225707 -0.310719 0.124366 -0.194889 0.218114 -0.091162 -0.009126 0.274378 -0.016392 -0.192857 0.094018 -0.320326 -0.204797 0.075331 -0.156774 0.334017 0.077389 0.140575 0.030064 0.155207 -0.389595 0.224453 0.053803 0.092486 0.077658 0.180789 -0.007751 0.029309 0.075243 0.068581 0.127047 0.081297 -0.048816 -0.095315 0.218787 -0.004025 -0.111045 0.123346 0.101901 0.323199 0.051401 -0.009854 0.2806 0.177504 -0.027443 -0.020771 -0.085875 -0.226619 0.094718 -0.056775 0.062971 0.014328 0.174704 0.056893 -0.391732 -0.013352 -0.002395 0.119488 -0.329089 -0.371058 -0.315399 -0.032648 0.317451 0.148279 0.036114 0.201026 -0.305844 -0.132562 -0.070211 0.367116 -0.240159 -0.050772 -0.313177 0.567642 -0.274069 0.26221 -0.020249 -0.099025 0.062048 0.241805 -0.02508 -0.075085 -0.239878 -0.238624 -0.295366 0.051615 0.188906 0.293296 0.499591 -0.278252 0.117261 -0.087255 0.078388 0.051347 0.124256 0.056883 0.159674 0.195333 0.188484 -0.175845 -0.217196 0.187616 0.354092 0.034103 -0.069587 -0.129661 -0.080487 0.130798 0.323566 -0.037448 0.044677 -0.159405 -0.311616 -0.466104 0.205548 -0.331377 0.235704 -0.214766 0.192177 0.255556 0.14878 -0.046591 -0.267807 0.104505 -0.238556 -0.287866 -0.136734 0.008097 -0.253414 -0.217528 -0.335807 0.270489 0.082984 0.277872 0.057586 0.247553 0.027415 0.043798 -0.314857 -0.117474 0.028099 0.148408 0.005069 -0.274711 0.106933 0.23136 -0.14496 0.264028 -0.297179 0.008246 -0.024545 0.510763 -0.051304 0.079242 -0.192835 0.006443 -0.222093 0.222008 -0.13753 0.010769 0.227411 0.178703 -0.51312 -0.020728 -0.043815 0.226517 0.029512 -0.191785 -0.084011 0.278144 0.272695 0.075587 -0.029209 0.19489 -0.091472 -0.331918 -0.327243 -0.13378 0.094624 -0.208629 0.07577 -0.166609 -0.167248 -0.25617 -0.318967 -0.0924 -0.045753
government 0.336747 0.241925 -0.119054 -0.046208 0.189769 0.191305 0.116278 -0.242661 -0.01617 -0.086409 -0.015454 -0.088092 -0.092642 -0.209107 0.290878 0.182012 -0.06796 0.021324 0.097729 0.196943 0.029376 0.123646 -0.125653 -0.068795 0.098414 -0.148706 0.097251 0.013649 0.034278 0.024681 -0.173946 0.183 -0.182479 0.056021 0.066331 -0.004639 0.170792 0.218632 -0.017722 0.232209 0.208887 0.012588 -0.159614 -0.106819 0.075693 -0.107917 0.208317 -0.021799 -0.021025 -0.032618 -0.125585 0.010192 -0.170182 0.035273 -0.050717 0.21082 0.077363 0.0234 -0.137721 -0.189018 -0.005473 -0.130087 -0.033994 0.06414 0.075783 0.27383 -0.07343 0.195947 0.233654 0.255377 0.139521 0.241125 -0.032701 0.15655 -0.107409 0.070273 0.161398 0.124574 0.081453 0.026967 -0.385136 -0.129081 -0.208692 0.041859 -0.064672 0.234228 -0.073574 -0.171301 0.114557 0.126808 -0.160355 0.101094 -0.414625 -0.315366 0.132341 -0.008234 0.037862 6.85E-4 -0.196939 -0.063051 -0.29776 0.280712 -0.072034 0.053412 0.028524 -0.051679 0.117761 0.052622 -0.156608 -0.195694 -0.004718 0.081124 0.098527 -0.152421 -0.395568 0.095822 -0.104814 -0.11269 -0.036321 0.00176 0.080182 0.137776 0.075374 -0.047557 -0.239523 0.037743 0.181665 -0.161246 0.044597 0.070426 -0.228683 0.179669 0.114252 -0.123322 -0.033363 0.022681 -0.244084 0.229895 0.082069 -0.054956 0.123295 -0.082788 0.198491 -0.036986 0.01813 0.121594 0.119265 -0.014105 -0.102322 0.014358 0.038755 0.129328 0.134416 0.066475 -0.099141 0.191784 0.115812 -0.200026 0.047733 0.284964 0.035321 0.218678 0.159665 -0.208185 -0.008445 -0.040233 -0.205003 -0.116824 -0.162522 0.101383 -0.245172 -0.121715 -0.133408 -0.185935 -0.10949 0.135113 -0.00386 -0.032177 0.121239 -0.298662 -0.043138 -0.057354 0.219386 0.049459 -0.377726 0.105832 0.063886 0.073011 -0.126473 0.257197 0.113256 -0.001287 -0.065029 0.197885 0.450467 0.039572 0.080221 0.038427 0.053488 -0.309103 0.063349 0.125642 0.189925 0.215156 -0.198956 0.010143 -0.12633 0.079328 -0.099947 0.037071 -0.036968 0.121113 0.147503 -0.093899 0.212474 0.223961 0.062467 0.133145 0.072773 -0.085539 0.19081 0.172132 -5.95E-4 -0.028414 -0.301824 0.023239 -0.029488 -0.053011 -0.22594 -0.058584 -0.12505 0.232696 0.303115 -0.04713 0.06953 0.234071 -0.067958 -0.229371 -0.006523 -0.003501 0.007439 0.131506 0.142564 0.05663 -0.039074 -0.066596 -0.03649 -0.08935 -0.095053 0.026546 -0.041872 0.043222 0.016379 0.111404 0.153014 -0.158196 -0.076305 -0.225782 0.125113 -0.079207 0.164829 -0.283 -0.067178 0.073346 0.11696 -0.225437 0.141318 -0.002278 -0.286604 0.338114 -0.110632 0.069891 0.025651 0.243411 -0.113642 0.233883 -0.024173 0.122534 0.104765 -0.213788 0.079413 0.180692 -0.204913 0.134702 0.06322 -0.00147 -0.073349 0.00114 -0.231549 -0.219454 0.008376 0.301872 -0.13946 0.136429 -0.109779 -0.02446 -0.156139 -0.027609 -0.219745 -0.078352
madhouse 0.218503 0.067846 -0.116839 -0.029521 -0.192781 0.07141 -0.042489 -0.133732 0.014344 0.216228 -0.002433 0.009975 -0.035381 -0.04883 -0.024642 0.045727 -0.146728 -0.019398 -0.155768 -0.152977 -0.194912 0.086593 0.18477 0.101468 -0.066641 -0.099809 -0.09613 -0.06737 0.014814 -6.69E-4 -0.075288 0.313916 -0.12047 -0.036594 -0.053 0.14559 -0.035287 0.032838 0.153835 -0.109134 -0.026553 -0.158275 -0.059672 0.016705 -0.173207 -0.044977 0.043054 0.157406 0.05855 0.138258 0.127578 -0.107695 -0.007404 -0.077205 0.081871 -0.142797 0.084381 0.066312 -0.03423 -0.069399 -0.025173 2.77E-4 -0.043632 -0.052281 -0.008567 -0.068797 -0.047017 0.180907 -0.030624 0.023501 -0.126863 0.040933 0.088332 0.042569 0.039757 0.106103 -0.072337 -0.057186 0.056255 0.116144 -0.314136 -0.02592 -0.119695 -0.145485 -0.083364 0.004166 0.218451 -0.225676 -0.025187 -0.01313 -0.138086 0.100635 -0.260603 0.02843 -0.012212 -0.19492 0.102063 0.306931 -0.213443 -0.103756 -0.179312 0.101411 0.04669 -0.066816 -0.040759 -0.077072 0.114757 -0.054595 -0.141222 0.194726 -0.040452 0.07967 0.135537 -0.036775 -0.088269 -0.161113 -0.011552 0.023284 0.161818 -0.022791 0.110696 0.096269 -0.029841 0.135536 -0.069475 -0.004373 0.14445 0.053431 0.052025 -0.010495 -0.060595 0.1258 -0.008434 -0.064465 0.007074 0.097199 -0.061894 -0.060459 -0.160052 0.11292 -0.007666 -0.055343 -0.043085 -0.021916 -0.012899 0.140652 -0.165976 0.266464 0.070162 0.058975 0.108362 0.105935 0.030735 0.08471 -0.175462 0.147956 -0.084975 0.037015 0.045702 0.08649 -0.076068 0.014848 -0.126615 -0.173803 -0.048371 0.06937 -0.249714 0.142154 0.172746 0.299557 -0.06913 0.016554 -0.183308 -0.196642 0.040897 0.096446 -0.053298 -0.086726 0.011136 -0.115342 0.160345 0.038361 0.092656 -0.1805 -0.137825 -0.204111 0.196419 0.188469 0.095423 0.160673 -0.094553 0.068339 -0.171718 0.123087 -0.034236 0.111318 -0.066076 -0.102373 -0.093251 -0.123682 0.183388 0.136103 -0.096124 -0.118456 -0.079421 0.179984 0.08267 0.135285 -0.031446 -0.042699 -0.017347 0.025055 0.090494 -0.088619 0.079823 0.033564 -0.121155 -0.146857 -0.044858 -0.105061 -0.089359 0.022992 0.082587 0.005941 -0.057181 -0.06367 -0.016849 0.231547 -0.095659 -0.031338 -0.030074 0.022141 0.009626 -0.030856 0.095835 0.017273 0.054915 -0.119009 -0.119434 0.282011 -0.025764 0.115747 -0.204219 -0.136179 0.092712 0.051512 0.065705 -0.039277 0.09994 0.050219 -0.010796 0.067493 0.046906 0.053148 -0.022625 0.052437 -0.209589 -0.122835 0.134671 -0.03531 0.135801 -0.128955 -0.156655 0.033538 0.097337 0.119715 0.04316 -0.044658 0.015599 -0.040334 -0.020753 -0.076491 0.102622 -0.015851 -0.138652 -0.078265 -0.167626 0.103715 0.022939 0.023122 0.104565 0.070452 0.0161 -0.018543 0.022058 0.093996 0.01657 -0.053992 -0.29833 0.130839 -0.063001 -0.029658 -0.131109 0.052259 0.057303 0.178463 -0.10192 0.010319 -0.115018 0.219036
video 0.241999 0.183229 -0.287302 -0.187944 -0.099425 -0.009852 -0.13475 -0.045409 -0.207498 0.056362 0.126008 -0.320474 0.164779 -0.411906 -0.003863 0.011224 0.062101 0.201342 0.107919 -0.082205 0.087381 0.038047 -0.177812 0.225359 0.030557 -0.044475 -0.568785 -0.062905 0.131323 0.157471 0.195777 0.284846 -0.126577 -0.171394 -0.042324 -0.076599 -0.334928 -0.10381 -0.008243 0.161272 0.149542 0.232424 -0.122472 0.107613 0.08043 -0.030393 -0.00693 0.327711 -0.094316 -0.060531 0.144556 0.091781 0.086827 -0.146654 -0.122543 -0.133528 0.096684 0.125766 -0.251292 -0.055211 0.036001 0.028119 -0.190342 -0.0698 0.040065 0.044183 0.05516 0.069419 0.026288 -0.206287 0.059485 -0.050444 -0.142556 -0.106429 -0.223119 -0.137935 -0.22134 -0.071591 0.179569 0.071038 -0.322502 -0.421498 -0.078522 -0.072653 0.031249 -0.29773 -0.049748 -0.087639 -0.096385 -0.008359 -0.183225 -0.114741 -0.145361 0.015757 0.229837 -0.092228 -0.002246 0.189698 -0.038004 -0.1171 0.166171 0.098169 0.012667 0.162273 -0.011435 -0.154935 -0.082342 0.052075 -0.004021 0.157397 -0.293711 -0.013814 0.125053 -0.064146 -0.216321 -0.171029 0.35544 0.007927 -0.25962 0.025247 -0.137342 0.247936 -0.044574 0.105876 -0.123547 0.018801 0.215491 -0.180498 0.0452 -0.26495 0.27838 -0.136977 -0.117867 -0.067341 -0.069822 -0.012348 -0.109542 0.017042 -0.110864 -0.201417 -0.257582 -0.189346 -0.202425 -0.150034 0.109728 0.366486 -0.074664 0.408372 0.089324 -0.013491 -0.052559 0.169935 0.074696 -0.218604 -0.183458 0.173706 -0.016915 -0.315072 -0.191812 -0.176279 -0.244101 0.262094 -0.132481 -0.14492 -0.225265 0.429095 -0.080061 -0.191518 0.224231 -0.155163 -0.019782 -0.02147 -0.05745 -0.087848 0.098232 -0.046369 0.059287 0.313699 0.028842 0.071255 0.101684 -0.128046 0.238922 -0.104554 -0.083097 0.343899 0.271885 -0.010421 0.083778 0.256926 0.27382 0.040466 -0.298252 0.264846 0.03356 -0.029141 0.049683 -0.165102 -0.127775 -0.116469 -0.161538 0.07772 -0.188312 -0.021165 -0.083252 0.228181 -0.01327 0.162695 0.124654 0.077093 -0.175011 0.250953 0.055975 -0.079117 -0.126076 0.151641 -0.176273 0.018359 0.278161 -0.418303 -0.051316 0.32906 0.097084 -0.155866 0.069115 -0.131157 -0.275271 0.408919 -0.005719 -0.149517 -0.086873 0.228916 -0.052491 0.01249 0.184435 0.106695 -0.543815 -0.174803 -0.20686 0.248265 0.065955 -0.035497 -0.23541 -0.156146 0.346755 -0.212477 -0.09517 0.224837 -0.070707 -0.230177 -0.086326 -0.105146 0.200415 0.05597 0.114152 -7.89E-4 -0.153391 -0.150592 0.08699 -0.061935 0.083463 -0.057973 -0.125947 0.018853 -0.096459 0.107207 0.020521 -0.263505 -0.124621 -0.039424 0.1349 0.061431 0.098236 0.27579 -0.324268 -0.251936 -0.049039 0.159409 0.266876 -0.026899 -0.145797 -0.012375 0.095577 -0.20409 0.020298 -0.148685 0.043659 -0.076803 -0.047071 0.141532 0.133198 -0.051275 -0.237378 0.262151 -0.217379 -0.090184 -0.144684 0.316443 0.011346 0.237911
defeating 0.035342 -0.041364 0.026041 -0.163098 0.055367 -0.111813 -0.183557 -0.119774 -0.075532 -0.105257 0.148527 -0.069256 0.083313 0.367156 0.368547 0.273731 0.082784 0.288346 0.059996 -0.20459 0.047561 -0.234965 0.297752 -0.157952 -0.286851 0.287243 0.07076 0.08708 -0.139264 -0.020534 -0.182926 -0.319883 -0.391857 -0.120285 -0.089639 0.318346 -0.022021 0.112429 0.036993 -0.296852 -0.092126 0.058488 0.07144 -0.104056 -0.200102 0.018205 0.012245 0.303615 0.278155 0.354735 -0.063525 -0.080298 0.393611 0.051216 0.011719 0.155331 0.29939 -0.034634 -0.159964 -0.159963 0.052469 0.229585 0.432011 -0.001151 -0.150367 0.063389 -0.037211 0.0353 0.417994 0.302974 -0.006568 0.283109 0.275963 0.232302 0.029435 0.079198 -0.023526 -4.23E-4 -0.060037 0.281611 -0.138478 0.152176 0.202952 -0.138913 0.093897 -0.34032 0.154648 -0.085799 -0.091911 -0.034947 -0.052787 -0.208559 -0.580719 -0.435843 -0.058 0.297009 -0.02864 0.180864 0.027754 0.072003 0.164163 0.166796 0.166596 0.092828 0.211013 0.10032 0.221391 -0.300252 -0.227194 -0.137033 -0.064137 0.220696 0.282838 0.213662 -0.484397 -0.182878 -0.405558 0.216406 -0.320208 0.064901 0.02562 0.166376 0.292801 0.105955 -0.145626 -0.303421 -0.026602 -0.115291 0.425969 -0.065255 -0.056452 0.637367 0.121827 -0.063421 0.023694 0.039928 0.137736 -0.08787 0.339172 -0.306803 -0.195553 -0.036062 -0.551254 0.137534 0.078221 0.05959 0.082877 0.220654 0.092896 -0.026018 0.179453 0.155443 0.216569 0.091472 0.192032 0.036339 -0.177983 0.114835 -0.068556 0.188075 -0.187814 -0.060127 -0.39099 -0.04131 -0.30321 0.332548 -0.287271 0.242688 0.040891 7.55E-4 0.061507 0.071249 0.163633 -0.414634 0.145027 0.369253 -0.108421 0.156294 -0.040307 -0.532948 0.150372 0.074877 -0.093983 -0.10153 -0.351496 0.034056 -0.215312 0.213121 -0.080664 -0.262552 0.245972 0.116489 -0.177981 0.446628 0.39594 -0.133405 -0.037497 0.102565 0.286537 -0.070336 0.123533 0.134284 -0.214113 0.096034 -0.008565 -0.114262 -0.030747 0.113208 0.197672 0.055897 0.075244 0.127456 0.024667 -0.295901 0.123112 0.077205 0.166122 0.118063 -0.223298 -0.042569 0.251827 0.087843 0.123097 0.219431 -0.165629 -0.324952 -0.195353 0.012416 0.002686 -0.015196 -0.154564 0.19191 0.122535 0.178121 0.035457 -0.093753 0.081256 -0.320127 -0.118316 0.058078 0.422378 0.299471 -0.22765 0.127602 0.266617 -0.107409 0.240181 -0.053273 -0.098257 -0.16445 0.288277 -0.404996 -0.132445 0.16769 0.520982 0.373236 -0.254674 0.08287 0.014974 -0.351808 0.06269 -0.248434 0.090724 -0.188505 0.387124 -0.039869 -0.215016 -0.055516 0.288564 0.110458 -0.36042 -0.037537 0.039438 -0.062911 0.032547 -0.349477 -0.282845 0.337837 -0.145079 -0.053125 -0.053606 0.187437 -0.20654 0.187379 -0.149573 -0.082578 -0.237473 -0.167028 -0.217789 0.019925 -0.144513 -0.146421 0.039224 0.005176 -0.173846 0.122266 0.135162 0.252946 -0.399919 0.125849
death 0.298083 0.18007 -0.429228 -0.234149 0.143084 0.021979 0.037406 -0.285798 0.006769 0.015924 -0.054494 -0.162831 -0.13584 0.119212 0.047484 0.342705 -0.063336 -0.14367 -0.14316 -0.471337 -0.233213 0.292517 0.004065 0.156596 -0.023474 -0.070612 0.055046 -0.096651 0.215916 -0.468111 -0.087053 -0.071345 -0.404102 0.015655 0.070838 0.072635 -0.073045 0.089674 0.135637 -0.111493 0.087741 0.073626 0.208776 -0.122949 0.016129 0.099013 0.296418 -0.192115 -0.163481 -0.215672 0.110951 -0.075 -0.009926 0.206558 0.027891 -0.196607 0.027847 0.014808 -0.138637 -0.031479 -0.160444 0.063706 -0.152837 0.079125 -0.259881 -0.060148 -0.111618 -0.439063 0.01974 -0.082578 -0.021075 0.243556 -0.195241 0.010267 0.307099 -0.038666 -0.222358 -0.137748 0.207679 0.05054 -0.227693 -0.175661 0.047086 -0.091893 -0.196031 0.116627 0.042834 -0.499774 0.076991 -0.044905 0.11296 0.105363 -0.288082 -0.258433 0.053151 -0.024592 0.367705 -0.071742 -0.298105 -0.641226 0.061852 0.064362 -0.134549 0.081661 0.247547 -0.178389 -0.118057 0.103648 0.038341 0.215296 -0.390619 -0.123417 0.296967 -0.205241 0.227368 -0.070511 0.09445 -0.033292 0.177117 0.27618 0.13491 0.108482 0.229846 0.224529 0.203017 0.117423 -0.054104 -0.18571 0.276099 -0.060223 -0.068455 0.051583 0.266834 -0.117748 0.009725 -0.574364 -9.44E-4 -0.089877 -0.111676 0.137536 -0.05251 -0.223556 -0.07915 0.097469 -0.161082 0.065453 0.081631 0.046154 0.002105 -0.071587 0.208236 -0.01632 0.162884 0.016575 0.167352 0.188393 0.232803 -0.163412 -0.037442 0.058198 -0.12298 -0.138649 -0.257714 -0.043168 -0.060834 0.058627 -0.419845 0.072755 -0.151324 0.04709 -0.078576 0.168147 -0.087029 -0.020067 -0.104643 0.096725 -0.128957 -0.022672 0.178251 -0.328575 0.430511 0.139724 0.140697 -0.278097 -0.178692 0.284675 -0.001306 0.014312 0.094168 0.155134 0.201261 -0.191465 -0.216292 0.264425 0.078292 0.263626 0.061892 -0.331797 0.002844 0.19056 0.25523 0.101933 -0.061932 0.028219 0.110397 -0.196785 -0.107698 -0.285711 -0.293962 0.04689 -0.202949 -0.049593 0.082315 -0.008553 0.035076 0.090902 0.034379 -0.070554 0.037838 0.067803 0.141925 -0.200268 -0.079802 0.042218 -0.14174 0.089574 0.146133 0.272867 -0.223042 -0.288713 -0.236371 0.300266 -0.06993 0.007544 0.014747 0.204641 0.249602 -0.119801 -0.101273 0.165308 0.042191 -0.043339 -0.039303 -0.005586 0.005431 0.056812 -0.069001 -0.232235 -0.013356 -0.214886 -0.271269 -0.385247 -0.122642 0.232812 0.157982 -0.256831 -0.017845 -0.254565 0.243721 -0.314554 0.357845 -0.101085 -0.077354 -0.240377 -0.006554 0.082186 -0.234852 -0.203609 -0.056173 -0.079597 -0.091466 -0.09476 0.063645 0.416388 0.056361 -0.19036 -0.100587 -0.155528 -0.098714 -0.236902 -0.214535 0.074607 0.196362 -0.275109 0.423083 -0.023653 -0.076312 -0.006891 -0.016846 0.033524 0.130369 0.172475 -0.268035 0.136221 -0.128634 0.175937 -0.087732 0.345921 -0.064974 0.101887
image 0.303772 0.128136 0.102727 -0.283599 -0.288305 -0.026034 -0.065797 -0.1875 0.225364 0.137376 -0.254261 0.119448 -0.074772 -0.143617 -0.207832 0.015147 0.105338 0.136127 -0.00845 -0.092319 -0.088707 0.136754 -0.200428 0.151924 0.238626 -0.12047 -0.211549 0.018482 0.16948 0.034749 0.039052 0.262326 -0.0925 0.115285 0.156969 0.219989 -0.031153 0.05071 0.019847 -0.310715 0.125389 -0.116078 0.025002 0.161613 0.070518 -0.218422 -0.110954 0.226986 -0.005313 0.146857 0.231291 0.2433 -0.06303 -0.080252 0.163052 0.054055 -0.092128 -0.041422 0.004478 -0.32236 0.054079 -0.052776 -0.14026 0.069783 0.202689 -0.076123 -0.143416 0.449676 0.004031 -0.090407 -0.123253 0.059198 -0.364132 -0.157374 0.029325 -0.161433 -0.168911 -0.121492 0.217101 -0.094957 -0.22077 -0.310912 -0.056262 -0.209029 0.104176 -0.083063 0.140403 0.048388 0.208457 0.002322 -0.062256 -0.135225 -0.135246 -0.19825 0.184089 -0.023279 0.097677 -0.046455 -0.159563 -0.164432 -0.045594 0.238104 -0.001875 0.035285 0.134897 -0.008983 0.229515 0.227907 -0.107262 0.208277 -0.200463 -0.180475 0.250418 -0.063001 -0.141139 0.089624 0.064773 0.048749 -0.123821 0.011724 0.059413 0.096262 0.029093 0.163558 -0.119367 0.045959 0.076161 -0.156131 0.278163 0.003497 -0.100345 -0.131751 0.100744 -0.059126 -0.079188 0.338952 0.158239 -0.026062 0.044301 0.138184 -0.144171 -0.026509 -0.229361 -0.072059 -0.163968 -0.028435 -0.143572 0.315574 -0.124888 0.0177 0.052515 0.098631 -0.044859 -0.222749 0.015759 0.176944 0.063967 0.137084 0.179825 -0.048696 0.049505 0.412228 -0.059197 -0.490217 -0.41905 0.188652 -0.010892 0.151964 -0.036193 -0.14654 -0.091905 -0.162852 -0.16306 -0.272482 -0.061715 0.097801 0.070623 0.019196 0.013586 -0.111009 0.189318 -0.108459 -0.097352 0.086443 -0.01542 0.074944 0.169481 -0.041618 0.146828 -0.044935 0.075966 -0.092684 -0.326038 0.167556 0.035078 0.171806 -0.204991 -0.225808 -0.021103 -0.209263 0.038665 0.133817 -0.186036 -0.020795 -0.112865 0.278457 0.175014 0.09086 0.055763 -0.046119 0.012238 0.147825 -0.00153 -0.03777 0.100868 0.065201 -0.072745 0.063474 0.117366 -0.247559 0.131269 0.062932 0.119814 0.041538 0.028117 -0.157935 -0.034093 0.38414 0.066566 0.023617 -0.008903 0.167525 0.122658 0.091265 0.216509 -0.030714 -0.272496 -0.301046 0.066058 0.253316 0.04743 -0.037972 -0.026032 -0.015375 -0.129647 0.044675 0.111866 -0.065774 8.98E-4 -0.042384 -1.15E-4 -0.055471 -0.112485 -0.0726 -0.065217 -0.295699 -0.223529 -0.153523 0.169137 -0.025248 0.048303 -0.076236 -0.211543 0.063628 0.090056 0.159142 -0.181793 -0.256081 0.016934 0.083443 0.129798 -0.218339 -0.005758 0.376989 0.012744 -0.089597 -0.215218 0.066537 -0.026606 0.102764 -0.091311 0.243322 -0.28581 -0.155594 0.042093 -0.060538 0.061846 -0.060337 -0.217464 0.143114 -0.09607 0.262754 0.040433 0.048252 -0.223176 0.091057 -0.042344 0.305225 -0.15368 0.254814
theater 0.136136 -0.068967 0.007028 -0.018896 -0.032734 -0.027587 -0.113631 -0.006255 0.132381 0.121269 -0.003276 -0.058396 -0.077431 0.332022 -0.02278 0.05874 -0.014282 -0.119691 -0.224561 0.020162 -0.265716 0.145145 0.08977 0.13451 -0.102333 0.011266 0.015945 -0.123686 -0.191635 0.304366 -0.39861 0.468851 -0.232135 -0.121362 -0.109214 0.103763 -0.2134 0.191102 -0.145719 -0.138888 -0.101877 0.179246 -0.142981 -0.12591 0.124573 -0.199872 -0.191057 0.20065 0.104188 0.010275 0.059943 -0.103916 -0.09837 -0.149104 0.154229 -0.118492 -0.16253 -0.098803 0.086794 -0.0307 -0.029851 -0.05833 0.059962 -0.169306 -0.107156 0.155544 0.029182 0.160596 0.190058 -0.074444 0.054863 0.021835 0.099804 0.021176 -0.028704 -0.110218 0.132624 -0.081916 0.053621 0.321136 -0.066718 -0.033276 -0.381737 -0.002083 0.012253 -0.039669 -0.074922 0.017033 -0.196704 0.016718 -0.0434 -0.026954 -0.166074 0.123893 -0.011355 -0.276515 0.218641 0.338508 0.018208 -0.173975 0.100827 0.044826 0.145077 -0.111349 0.011378 0.265327 0.086829 -0.155961 0.026732 0.083276 -0.012723 -0.30848 0.061217 -0.032299 -0.164516 -0.001227 0.112848 0.118078 0.132573 -0.005131 0.064269 -0.238228 -0.043343 0.296126 -0.17447 -6.14E-4 0.281555 -0.219669 0.061723 -0.157567 -0.100286 -0.082017 0.324041 -0.096393 0.178562 0.059091 -0.02291 0.030622 -0.28444 0.083495 -0.096911 -0.086759 -0.172118 -0.039081 0.139339 0.219582 0.016108 0.361594 0.059754 -0.178762 0.123688 0.250061 0.117962 0.057271 -0.104797 0.135745 0.215824 -0.02998 -0.069643 -0.044438 0.023168 0.179143 -0.030929 -0.018101 -0.242572 0.148427 -0.018983 1.59E-4 0.382849 0.022228 -0.042504 0.030012 -0.196326 -0.284312 0.157078 -0.14921 0.08239 0.341098 0.113223 -0.087244 0.045916 -0.103654 0.043949 -0.025614 0.007447 -0.006668 0.22343 0.125494 0.051329 0.103197 -0.022349 -0.382703 -0.232547 0.116582 -0.22703 -0.186867 0.028881 -0.183435 -0.349906 -0.01303 0.125752 0.271261 -0.249356 -0.02124 -0.010739 0.369147 -0.429395 0.130776 -0.289017 0.298318 -0.207353 -0.084987 0.159409 -0.038375 -0.06699 0.078358 -0.265013 0.160838 -0.104572 -0.312746 0.09326 0.129333 0.087565 0.21926 -0.132648 0.126128 -0.232263 0.051766 -0.103946 0.124407 -0.013058 -0.054799 -0.032039 -0.074848 0.11056 0.066922 -0.068505 -0.088997 -0.260517 0.275263 -0.136368 -0.162184 -0.310828 0.020097 0.225684 -0.206513 -0.27038 -0.011775 -0.105005 0.088063 -0.072678 -0.11175 0.009794 0.183229 0.314607 0.085094 -0.536582 -0.126679 0.349297 0.02714 0.116966 -0.269547 -0.106894 0.036739 0.264454 0.199891 0.072014 -0.023431 0.088388 -0.109758 0.110512 0.129278 -0.050289 0.068908 -0.01695 0.142839 0.049694 -0.12714 0.164099 0.11134 -0.016512 0.132552 0.123891 0.067472 -0.012922 -0.01721 0.092102 -0.029575 -0.057291 -0.077984 -0.141254 0.263086 -0.205742 0.121121 0.019218 0.027098 -0.069871 0.064643 -0.060165 0.026484
number 0.512114 0.16155 -0.050209 -0.132225 0.100337 0.137991 -0.005647 -0.199872 0.144876 -0.168701 -0.078545 -0.233753 0.138977 -0.053613 0.004774 0.113185 0.144431 -0.05995 0.226889 9.93E-4 0.124995 -0.052121 0.256532 -0.068511 -0.016719 0.269143 -0.213945 -0.024639 0.082294 0.154046 -0.090665 0.342631 0.097063 0.054029 0.01493 0.3029 0.109859 0.055182 0.157197 -0.068395 0.255487 -0.110916 0.103102 0.095618 -0.038276 -0.10628 0.113765 0.031469 -0.05373 0.130263 -0.118957 -0.07365 -0.129604 0.296217 0.101035 0.140142 -0.010183 -0.107235 -0.011245 -0.059469 -0.320832 0.088198 -0.18584 0.086608 -9.38E-4 0.368191 -0.054561 -0.017931 0.400078 -0.194796 0.007808 0.314567 -0.023525 -0.17108 -0.004239 -0.001533 -0.178765 0.129285 0.001618 0.039535 -0.093768 -0.189193 -0.039497 0.161227 -0.108369 -0.277352 0.237747 -0.107879 0.212285 -0.22278 -0.135452 0.091709 -0.236935 -0.314273 0.169623 -0.161906 -0.010418 0.146196 0.026652 -0.334543 -0.007475 0.067177 -0.048238 0.207804 -0.065505 0.010839 -0.057156 0.056201 0.168564 0.260963 0.074851 -0.310904 0.279689 0.211608 -0.178163 -0.20669 -0.168197 -0.22535 0.130473 -0.331699 -0.061259 -0.211913 0.066231 -0.004773 -0.053626 -0.122352 0.21138 -0.305716 -0.163402 0.021406 0.129184 -0.315102 0.35094 0.181291 -0.024152 0.136784 -0.035164 -0.004048 -0.017425 -0.127511 -0.033422 -0.124199 -0.07596 0.213868 0.276984 0.032047 -0.408289 0.067155 0.224281 -0.130201 0.030139 0.181725 0.003166 -0.032242 0.008468 0.166549 0.03239 -0.10287 -0.039326 -0.066078 -0.324172 0.062748 -0.073247 -0.288559 -0.248441 0.084728 -0.094483 -0.176904 0.217671 0.054824 0.026575 0.025043 -0.034891 -0.226954 -0.046562 -0.080885 -0.127404 -0.012742 0.322552 -0.20747 -0.033371 0.314555 -0.087262 0.072156 -0.473894 0.132338 0.140919 0.121373 -0.014198 0.176631 0.05667 -0.074254 -0.047636 0.013065 0.130607 0.156628 -0.296825 -0.200502 -0.160392 -0.193394 0.105762 0.001138 0.132033 0.104724 -0.152258 -0.034773 0.042471 -0.091366 -0.073272 -0.081093 0.011091 -0.11153 0.467572 -0.078442 0.08583 0.173588 0.071863 0.154084 0.075674 0.070752 0.068092 0.04631 0.214399 -0.098075 0.006344 0.139746 -0.063429 0.307322 -0.106283 0.080438 0.329592 0.494424 0.012462 -0.122784 0.16824 -0.073959 -0.03039 -0.151765 -0.162631 -0.140535 0.081089 -0.347339 -0.162636 0.015013 0.079986 -0.001523 0.11457 -0.004732 0.02903 0.089794 -0.151872 -0.176652 -0.086673 0.027673 -0.042702 0.193554 0.126248 -0.111918 -0.008565 -0.252752 0.312898 -0.197804 -0.116583 -0.168083 0.005216 0.111353 0.009301 0.081376 -0.021451 0.046746 -0.167691 0.160945 0.074318 0.105356 -0.228921 -0.081534 0.110396 0.261969 0.19527 -0.410308 0.058214 0.204914 0.004998 -0.087645 -0.30898 -0.057249 0.041733 -0.008011 0.102779 -0.053686 0.00373 0.080369 -0.026777 -0.01228 -0.095262 0.209628 -0.030868 0.061609 -0.089 0.277171
astronomer 0.006808 -0.390869 0.025411 -0.347717 -0.138593 -0.096051 0.402564 -0.262451 0.059763 -0.020759 -0.153176 -0.370079 -0.339597 -0.063811 -0.133555 -0.211209 -0.002894 0.378989 -0.009053 -0.250123 -0.357122 0.249894 0.339052 -0.04945 0.299049 0.275698 0.061659 -0.049505 -0.173851 -0.094083 -0.129931 0.37108 0.024378 -0.153069 -0.41951 0.271723 -0.055838 0.207723 0.473485 -0.442025 -0.089363 -0.321739 0.223894 -0.290635 0.231887 -0.067269 0.110742 0.302907 0.220149 0.117858 0.270545 -0.190967 -0.389729 -0.028519 0.026615 -0.06835 -0.04124 -0.247209 -0.187252 -0.070417 -0.064828 0.15264 0.031539 0.036186 -0.226249 -0.090969 -0.156857 0.01397 0.012103 0.039019 0.077021 0.006495 -0.064705 0.332373 0.188272 -0.171577 -0.123996 0.184742 0.330338 -0.114525 -0.15411 0.028156 0.024031 -0.256644 -0.192485 0.171924 0.346343 -0.005753 0.010259 -0.092341 0.073969 -0.348688 0.071448 -0.327864 -0.219599 -0.155629 0.094121 0.27009 -0.953415 -0.376624 0.152205 0.027681 0.395018 -0.004945 0.053701 0.088459 -0.440872 0.140852 0.051765 0.147165 0.021472 0.034343 0.015911 0.127032 -0.195856 -0.002972 -0.133805 0.279247 0.130655 0.152444 0.087222 -0.09662 -0.069143 -0.182071 -0.061129 0.073466 0.123478 -0.031964 -0.038247 0.058132 0.157851 -0.047771 0.170152 -0.502353 -0.032343 0.023615 0.050266 -0.39414 0.126314 0.014117 -0.150725 -0.26321 -0.020088 -0.023374 0.014025 0.07885 -0.142101 0.334866 0.075661 0.201432 0.205225 0.222104 0.304854 0.002038 -0.004964 0.085362 0.105764 -0.443587 0.11117 -0.349913 0.100795 0.013017 -0.002516 -0.04256 -0.243792 0.182579 0.090557 -0.032869 0.051564 -0.141806 -0.006907 -0.164799 0.074328 -0.231849 -0.03604 0.142067 0.468059 0.17145 -0.222098 0.105471 -0.13649 -0.170284 -0.097412 -0.22694 0.177093 0.187849 0.469404 -0.152439 -0.062266 -0.122147 -0.084119 -0.137933 0.258817 0.070421 -0.262649 -0.186692 -0.181774 0.082812 0.162229 -0.173454 0.297528 0.235279 -0.420441 0.084834 0.129969 0.048156 -0.216117 0.044183 -0.17244 -0.195776 0.101148 -0.155509 0.018317 -0.001661 0.144288 0.232288 0.110758 -0.082752 0.130383 -0.051778 -0.013132 -0.139332 -0.15696 0.014878 -0.277182 -0.124438 -0.171768 0.421104 -0.305665 -0.043839 -0.091567 0.133213 0.116744 -0.030893 -0.018382 -0.189591 0.042044 -0.223622 0.152507 0.314248 -0.113713 0.057561 0.150325 -0.05818 0.128454 0.0477 0.327793 -0.002024 0.26734 0.011991 -0.148458 -0.293505 -0.272999 0.322329 -0.164271 0.271329 -0.417216 0.169304 0.351927 -0.172521 0.423057 -0.189694 -0.042214 -0.076945 0.268526 0.1606 -0.05673 -0.161705 0.392085 -0.086974 0.144437 -0.261525 -0.256447 0.235215 -0.170288 -0.117116 -0.394546 -0.457622 -0.170064 0.005353 -0.300214 -0.001096 -0.230157 -0.096861 0.103775 -0.001727 0.101015 -0.256491 -0.222878 -0.430106 -0.082579 -0.098028 -0.119863 0.133044 -0.514932 -0.150031 -0.065536 -0.135147 -0.194867 0.246276
project 0.173995 -0.066561 0.035229 -0.055018 -0.185792 0.240822 -0.200323 -0.056248 0.048796 0.229018 0.007001 -0.200506 0.017912 -0.118426 0.006835 0.144229 -0.24331 0.048721 -0.042443 0.061439 -0.014609 0.065936 0.117812 0.163091 -0.114534 -0.205975 -0.255985 -0.096759 0.039515 0.37235 -0.170519 0.179378 -0.208891 0.072744 -0.046296 0.110237 0.160715 0.091604 0.035223 0.09629 -0.012837 0.050262 -0.014026 -0.140379 0.144916 -0.250303 -0.077166 0.006124 0.018167 -0.080548 -0.347804 0.088232 -0.091594 0.004764 0.164254 0.08059 -0.168104 0.166284 0.128108 -0.123135 -0.022589 -0.301266 0.121526 -0.166466 -0.104386 -0.021934 -0.055749 0.107706 0.054517 0.090347 -0.249963 0.014239 -0.011539 0.191414 0.165557 0.019077 0.005378 0.008257 0.010719 -0.142968 -0.109064 -0.246022 0.042012 -0.112686 0.150523 0.009366 0.175993 0.108526 0.088835 -0.045556 0.04697 0.013791 -0.190247 -0.148427 0.077907 -0.196275 0.37747 -0.129198 -0.341578 -0.158871 -0.120579 0.030172 0.157793 -0.064893 -0.072245 -0.012173 0.057111 0.349523 0.048985 -0.068558 0.006121 -0.19967 0.120514 -0.181179 -0.228773 0.091355 -0.211222 0.143621 -0.104868 -0.136279 0.008657 -0.06203 0.118606 -0.028351 -0.163555 -0.059753 0.079434 0.107655 -0.24372 0.009053 0.129142 0.019348 -0.066969 -0.163605 -0.138145 0.029362 0.090636 0.027852 -0.399076 -0.077028 -0.082238 -0.289164 -0.010763 0.169301 -0.085508 -0.044835 -0.028704 0.345575 0.005869 -0.04308 0.198907 0.031602 0.049517 0.093137 -0.010879 -0.024371 0.186168 -0.001314 0.304012 -0.173484 -0.031043 0.142646 0.354314 -0.010414 -0.09813 -0.091108 -0.135521 -0.178368 -0.069906 -0.108386 -0.01966 0.165643 -0.333209 -0.185145 0.217084 0.018289 -0.00776 0.078976 0.141379 -0.229983 0.123668 0.013058 0.097972 -9.3E-4 0.093927 -2.52E-4 -0.130474 0.057686 0.171326 0.011581 -0.175363 0.025273 0.078605 0.313857 0.108556 -0.010622 0.148046 -0.194881 0.260547 -0.287194 0.25395 0.120349 -0.079292 0.181775 -0.153484 0.053374 -0.391415 0.03752 -0.347545 -0.10015 0.026243 -0.018431 0.310223 -0.343374 0.221696 0.144551 -0.034555 0.129408 0.187147 -0.113869 0.029078 0.142807 -0.031843 0.025276 -0.311562 -0.114972 0.048656 0.038069 -0.145153 0.014342 0.004964 0.122665 0.218645 0.069527 -0.132712 0.196807 0.045578 -0.358797 -0.149136 0.078559 -0.035387 -0.036818 -0.187769 -0.025101 -0.12767 0.147544 -0.072333 0.135788 0.113116 0.085691 0.083068 -0.120684 -0.160929 0.193666 -0.101702 0.228108 -0.349213 -0.009372 -0.09188 -0.040401 0.080702 -0.251569 -0.27014 -0.032713 0.21985 -0.056341 -0.008943 -0.004718 -0.021748 -0.060549 0.152049 0.040595 -0.193024 0.095803 -0.112365 0.096513 0.120692 0.092588 -0.03622 0.007743 -0.173009 0.089591 -0.066625 -0.015578 0.32988 -0.061127 -0.120954 -0.032402 -0.121227 -0.175877 -0.12682 0.041766 -0.118693 0.180879 -0.298743 -0.019382 -0.085454 0.052764 -0.070984 0.038834
dawn 0.024831 0.243244 0.092897 -0.086461 0.02883 0.167515 0.299665 -0.192044 0.167086 -0.155092 0.005696 0.043746 -0.039275 0.050778 -0.022163 0.02982 -0.323842 0.263761 -0.066853 -0.428762 -0.268339 0.239718 -0.017828 0.047249 -0.156788 0.154383 0.306371 -0.16325 -0.084296 -0.065159 -0.060681 -0.023666 0.249281 -0.196114 -0.057958 0.332978 -0.098708 0.279366 0.035132 -0.150684 0.00656 -0.068337 0.039164 -0.186465 -0.079298 -0.334477 -5.05E-4 -0.024775 0.027849 0.188397 0.053608 -0.391783 -0.046473 -0.054018 0.267369 -0.006454 -0.029477 -0.249968 0.023027 -0.046364 -0.072708 -0.036216 -0.278363 0.127288 -0.018737 0.335437 -0.287928 -0.00728 0.229108 -0.148184 0.010659 0.060718 -0.323389 -0.08601 -0.156074 -0.082282 0.010203 -0.255675 0.047361 -0.238893 -0.16245 -0.114849 0.338193 0.025005 -0.039473 0.044452 0.098218 -0.199083 -0.161474 -0.063725 -0.096497 0.284184 -0.300739 -0.201963 0.175502 -0.023891 0.268941 0.017759 -0.009998 -0.009433 -0.173864 0.214808 -0.175655 -0.086849 -0.116894 0.20677 0.058776 -0.086382 0.38072 0.309883 -0.117578 0.253475 -0.095847 -0.192946 0.015169 -0.311174 0.036407 0.024272 0.247418 -0.001957 -0.012015 -0.083301 -0.038267 0.406928 0.119643 -0.128011 0.127197 -0.118007 0.084367 0.003558 0.003026 0.0708 -0.078855 -0.513089 -0.312961 0.095205 -0.255472 -0.043506 0.211109 0.076934 0.214741 -0.05755 0.053201 -0.074425 0.24584 0.274228 -0.093518 -0.003171 0.160487 -0.142739 0.352093 0.178139 0.442995 -0.476357 0.125541 0.117647 0.086523 0.090949 -0.199671 -9.66E-4 0.072516 -0.001651 0.134847 -0.219573 -0.126768 0.153061 -0.160164 0.561392 0.097318 0.071049 0.161079 0.080592 0.013904 -0.287285 0.09459 0.141266 -0.181071 0.122505 0.027088 -0.221987 0.191743 -0.170171 0.205116 -0.290317 0.027332 -0.075693 -0.006386 0.284396 0.065911 0.37007 0.209126 -0.138688 -0.16845 0.249766 0.110529 0.027903 0.459063 -0.065343 0.238037 -0.142664 0.12235 0.218932 0.149482 -0.169805 0.055641 0.020482 0.144686 -0.159711 0.127951 0.221628 0.052402 -0.108743 0.11806 -0.182701 -0.033126 -3.91E-4 -0.171752 -0.258939 -0.25456 -0.198904 -0.038745 -0.117737 -0.081643 -0.236986 -0.272551 0.02492 -0.234335 0.037445 -0.231077 -0.00368 -0.051851 0.108115 0.126804 -0.340568 0.265364 0.01664 -0.026042 -0.206767 0.064653 0.21513 -0.059799 0.447601 -0.286305 -0.082981 0.225818 -0.089554 0.076132 -0.123338 0.076462 -0.140681 -0.152561 -0.236705 0.094687 -0.029583 -0.085742 0.079532 -0.217397 -0.021167 -0.011194 0.060956 0.181439 -0.204238 -0.039296 0.024623 0.076519 -0.012862 -0.141172 0.251129 -0.008032 0.268479 -0.097705 -0.023122 0.06749 -0.025878 -0.107495 0.085157 -0.324907 -0.032443 0.040165 -0.078627 0.062109 0.172133 0.263346 0.307164 0.371784 -0.338197 -0.330663 0.082432 -0.445192 -0.407945 0.121359 -0.002388 -0.320062 0.123093 -0.233518 0.129548 -0.237133 0.02317 -0.03343 -0.112848
ear 0.144374 -0.03861 -0.106754 0.005942 0.168685 -0.019379 0.045527 0.042018 0.031006 -0.118435 0.0431 0.060978 -0.078913 0.217681 0.196245 0.076275 -0.246233 -0.312846 0.204158 -0.133769 -0.04668 0.278333 0.017757 0.137421 0.148511 0.21285 0.115755 0.220814 0.504278 -0.093275 -0.108211 0.241929 0.066647 0.054677 0.066137 -0.108882 0.070326 0.009404 0.254297 -0.272125 0.038502 -0.051516 0.051696 0.322089 0.099104 -0.096936 -0.097992 0.384626 0.098056 -0.163084 -0.202347 0.253508 -0.035742 0.139725 0.027052 -0.026191 0.01825 -0.044006 0.191008 -0.140301 0.10869 0.173025 -0.335427 -0.189422 0.227887 -0.359756 -0.117394 0.221032 0.043696 -0.12127 0.385707 0.248915 -0.201878 0.01669 -0.238208 -0.175653 -0.409149 0.223158 0.234457 0.292064 -0.353239 -0.064866 -0.077673 -0.074723 0.258644 -0.161428 0.01951 -0.278894 0.193442 -0.043341 -0.405899 -0.248822 0.009527 -0.076457 -0.119117 -0.087891 0.044842 0.065183 -0.38764 -0.026229 3.77E-4 0.171993 0.096348 -0.196919 0.143973 -0.170557 0.124515 -0.039429 -0.02829 0.285848 -0.545555 -0.194553 0.160454 -0.050451 0.100518 -0.055877 0.192157 0.168962 0.258022 0.173058 -0.085485 0.277682 0.048453 0.35253 -0.113098 -0.185241 0.261413 0.214074 -0.026906 -0.02795 -0.24623 -0.027124 -0.045459 0.02146 -0.25894 -0.079568 0.005141 0.029239 -0.103037 0.433706 -0.044165 0.119439 -0.232531 -0.100835 -0.028412 0.116864 -0.182148 0.416682 0.015972 -0.280061 0.359023 0.270218 -0.020579 0.19399 0.345322 0.408 -0.312963 0.181785 0.300813 -0.196797 -0.157779 0.014533 -0.166239 -0.370051 -0.192775 0.262924 -0.114661 -0.15457 0.163009 0.029083 -0.349542 0.033847 -0.349722 -0.541149 0.33627 -0.016969 -0.01159 0.157286 0.226049 0.143694 0.188832 0.131919 0.230294 0.087177 0.149799 0.089464 0.145903 3.38E-4 0.045066 0.020167 -0.070569 -0.163133 -0.072592 0.117406 0.022416 0.155698 -0.153466 -0.067412 0.039458 -0.079111 -0.042537 0.25479 0.068527 -0.027157 0.223526 -0.315324 0.120875 0.290531 0.265568 0.083823 -0.071003 -0.158352 -0.220528 0.087781 -0.036469 0.087184 -0.097801 0.145143 0.221653 0.209122 0.091544 -0.14525 0.22031 -0.10182 -0.029559 0.009868 -0.050257 0.108032 -0.207549 -0.023388 -0.026276 0.284796 0.103496 0.297458 0.219159 0.266772 0.031499 0.107006 -0.043506 0.214164 -0.103595 -0.027915 0.113393 -0.090286 0.036279 0.047922 0.036306 -0.080698 0.154678 -0.179227 0.08316 -0.130616 -0.052248 -0.006294 0.263504 -0.074611 -0.113359 -0.273521 -0.128922 -0.21827 0.168665 -0.118424 -0.405682 0.151703 0.004558 -0.040283 -0.089154 -0.240004 0.313126 0.025845 0.624476 0.096093 -0.00878 0.292068 -0.279696 0.122928 -0.02858 0.193119 0.047645 -0.141126 -0.072487 0.050894 0.003486 0.144901 -0.098844 0.225623 0.390252 -0.074445 -0.334651 0.112447 -0.081332 0.135973 -0.315041 -0.050184 -0.096723 0.032714 -0.183984 -0.077849 -0.279329 -0.060204
voyage 0.196671 0.153129 0.00153 -0.007981 -0.380044 0.158204 0.352105 0.075547 0.184102 0.138975 -0.633648 0.098504 -0.004272 -0.297829 -0.119629 -0.011051 -0.138715 0.094355 -0.110665 -0.45165 -0.194966 -0.017712 0.601613 0.079655 -0.083218 -0.022288 -0.06635 -0.049372 0.033759 -0.01168 0.173806 0.00462 -0.09926 0.021175 0.01218 0.21343 -0.033285 -0.016264 -0.077655 0.216548 0.125016 0.018602 0.064749 -0.136015 -0.13891 -0.008816 0.105687 0.035387 0.048074 0.204174 0.188322 0.03922 0.013341 0.114654 -0.0261 -0.168265 -0.113674 0.384547 -0.218024 -0.075011 -0.10176 -0.024438 -0.146549 -0.056291 -0.216569 -0.187492 -0.209885 0.022348 0.363829 -0.118027 -0.213854 0.04594 0.131165 0.44059 0.308606 -0.18385 -0.067332 0.218182 0.292939 -0.138646 0.082934 0.205912 0.266298 -0.281726 0.061703 -0.137709 0.208077 0.008288 -0.356115 0.149962 -0.191452 -0.060544 -0.1031 -0.326963 -0.012878 5.5E-4 0.244571 0.285389 -0.331134 -0.338575 -0.093466 0.073853 -0.18791 0.002688 -0.088085 -0.023749 7.46E-4 0.404318 -0.018774 0.288762 -0.003806 0.093404 -0.140505 -0.107619 -0.089229 0.260894 -0.101935 0.0264 -0.446608 -0.119886 0.023856 -0.551912 -0.263232 0.096721 -0.274695 0.010455 0.64824 -0.031149 -0.07664 0.155073 -0.352925 0.223835 -0.3481 -0.276625 -0.173295 0.16631 -0.14134 0.066296 -0.200714 -0.108226 -0.173916 -0.127764 -0.327967 -0.027476 -0.033452 0.161947 0.280916 0.199498 0.194193 -0.00294 0.114225 -0.022383 0.057891 -0.059166 -0.186966 0.273 0.072511 -0.043578 0.053251 0.016623 -0.044425 -0.014934 0.063204 0.004751 -0.136125 0.162975 -0.220174 0.031088 -0.041836 -0.154544 0.054135 0.138918 0.072304 -0.173914 0.245836 -0.175519 -0.275334 0.31588 0.123818 0.030847 0.134038 0.029526 0.043788 -0.011904 0.174926 -0.005363 0.066718 0.065722 0.161078 -0.015707 -0.110855 -0.365969 -0.137408 0.270699 -0.447555 0.119831 0.184494 -0.089394 0.204939 -0.197615 0.020316 0.108741 0.065325 -0.0992 0.096132 -0.028924 -0.103177 -0.137197 0.11283 0.15693 0.290705 -0.138836 0.184611 -0.281597 0.131827 0.127597 -0.296016 0.067477 0.200212 -0.277419 -0.042473 0.004233 0.109688 -0.01886 0.03764 0.004606 -0.206921 -0.186931 -0.23171 0.068015 -0.033653 0.090539 -0.043711 0.047607 -0.158328 0.338133 0.015772 -0.463273 -0.218456 0.210058 0.001441 0.211678 -0.187126 0.360629 0.157605 0.155131 -0.257969 0.11058 0.246249 0.157039 -0.013298 -0.129928 -0.202983 0.158935 -0.328902 -0.154492 -0.516362 0.16063 -0.028499 -0.191555 -0.147694 -0.125812 -0.08773 0.27185 0.441191 0.076579 0.102577 -0.012192 0.118865 -0.038817 0.1457 0.020004 0.368186 0.129716 -0.2806 0.308178 -0.384925 0.059898 -0.33299 0.342525 -0.008392 0.216766 0.31453 0.327313 0.273837 -0.015154 -0.220977 -0.325671 -0.015039 8.56E-4 -0.039245 0.056264 -0.07459 -0.22029 -0.281625 0.651738 -0.551592 0.319423 -0.359196 0.291915
valor 0.579954 -0.326727 0.206753 -0.281017 0.163 -0.082428 0.137723 -0.282292 -0.195934 -0.028952 -0.113225 0.079498 0.053692 -0.039134 -0.25774 0.436123 -0.273124 -0.22417 0.178616 -0.283211 -0.177209 0.273067 0.234382 -0.160079 0.014367 -0.084842 0.171889 -0.203443 0.333477 -0.14125 -0.049188 0.037928 -0.146337 -0.41946 0.258216 0.114743 0.045565 0.009768 -0.079786 -0.193984 -0.037566 0.091813 0.10516 -0.325378 -0.076857 -0.029626 -0.034352 0.228925 -0.213581 0.197569 -0.100003 0.075363 -0.185449 -0.047073 0.188784 -0.235746 0.316279 -0.099908 0.046094 0.017535 -0.002298 -0.006751 0.03495 0.011404 0.288359 -0.36828 -0.162836 -0.029149 0.558434 0.017895 0.033791 -0.115448 -0.140514 0.072918 0.171395 0.194087 0.204235 0.154738 -0.147041 0.18765 0.00442 -0.174549 -0.225369 -0.079717 0.032605 -0.077622 0.232247 0.010955 -0.167734 0.233693 0.217777 -0.197524 0.074017 -0.040613 -0.150004 -0.224339 0.067238 0.21937 0.138148 -0.222505 -0.164138 0.153785 -0.096519 -0.089017 0.507103 -0.148513 0.4868 0.177487 -0.26256 0.335514 -0.387973 0.276449 0.363293 -0.129032 -0.256666 0.093465 -0.273196 -0.08672 -0.101064 0.011119 0.340281 -0.225872 0.105252 0.189484 -0.205686 0.149925 0.105753 -0.109048 0.083596 -0.08443 0.198937 0.125357 0.065469 -0.132287 -0.106186 -0.311112 0.185791 0.084632 0.082252 -0.060524 0.270871 0.276138 -0.270387 -0.196052 -0.352818 0.215929 -0.003307 0.132443 0.096385 0.034481 0.166974 0.29695 -0.014947 0.157675 0.005564 0.226689 0.09128 0.033464 -0.048129 -0.325464 -0.259325 0.295313 -0.212122 -0.126588 -0.315442 0.122237 -0.20969 0.164214 0.074348 0.077318 -0.255236 -0.23902 -0.262498 -0.312294 -0.174515 0.02352 -0.199082 0.35083 -0.003644 -0.195514 -0.292336 0.077806 0.083051 -0.201052 -0.060655 0.378589 0.029798 -0.104746 -0.089768 0.093529 0.128779 -0.152495 -0.13663 0.136678 0.033715 0.051959 -0.278295 -0.25025 -0.034484 -0.269476 -0.046329 0.384138 -0.337278 0.008092 -0.144572 0.327287 -0.298398 0.008892 0.0468 0.016203 -0.009814 0.028225 0.264644 0.069188 0.154473 0.014783 -0.043594 -0.054682 0.072488 0.089357 0.028185 -0.120431 0.121179 0.207624 -0.212527 0.019445 -0.106606 0.330559 -0.222998 -0.018776 -0.194063 0.259047 -0.006571 -0.010521 -0.383367 0.001667 0.207232 -0.111522 -0.672781 0.096068 0.197294 0.182047 -0.248598 0.067454 0.114862 0.121092 0.057267 0.076548 -0.102953 0.154373 0.152016 0.092575 -0.249793 0.276834 0.202972 -0.078806 -0.112556 0.062504 0.063393 -0.030506 0.293885 -0.062049 -0.165861 -0.159911 -0.220823 -0.002989 0.176558 -0.045323 0.011047 -0.23827 -0.279012 4.21E-4 -0.216526 0.118945 0.031695 0.119636 -0.028883 0.008311 0.092972 -0.178512 -0.029734 -0.116057 0.20695 0.172596 -0.165455 -0.246208 -0.126612 -0.015316 -0.231334 -0.085533 0.09646 0.042485 -0.122351 -0.113738 -0.38077 0.297253 -0.505817 0.191782 -0.008752 0.037495
butter 0.029495 0.233861 -0.328196 0.034137 -0.536943 -0.842129 -0.019971 -0.172605 0.167919 0.069971 -0.159833 0.307248 -0.231934 -0.208267 -0.141513 0.184283 -0.273092 -0.50982 -0.293365 -0.153689 0.032767 -0.050203 0.603673 -9.71E-4 0.223834 -0.050618 -0.078377 0.421446 0.169904 0.210788 -0.081199 0.110633 -0.200089 0.045343 -0.057892 -0.002129 -0.243613 -0.159527 0.062369 -0.024431 0.042645 -0.162167 -0.143136 0.261134 -0.576187 0.141435 -0.14831 -0.426115 0.252676 0.152041 -0.233112 0.419821 -0.030324 -0.027696 0.193141 -0.280293 -0.319239 0.404822 -0.101583 0.030763 -0.539107 0.280815 -0.166329 -0.164286 0.147764 0.00385 -0.174446 0.142579 0.10136 -0.25933 -0.020218 -0.342348 -0.386466 -0.005103 -0.249691 0.102894 0.356724 0.008101 -0.061272 0.808019 -0.220258 0.024898 0.258112 -0.207189 -0.176913 0.137074 0.18916 -0.294505 0.339134 0.062499 -0.463588 -0.106678 0.359652 -0.350556 -0.074642 -0.228312 -0.297849 0.140364 0.130392 -0.118966 -0.142253 0.396157 0.034579 0.028205 0.155564 0.235293 0.001313 -0.003777 -0.143663 -0.224507 -0.19884 8.4E-5 0.581865 -0.264128 -0.481147 -0.175981 0.00888 0.226224 0.199397 0.156504 0.073943 -0.219036 -0.265418 0.148677 -0.288003 -0.212988 0.366183 -0.078909 -0.067522 -0.283607 -0.235908 -0.033102 -0.024797 -0.408052 -0.079595 -0.103056 0.055082 -0.153208 -0.26242 0.18453 0.257544 -0.252142 -0.145298 0.006953 -0.12558 0.189166 -0.470496 -0.049161 -0.256759 -0.336452 0.126408 0.343161 0.429346 0.004633 -0.211992 0.015442 -0.105024 0.168373 0.261005 0.089024 0.073162 -0.104289 -0.127548 0.185191 -0.131323 -0.197381 0.381112 -0.331927 -0.086201 -0.054234 -0.051109 -0.129677 -0.175721 -0.518718 -0.27641 -0.156118 0.169916 -0.05888 0.065785 -0.14671 0.252907 -0.064427 -0.128577 -0.089024 0.322065 0.259831 0.050694 0.365172 -0.046736 0.193788 -0.143689 -0.178091 0.294346 0.172685 -0.12864 0.023932 -0.014373 0.482108 -0.011059 -0.177676 0.298113 0.029025 -0.034363 -0.466044 -0.156795 -0.013056 0.261596 0.025952 0.167393 0.087099 0.089402 -0.193253 -0.273095 -0.323017 0.044608 -0.241491 0.289361 0.228586 0.38902 -0.315681 0.034777 -0.002401 0.250082 -0.064923 -0.289025 -0.207551 -0.536547 -0.170129 -0.415679 0.25323 0.07969 0.124143 -0.056184 -0.205664 0.060274 0.121201 -0.11607 0.15129 0.507472 0.362599 -0.092013 -0.052671 -0.201276 -0.082995 0.252593 0.040403 0.303923 -0.03311 -0.342254 -0.166769 -0.499723 -0.141441 0.433618 0.292076 0.169044 -0.191512 -0.519627 -0.390445 0.083118 0.00148 0.459271 -0.017772 -0.468695 0.144687 -0.158058 -0.050166 -0.144599 -0.118581 0.042371 0.365324 0.263442 0.290799 0.007201 -0.163929 -0.086657 -0.166816 -0.387026 0.148982 -0.238942 -0.316761 -0.225753 -0.020385 0.422886 -0.242567 0.224826 -0.18425 0.137627 0.140813 -0.495845 0.305213 0.295284 0.058892 -0.165652 -0.125762 -0.366727 -0.171625 0.070164 -0.213856 -0.163934 0.123858
gin 0.250465 -0.048946 0.040566 -0.181166 -0.270102 -0.502295 0.036514 0.065388 -0.046391 0.074549 0.18719 -0.099488 -0.036315 0.282021 -0.403212 -0.102851 -0.129308 -0.156806 0.012294 0.042767 -0.06468 -0.029537 0.409957 -0.13389 0.058501 0.101496 0.106727 0.067813 -0.028933 0.099909 0.12465 0.213108 -0.153085 -0.051163 -0.133939 0.088841 -3.59E-4 0.154919 0.108105 -0.116604 0.087206 -0.207219 -0.416474 -0.033078 -0.333311 0.020583 0.058361 0.020954 0.441979 0.180431 0.022277 0.086263 0.181061 -0.168656 0.098081 0.007024 -0.087822 0.013596 0.31707 -0.12628 -0.389245 0.015928 0.005202 -0.243758 0.088784 -0.123494 -0.199617 0.268641 0.009303 -0.314095 0.355898 0.023362 0.058617 -0.121703 0.025108 0.346656 -0.087493 0.033592 0.374468 -0.004354 -0.099381 0.269962 0.116402 -0.118537 0.073131 0.325123 0.133258 -0.318808 0.207244 0.03081 -0.335497 -0.044208 -0.06388 -0.199184 0.023493 0.005029 -0.03879 0.17389 -0.143799 -0.038745 -0.356375 0.279523 -0.147883 -0.069857 -0.280251 0.193686 0.197321 0.025689 -0.461168 0.284074 -0.032013 0.13043 0.518871 -0.361243 -0.266775 0.057553 -0.015885 0.229 0.065577 0.25379 0.24999 -0.146289 -0.316459 0.182759 -0.042208 -0.122463 0.195214 0.06937 -0.09988 -0.398648 -0.09861 -0.057713 -0.101436 -0.2549 -0.271634 -0.091773 -0.535129 -0.109154 -0.253104 0.116863 -0.137444 -0.028051 0.110463 -0.100632 0.126866 0.262989 -0.331222 0.171855 -0.226413 -0.394393 0.092078 0.0174 0.248224 0.225981 -0.225954 0.039913 0.004056 0.384952 0.099129 -0.042703 0.183346 -0.045653 -0.006851 -0.155903 -0.413532 0.239306 0.022275 0.49195 0.225587 -0.073973 -0.244025 -0.027737 -0.36034 -0.526758 -0.255767 0.302186 0.009965 0.080272 0.035965 -0.080668 0.269331 -0.347723 -0.04331 -0.078473 0.193208 0.074321 0.027242 0.153308 -0.169582 0.249705 -0.138682 0.225705 0.127812 0.084141 -0.175284 0.256904 -0.088184 0.232662 -0.045873 -0.309927 0.023409 0.155245 0.325056 -0.378573 0.145882 0.158281 0.421524 0.085127 -0.031609 -0.25646 0.089046 -0.098754 -0.511982 -0.122481 -0.07454 -0.030923 -0.152185 -0.222419 -0.067823 -0.252877 0.095621 -0.047799 0.10075 0.160396 -0.207676 -0.175157 0.046433 -0.067745 -0.219398 0.29967 0.138696 -0.226655 -0.228811 -0.014049 0.11339 -0.144624 -0.331279 -0.254076 0.141274 -0.134366 -0.173478 0.01841 0.028925 -0.134674 0.286665 -0.437178 0.00517 0.077728 0.127727 -0.189251 -0.303126 -0.044611 0.171796 -0.052846 0.175511 0.063619 -0.496943 -0.058726 -0.044217 -0.006976 -0.051159 -0.197333 -0.192631 0.101644 0.124045 -0.057106 -0.058673 -0.323442 0.01963 -0.046676 0.02081 0.079748 0.012528 0.233149 -0.024102 -0.124041 -0.080304 -0.024044 -0.403893 -0.455659 -0.013617 0.086222 0.149783 -0.014441 0.15667 -0.057423 0.237003 0.236128 -0.326714 -0.148873 0.14335 0.159891 -0.268924 -0.099712 -0.282152 0.007221 -0.015878 0.05309 -0.109998 0.08375
reservation 0.49339 0.257097 -0.230608 -0.002172 -0.110416 0.044899 0.120029 -0.14593 -0.111497 -0.158824 -0.136248 -0.03902 0.172676 0.125718 0.482448 0.076813 -0.185477 -0.121731 -0.068446 0.049982 -0.016276 0.028717 0.117497 -0.041367 -0.090186 -0.080214 -0.181931 0.116619 -0.11815 0.116783 -0.312331 0.061913 -0.060986 0.059882 -0.147428 0.255058 -0.141905 0.103179 0.121624 0.152335 0.079433 -0.116906 -0.07335 0.116924 0.276216 0.020691 -0.157448 -0.019392 -0.120016 0.097662 -0.215334 0.199984 -0.024772 -0.202414 0.132529 0.121479 0.014797 0.249748 0.171051 -0.168112 -0.301593 -0.14868 -0.068834 -0.276076 -0.208482 0.135539 -0.071936 -0.054458 0.418995 -0.180015 0.25733 0.151871 0.075038 -0.144923 0.219484 -0.039337 0.165846 -0.278512 -0.152364 0.152972 -0.30614 0.261853 0.05996 -0.125854 -0.26862 0.10746 0.08286 -0.052769 -0.077159 -0.133283 -0.04766 0.095866 -0.138386 -0.159775 -0.075645 -0.109143 0.113436 -0.035052 -0.323619 -0.355335 -0.190425 0.128262 0.060816 0.20205 -0.102424 -0.023546 0.192134 0.025394 0.311348 -0.099888 0.035966 -0.070359 -0.07961 0.099785 -0.298847 0.047258 -0.114108 -0.062635 -0.125768 -0.130258 0.323451 -0.340283 0.050631 0.053717 -0.11998 -0.140912 0.415138 0.188011 0.135078 -0.06275 -0.117819 0.053007 -0.075849 -0.122802 -0.186176 0.105443 -0.04646 -0.09757 -0.307009 0.407904 0.002797 -0.056227 0.198747 0.179952 -0.302465 0.168508 -0.219099 0.400244 -0.077439 -0.427305 0.128947 0.090198 0.24526 -0.194597 0.04685 0.215179 -0.002951 -0.221296 0.009999 0.481057 -0.326075 0.189802 -0.400347 -0.253577 -0.073176 0.241544 -0.114185 -0.224782 0.044743 -0.093483 -0.021382 -0.348529 -0.29307 -0.114249 0.003856 -0.178688 -0.117986 0.243278 0.095994 -0.026844 0.194612 0.009146 0.237018 -0.148416 0.224754 0.079407 0.117742 -0.032674 -0.002797 0.080948 -0.016013 -0.059567 -0.126834 0.105421 -0.386171 0.220498 0.232667 0.132158 -0.056005 -0.186795 -0.08939 0.261916 0.188028 0.093455 0.104247 0.130776 -0.043028 -0.182486 6.62E-4 0.05888 -0.124133 -0.269311 -0.055385 -0.021686 0.094394 -0.079178 0.008355 -0.03428 -0.050918 -0.140232 0.069343 -0.001081 -0.04384 -0.122265 -0.232507 0.166913 0.113211 -0.132944 -0.046445 0.247854 0.193528 -0.070411 -0.057889 0.001211 0.118598 -0.063836 0.208278 -0.113839 -0.310773 0.344375 0.193632 0.301034 0.135758 0.124657 0.058806 -0.168512 -0.098212 0.250565 0.080911 -0.110535 -0.417724 0.442689 0.047492 -0.195965 0.128323 0.058165 -0.255497 -0.1752 0.132428 0.005275 -0.056108 -0.043138 -0.073708 0.047049 0.057498 0.08905 0.193468 -0.258093 -0.266561 0.260201 0.165083 0.048669 -0.029562 -0.148912 -0.105736 -0.189615 0.136132 -0.128418 0.129152 -0.026141 0.300355 0.215219 0.174229 0.240631 0.376812 0.204226 -0.134839 -0.036526 -0.092458 -0.057441 0.249878 -0.022864 -0.227295 0.318645 -0.014178 -0.029495 -0.149352 0.121385 -0.408398 0.002169
wealth 0.551503 0.177905 -0.314346 0.128512 0.168392 -0.011181 -0.126292 -0.17303 0.077226 0.181718 -0.076322 -0.130369 -0.327128 0.122116 -0.020804 -0.168699 -0.156045 -0.041652 -0.004264 0.00864 -0.174489 0.234566 0.404099 0.222159 0.087327 -0.043035 -0.063883 -0.163322 -0.049424 -0.180956 0.212478 0.335086 0.272266 -0.276691 0.194609 0.06156 -0.083224 -0.096314 -0.152309 -0.059781 0.25925 -0.40491 0.151595 0.048011 -0.208428 0.014266 -0.188235 -0.184197 0.004933 0.069351 0.065524 0.023776 -0.242057 -0.073716 0.22991 0.173872 -0.37657 -0.090792 0.099287 -0.20142 0.148213 -0.333948 0.061458 0.034404 -0.030671 -0.08768 0.04566 0.044843 -3.77E-4 0.131674 0.010796 0.271223 -0.168656 0.221906 0.055319 -0.320912 0.003912 0.219001 0.291363 -0.139861 -0.164988 -0.164748 -0.280098 -0.172722 0.014412 -0.130242 0.348376 -0.081639 0.044113 0.254357 -0.263136 0.169542 0.072235 -0.234655 -0.047618 -0.149298 -0.147714 0.303985 -0.17455 -0.353142 -0.365059 0.218865 0.12286 -0.304148 -0.078387 0.003091 0.008289 0.143107 -0.108256 -0.160965 0.332044 0.116832 0.428644 -0.403483 -0.311222 0.218128 -0.109587 0.106801 0.002165 -0.099418 0.117084 -0.072221 -0.137123 -0.157803 -0.117405 0.335862 0.388981 0.074704 0.046413 0.154249 0.254307 -0.182332 -0.041126 -0.168694 0.044435 0.212413 0.144628 -0.04788 -0.335299 0.012105 -0.078125 -0.094573 0.032594 0.109713 -0.12262 0.438261 0.014844 0.175312 -0.032818 -0.162185 0.185436 0.302844 0.221021 -0.047362 -0.166437 0.057501 -0.064032 -0.127897 0.337543 0.292166 0.193723 0.370975 -0.082033 -0.514704 0.033037 -0.222767 0.079573 -0.033021 -0.167612 -0.185414 -0.073533 -0.248165 -0.1059 -0.155124 -0.053758 0.199638 0.070162 -0.045166 0.027068 -0.120144 0.055922 0.078108 0.128634 -0.262459 -0.244971 0.047092 0.055165 -0.053736 0.149194 0.020411 -0.026501 -0.213184 -0.09362 -0.037694 0.097365 -0.043015 0.063723 -0.066928 0.048283 -0.282545 -0.043352 0.283847 0.046315 0.356897 -0.367219 0.203683 -0.023489 -0.128281 0.254769 -1.2E-5 0.0095 -0.043666 0.051973 -0.048087 -0.170924 -0.134092 0.030701 0.233294 -0.353525 0.018587 0.176726 0.099163 0.022891 0.076704 -0.463332 -0.059206 0.081574 0.157201 0.19133 -0.059311 0.018641 0.169993 0.046055 -0.062361 0.088803 -0.027925 -0.29381 -0.318157 -0.083157 -0.308837 0.285802 -0.287253 -0.252388 -0.078951 0.001281 -0.091547 0.150728 -0.168666 -0.373991 0.175269 0.190212 0.048156 0.200295 0.287646 0.263926 -0.322101 -0.012911 -0.116418 -0.044945 -0.118257 0.231288 -0.375829 -0.132498 -0.081942 0.078453 -0.271662 -0.054443 -0.176964 0.152282 0.134387 -0.198762 -0.014154 -0.101936 0.177857 -0.108504 -0.134609 -0.066996 -0.012996 0.218571 -0.150025 0.103648 0.452103 -0.024332 -0.058491 -0.101141 -0.138704 0.121827 -0.068891 -0.287877 0.008124 -0.118006 0.191453 0.112816 0.007791 -0.183598 0.064945 -0.131977 0.041359 -0.012445 0.084937
eat 0.171789 0.237834 -0.043613 0.030107 -0.506268 -0.229936 -0.093455 -0.343147 0.071747 -0.113482 0.113087 0.139559 0.153131 -0.356263 -0.075159 0.076518 -0.123944 -0.264296 -0.179699 -0.104804 -0.21507 0.078788 0.414802 0.47422 0.070755 -0.051907 0.392868 0.212175 0.146294 0.005461 -0.066107 0.08554 -0.062542 0.099423 -0.191981 -0.058904 0.267095 0.181851 0.105667 0.033835 0.026835 -0.148388 -0.113243 -0.038348 -0.186082 0.059545 0.28473 -0.050313 0.056085 0.132407 0.12791 0.129399 -0.153778 0.099525 -0.021147 -0.129764 -0.25852 0.049892 0.138559 -0.034255 -0.670131 0.230199 -0.255972 -0.043933 -0.182304 -0.125559 -0.418535 0.138135 -0.13024 -0.145762 0.225025 0.002895 0.077365 0.144399 -0.408378 0.333893 -0.086739 0.245164 -0.018522 0.506974 -0.077636 0.01798 0.054693 0.012607 -0.056119 0.154849 -0.196742 -0.350003 0.176988 -0.11326 -0.474996 0.178589 0.106276 -0.144356 -0.240397 -0.34858 0.046097 0.11858 -0.123827 -0.272671 -0.1426 0.370029 -0.028923 0.264185 0.157551 0.205304 0.173879 -0.210751 0.220205 0.029895 -0.09943 0.130879 0.417455 -0.334632 -0.473126 -0.11795 0.067302 0.014337 0.11578 -0.027043 0.067858 0.180754 0.030471 0.223681 -0.131445 -0.216844 -0.030876 -0.031873 -0.066602 -0.234469 -0.225776 0.120092 0.02185 -0.165423 -0.052309 -0.15458 0.057875 0.082446 -0.149883 0.177876 -0.108642 -0.014404 0.176516 0.164243 0.098731 0.504802 -0.424124 -0.066977 0.149649 -0.147709 0.02623 0.425702 0.25253 -0.013231 -0.108905 0.286588 -0.163513 -0.023058 0.112371 0.150916 0.098246 0.040893 -0.03122 0.035931 -0.259148 0.14003 -0.007335 -0.044995 -0.135294 0.132022 0.113797 0.095174 -0.286842 -0.100295 -0.080823 0.328539 -0.117144 0.21913 0.366635 -0.034415 0.252725 -0.160491 -0.041708 -0.03951 0.212679 0.102562 0.276929 0.203256 0.138779 0.233364 -0.175852 -0.398413 0.374228 -0.146398 -0.152887 -0.151326 -0.195519 0.10802 -0.022272 0.03029 0.113973 0.186806 -0.005103 -0.09824 0.336988 -0.19816 0.231436 0.134178 0.361602 -0.097879 0.044261 -0.20967 0.019276 0.033913 0.137485 -0.307688 0.087068 -0.031642 -0.077511 -0.371072 -0.290235 0.018348 0.343232 -0.147399 -0.060093 -0.343561 -0.152346 -0.128635 -0.613315 0.046287 0.065609 0.01883 -0.184221 -0.168416 0.287343 -0.01284 -0.210872 -0.061829 -0.031004 0.038865 -0.271458 -0.078236 -0.291893 -0.025681 -0.092397 -0.03474 0.022516 0.338215 0.010794 0.251103 -0.226627 -0.138624 0.114808 0.187969 0.400221 -0.058603 -0.275389 -0.25972 0.26943 0.190954 -0.141065 -0.192861 -0.194725 -0.15336 0.067186 -0.387986 0.034314 -0.234059 0.104367 0.080978 0.093263 0.213139 0.009266 -0.043681 -0.206732 -0.239266 -0.143766 -0.049525 -0.038129 -0.039413 -0.16983 0.02824 -0.084458 0.182328 0.029427 0.093448 0.392675 0.082152 -0.21854 -0.014022 0.02435 -0.017616 -0.153563 -0.055369 -0.136207 0.158532 -0.117629 -0.001181 -0.107349 -0.162585
soap -0.163919 0.143896 0.062613 -0.260259 -0.036213 -0.282186 -0.009059 -0.059951 -0.009281 -0.215302 -0.233932 0.007842 -0.069252 -0.140332 -0.168585 -0.157696 -0.081581 -0.12067 0.117462 -0.272611 -0.316626 0.138165 0.308 0.073301 0.070997 6.6E-4 0.09848 0.048259 -0.006235 0.270131 0.013028 0.60221 -0.438989 0.024512 -0.103991 -0.071708 -0.047255 -0.0946 0.034602 -0.002539 -0.267004 0.20748 -0.172954 0.058814 -0.233998 -0.021124 0.053323 -0.243333 0.32777 0.459836 0.318161 -0.002541 -0.123384 -0.505213 0.419253 -0.004627 -0.392667 0.16885 -0.039025 -0.088267 0.204642 -0.067421 0.035038 -0.176623 0.085469 -0.509368 -0.244877 0.024494 -0.108775 -0.30216 0.169171 -0.333626 0.086115 -0.087399 -0.48931 0.184812 0.099685 -0.070673 0.222221 0.235682 -0.15424 0.203842 -0.419555 -0.205691 -0.092213 0.210369 -0.093741 -0.458909 0.132974 -0.24045 0.067643 -0.045133 -0.383692 -0.023206 -0.120178 -0.204264 -0.003687 0.446854 -0.260736 0.077613 -0.129157 0.352819 -0.090799 -0.259434 -0.272697 -0.036764 0.29907 -0.349658 -0.20892 0.221545 -0.198656 -0.129364 0.088662 -0.098204 -0.310377 0.014564 0.019013 -0.090799 0.107867 -0.08055 -0.219393 -0.067111 -0.148881 0.276659 0.150305 -0.402671 0.052545 -0.053717 0.135786 -0.420104 -0.2286 -0.116852 0.353883 -0.104479 0.126724 -0.115646 0.187043 0.168221 0.039524 -0.104665 0.226366 -0.215982 -0.011348 -0.011831 -0.087494 0.218299 -0.023358 0.057463 -0.17125 0.084375 0.245966 0.24544 0.204879 0.275904 0.03207 0.047099 -0.006896 0.199358 0.116914 0.085703 0.269258 0.221372 -0.122219 -0.091887 0.129561 0.381865 -0.158655 0.035213 0.093485 0.134132 -0.297429 0.040469 -0.211434 -0.378705 0.257879 0.069291 0.067566 0.192843 0.190583 -0.173643 0.109357 0.089168 0.04419 -0.057694 0.199889 0.228643 0.389768 -0.03603 -0.072296 0.015523 -0.038491 -0.204784 -0.073496 0.486643 0.015286 -0.215405 0.066762 0.261474 -0.225488 -0.244826 -0.215113 -0.121273 -0.228927 -0.362739 0.081016 0.114481 0.083672 0.138495 -0.074232 -0.196782 -0.105154 0.165435 0.05049 -0.139221 -0.025641 0.114488 -0.125727 -0.024737 -0.080701 0.191803 -0.036098 0.173151 0.151799 -0.117166 -0.038309 -0.049019 -0.019722 0.38183 -0.515583 0.303418 -0.023181 0.394747 0.171973 -0.107932 0.00119 0.023645 -0.307291 -0.098053 0.017954 0.077593 -0.096311 -0.193967 -0.113457 -0.207299 0.075083 -0.344901 -0.065746 0.136109 0.214421 -0.119617 -0.154183 -0.213726 0.255944 -0.072969 0.137036 -0.027541 -0.395487 -0.10646 -0.03604 0.089466 0.321642 -0.133107 -0.051902 0.265157 0.068667 0.211582 -0.12194 0.002837 -0.015629 -0.071196 -0.182207 -0.094248 -0.03715 0.271141 0.180814 -0.416199 -0.159243 -0.191388 0.125942 -0.184414 -0.048061 -0.103891 -0.139798 0.079689 0.328435 -0.169897 0.021567 -0.196749 -0.164206 -0.235931 0.170762 0.133101 -0.034497 0.111958 -0.005219 0.147681 -0.084823 -0.049772 -0.036094 0.015447
discovery 0.386106 0.058359 0.043153 -0.168626 -0.040724 0.216752 0.359873 -0.075905 0.321797 0.301692 -0.131807 -0.116137 -0.098378 -0.060111 0.013453 0.181888 -0.125329 0.172378 -0.106209 0.006121 -0.280634 0.050848 0.233223 0.126213 0.248896 -0.003364 -0.18439 0.192289 0.082337 0.124502 0.044493 0.11475 -0.185699 0.301902 -0.08433 -0.041876 7.02E-4 0.156661 -0.035183 -0.142405 0.133608 -0.193391 0.023769 -0.2093 -0.063754 -0.13032 0.069157 -0.0685 0.17034 -0.268068 -0.023036 0.017881 -0.083533 0.086352 0.050692 -0.0196 -0.153186 0.104798 0.104095 0.264531 -0.033191 -0.133078 -0.174483 0.079993 -0.002085 -0.299305 0.026799 -0.050768 -0.104286 0.087075 0.086281 0.032094 0.11688 0.24953 -0.020591 -0.022496 -0.025647 -0.111253 0.22966 -0.066218 -0.393102 -0.041146 0.241485 0.022288 -0.105135 -0.160619 0.42919 -0.183066 -0.158582 -0.063431 -0.180703 0.12783 0.004312 -0.252452 -0.018632 -0.125676 -0.051444 -0.045341 -0.497028 -0.390299 -0.115497 0.198228 0.047623 0.012887 0.023698 0.197033 -0.181052 0.260891 0.329195 0.206273 -0.113271 0.02153 -0.018463 -0.09402 0.042061 0.154159 -0.011053 0.067967 -0.145726 0.108371 0.003708 0.17579 -0.098643 -0.133891 0.29984 0.212258 0.263534 -0.017035 -0.060895 -0.20226 -0.145714 0.075904 0.047549 -0.096304 0.025891 -0.004426 0.097009 0.013581 -0.070066 -0.126622 -0.021681 -0.228475 -0.248968 0.025006 -0.099024 0.187957 -0.300283 0.55681 -0.177136 -0.183286 0.258679 0.011181 0.0797 -0.116819 0.398206 0.077854 0.126344 -0.19473 0.137091 0.056915 -0.022917 0.190064 0.032343 -0.002652 -0.283824 5.95E-4 -0.422489 -0.073733 0.262342 -0.13363 0.024178 7.93E-4 -0.139312 -0.306069 -0.105334 -0.192214 -0.266837 0.18008 0.166443 -0.200502 0.220809 0.071579 0.204038 -0.123251 -0.004136 0.163656 -0.031294 -0.157573 0.15337 0.191043 0.084388 0.22327 -0.02614 0.130073 -0.032142 0.066749 0.152528 -0.127338 0.188037 -0.18861 0.13673 0.150979 0.0686 0.269476 -0.036666 0.061002 0.010659 -0.109853 0.003707 -0.031967 -0.045324 -0.050638 0.276428 -0.034068 0.113255 0.100194 -0.072907 -0.188224 0.291995 -0.045871 -0.096855 0.054244 0.134105 -0.126567 -0.235853 -0.002905 0.126513 0.14999 -0.007002 0.067425 -0.133707 0.37869 0.32071 -0.081715 -0.291759 -0.076163 0.193356 -0.229233 -0.237057 0.190765 0.185522 0.023069 -0.245843 -0.085413 -0.002561 0.054018 -0.048427 0.041461 0.170788 0.003229 0.033572 -0.315182 -0.061752 0.406496 0.01794 0.203304 -0.12317 0.251417 0.003292 -0.035887 0.287586 -0.262787 -0.277895 -0.113037 0.274214 0.088552 0.00116 -0.030561 -0.016542 0.100693 -0.136782 -0.181809 -0.012406 0.155215 -0.097439 0.345744 -0.24625 0.0584 0.041909 -0.196608 -0.109583 0.055137 -0.147054 -0.053595 0.279828 -0.027806 -0.015182 -0.070145 -0.130323 -0.397777 0.020556 -0.314357 0.113356 0.041624 -0.403595 0.088296 -0.073486 -0.045624 0.088389 0.220265
Jerusalem -0.365323 0.108008 0.285734 -0.157354 0.091573 0.217689 0.287563 -0.327969 0.029956 -0.222289 -0.102063 -0.14387 0.013729 0.273258 0.037178 -0.121911 -0.04095 -0.183256 0.280734 -0.107514 0.035846 0.425007 0.132366 0.338301 0.169266 -0.328967 -0.022018 -0.12192 0.064313 -0.140085 -0.139283 0.431154 0.021702 0.040889 0.040144 0.270778 -0.457613 0.124232 0.303332 0.007739 0.281715 -0.191101 0.171465 0.042528 0.193051 0.104216 0.196877 0.589515 0.076889 0.073563 -0.416601 -0.012153 -0.032737 -0.125174 0.059024 -0.138283 -0.211952 -0.135176 -0.233111 -0.347295 0.076772 -0.39784 -0.116813 -0.176604 -0.098446 0.116962 0.197045 0.003469 0.387228 -0.155802 -0.37037 -0.225622 -0.059934 -0.212442 0.459948 0.242103 0.273701 0.141728 -0.227186 0.098351 -0.118791 -0.439268 0.434522 -0.182684 0.372539 -0.113403 0.265809 -0.020991 0.1259 0.553349 -0.437902 0.078169 -0.162236 -0.051834 0.155226 0.206737 0.024044 0.239495 -0.242414 -0.468076 -0.322094 0.128413 0.166174 -0.232957 0.319599 0.115984 0.063002 0.142189 -0.005769 -0.272884 -0.499858 -0.137025 0.057814 0.020009 -0.266491 0.155923 0.038741 0.249516 0.216301 -0.180971 0.398799 0.448375 -0.07414 0.137085 -0.03392 -0.110814 0.153526 0.192496 -0.118756 -0.114712 0.087962 -0.166229 -0.054441 -0.122672 -0.368408 0.048362 -0.328996 -0.306809 -0.241003 0.476649 -0.160596 -0.252712 0.419428 -0.123561 0.306623 0.285631 -0.396394 0.320485 0.129217 -0.308033 0.162579 0.059004 0.250824 0.146306 0.320984 -0.138473 0.310875 -0.249723 0.078772 0.181341 -0.137308 0.165906 0.371619 -0.061312 -0.347245 0.192018 -0.08432 0.202041 -0.193476 -0.033778 0.068956 0.338593 -0.308236 0.070607 0.021944 0.36682 0.175691 0.139812 -0.068963 0.005392 0.097546 -0.135603 0.190776 0.057884 0.019922 0.092297 -0.225986 0.385731 0.189307 0.141578 -0.017877 -0.687284 -0.260143 0.275621 0.140216 0.183708 0.147733 -0.044562 0.124287 0.123317 0.20231 -0.236193 0.163972 -0.083163 0.224506 0.133744 -0.382121 0.21603 -0.197292 0.573253 0.380602 -0.561457 0.159735 -0.557579 0.277823 0.368647 0.132445 0.095501 0.096027 -0.360653 -0.199609 0.194554 -0.29785 -0.247243 -0.273274 -0.308784 0.212628 -0.041454 0.094472 -0.143041 0.108639 0.624461 0.273266 -0.136876 -0.063427 -0.030542 -0.182406 -0.256335 -0.295118 0.023765 -0.016011 0.051632 0.121592 -0.089586 -0.516973 0.278985 -0.075237 -0.133439 -0.388408 0.207742 -0.481661 -0.129471 0.039277 0.369612 -0.026881 -0.097065 -0.303403 -0.09599 0.149846 0.099144 0.262171 -0.368905 -0.03731 0.337932 0.232377 0.216328 -0.101697 0.03762 -0.578539 0.120783 0.09285 -0.045755 -0.039782 -0.333811 0.063192 0.082105 -0.01781 0.093412 -0.107042 0.344258 0.340348 0.291965 0.206299 0.066442 -0.101848 -0.245202 -0.243455 0.223607 -0.028049 -0.236181 0.208315 0.07263 -0.062657 0.152373 -0.155498 -0.164977 -0.371035 -0.388443 0.014259 0.116219
hospital 0.215251 0.370655 -0.373996 -0.408727 0.033148 0.087727 0.027407 0.048515 0.002642 -0.05646 -0.094574 -0.090899 4.07E-4 -0.208236 0.139989 -0.065395 -0.081758 -0.037724 0.042444 -0.191509 -0.053998 0.202612 0.081196 0.289455 -0.101277 -0.191875 0.108254 -0.233052 0.236979 -0.259261 -0.028763 0.387273 -0.093649 0.227317 -0.017081 0.22539 -0.259984 -0.01324 0.184372 -0.120294 -0.085388 -0.043029 0.170816 0.058505 0.346757 0.165439 0.187778 0.026452 -0.103708 -0.113186 -0.194735 -0.022668 0.034452 0.130902 0.105905 -0.322433 0.059356 0.195957 -0.113165 -0.11965 0.032966 0.062939 -0.268386 0.041465 0.285019 -0.032693 -0.286373 -0.062372 0.294091 -0.113423 0.246587 0.114737 -0.18747 0.083192 -0.197169 -0.229673 -0.173155 0.035804 0.183315 0.032097 -0.180459 -0.217763 -0.068964 0.310757 -0.108674 0.3331 0.053176 0.026309 0.272238 0.02917 -0.061173 -0.092004 0.008811 -0.226691 0.231648 0.15022 0.364839 -0.174727 -0.004634 -0.312124 0.09428 -0.022382 0.024032 -0.107018 -0.039249 -0.079783 -0.110316 0.083943 0.160749 -0.031332 -0.149904 -0.125981 0.059068 0.028392 0.221635 0.33687 -0.130187 5.96E-4 0.235538 -0.071879 -0.058607 -0.024482 0.271894 0.394884 -0.082771 -0.206711 0.069617 0.125859 0.124023 0.221566 -0.039146 0.346422 0.170392 -0.258724 -0.226353 -0.242769 -0.156407 0.101886 -0.195461 0.27248 -0.032816 -0.109208 0.040406 0.143207 0.281694 0.095624 -0.255385 0.130008 0.061586 0.019449 0.19819 0.103633 0.107583 0.077099 0.096967 0.283052 -0.037465 -0.026135 -0.162838 0.281564 0.079321 0.107613 -0.025789 0.215126 -0.196019 0.295399 -0.427076 0.140172 -0.052925 0.279622 -0.255003 -0.091914 -0.048645 -0.291766 0.184751 -0.035359 -0.091795 0.197633 0.159778 0.039007 0.343437 -0.019463 0.46274 -0.22652 -0.22338 -0.029996 0.16465 0.123833 -0.158589 0.344288 0.242322 -0.422082 -0.195589 0.113462 0.032105 0.073815 0.215143 0.035893 -0.011802 -0.004721 0.170094 0.160606 0.141874 0.224683 0.159873 -0.262712 0.036565 -0.091847 -0.583834 -0.263389 7.09E-4 0.02953 0.212685 -0.217374 0.290018 -0.04172 0.166606 -0.069896 0.290113 -0.006117 0.185228 -0.119894 0.189221 0.256022 -0.036166 -0.026911 -0.016158 0.135906 -0.109033 -0.058874 0.004067 0.014569 -0.069017 -0.196904 0.100137 0.010564 0.018717 -0.252827 -0.090324 0.453531 0.080591 0.02205 0.069227 0.041938 -0.107534 0.548044 0.061769 0.196064 0.068013 0.190833 0.153949 0.050025 -0.276415 -0.124564 0.11766 0.21388 -0.448626 -0.295112 0.319079 -0.153971 0.242005 -0.385823 -0.019718 -0.074 0.192161 0.039021 0.294771 -5.0E-4 0.096354 -0.045411 -0.144216 0.038629 0.295353 0.025152 -0.007652 -0.535274 -0.023753 -0.236088 0.467894 -0.074376 -0.06895 0.234311 0.032732 0.04722 0.091861 -0.098817 0.002349 -0.0247 -0.255191 1.22E-4 0.095504 -0.06435 -0.611388 0.033285 0.090225 -0.010932 -0.144805 -0.165401 -0.033943 -0.339797
computer 0.484226 0.46667 -0.112583 0.066309 0.015341 0.1258 0.145578 0.079184 0.060292 0.131847 0.302211 -0.43807 0.053766 -0.259785 0.030862 -0.14586 -0.015738 0.015515 -0.190236 0.066737 -0.225302 0.103173 -0.091713 0.146425 0.408186 0.311505 -0.112899 -0.161579 0.123449 0.22801 -0.038824 0.271481 -0.038899 -0.130415 -0.010401 -0.014254 -0.203706 -0.087645 -0.050723 0.172514 0.162459 0.077496 0.03374 0.063515 0.274465 -0.174514 -0.219507 0.301576 -0.013922 -0.168381 0.12715 -0.006723 -0.060446 -0.223652 5.33E-4 0.045511 0.086084 0.16502 -0.124056 -0.005036 0.103527 -0.231797 -0.024899 -0.03269 -0.106535 -0.110424 0.024751 0.117532 0.122742 -0.218793 0.057181 0.436977 -0.122405 0.013753 -0.211343 -0.008839 -0.38768 0.04308 0.210724 -0.129328 -0.420017 -0.327248 -0.038775 -0.061657 -0.099071 -0.020186 0.016741 -0.052208 0.21669 -0.374621 -0.133292 -0.08896 0.040145 -0.06053 0.199513 0.03832 0.054774 0.152336 -0.317772 -0.410688 -0.093184 0.113365 0.118854 0.022493 0.066755 0.126236 0.13007 -0.241858 0.16804 0.063811 0.010406 -0.210996 0.091596 0.098212 -0.100621 0.112703 0.006678 0.224977 -0.047995 0.088373 -0.175187 -0.030528 -0.084023 0.018264 -0.079869 -0.301798 0.136577 0.086736 -0.033415 -0.160233 -0.058227 -0.100666 -0.185361 -0.114116 -0.076691 0.098109 0.095385 -0.101478 -0.005453 -0.175834 0.042433 -0.057909 0.006127 0.012486 -0.051599 0.238262 -0.182974 0.483808 -0.021793 -0.081186 -0.032288 0.462885 0.13323 -0.342508 -0.384977 0.146887 -0.148686 -0.296906 -0.351353 0.107576 -0.148165 0.288832 -0.102882 -0.223331 -0.175453 0.141189 0.282881 -0.156968 -0.059006 -0.170737 -0.24781 -0.116305 -0.243347 -0.218067 0.071243 0.139862 -0.051538 -0.165872 0.051223 0.11502 0.088665 -0.009607 0.289694 -0.085188 -0.095691 0.242419 0.005481 -0.123558 0.095388 0.174434 0.215315 -0.234725 -0.070744 -0.059015 -0.208433 -0.184411 -0.17904 -0.149017 0.124416 -0.34407 0.191775 0.129178 -0.131517 -0.029938 -0.158131 0.132806 0.165113 0.089741 0.115657 0.10864 -0.082492 0.228146 0.078055 -0.232746 -0.118822 0.169191 -0.120208 -0.125112 0.230163 -0.176454 -0.007007 0.380621 0.119927 -0.222445 0.113788 0.1433 -0.340443 0.201287 0.041618 0.086322 0.020497 -0.077566 0.018912 0.199855 0.241973 0.157599 -0.287969 -0.218094 -0.119113 0.301995 -0.112583 -0.015113 0.015805 -0.06863 0.178586 -0.06854 0.118662 0.048305 -0.362559 -0.291001 -0.16969 -0.008997 -0.00533 0.032761 0.311195 0.162082 -0.136315 -0.112195 0.137261 0.015412 0.019605 -0.137811 -0.214591 0.106652 0.264525 0.075005 -0.044811 -0.007156 -0.248573 -0.330407 0.14907 -0.011577 -0.005974 0.27877 -0.166575 -0.2755 -0.003981 0.063532 0.135418 -0.154354 0.090647 -0.027018 0.214752 0.055059 0.21279 0.109286 0.057882 0.065471 -0.104124 -0.197665 -0.120253 -0.154239 -0.353809 0.388381 -0.109561 -0.171427 0.037605 0.386404 -0.054405 0.108061
queen 0.072693 -0.152793 0.026246 0.008871 -0.277143 -0.318904 -0.075237 -0.112629 0.204332 -0.370164 -0.08033 0.195806 -0.064547 0.177407 0.371971 -0.115879 -0.035866 0.168689 -0.190928 -0.137548 -0.110818 0.269728 0.265978 0.040146 0.006206 -0.062336 0.225298 -0.115849 0.10121 0.011025 -0.060119 0.134656 -0.459413 -0.162839 -0.142598 0.16571 -0.104422 0.156258 0.34935 0.058069 -0.152412 -0.259196 -0.049587 -0.13651 0.058269 0.030461 -0.047345 0.097441 0.075329 0.242682 0.161801 -0.336828 -0.111898 -0.095992 0.29812 -0.027874 -0.215554 0.024295 -0.068917 -0.11427 0.09481 -0.227668 -0.038791 -0.114987 0.279643 -0.154483 -0.212763 0.122605 0.030395 -0.128473 -0.104723 -0.153886 0.224578 0.092585 -0.10584 0.163583 0.272732 -0.082757 -0.034573 0.153936 -0.235159 -0.157639 0.066613 -0.411366 0.176552 -0.146534 0.131576 -0.305366 0.116718 -0.401783 0.213063 0.016387 -0.370349 0.031394 -0.026025 0.023584 -0.09138 0.176326 -0.101839 0.023021 -0.221564 0.02904 -0.299004 -0.066033 -5.09E-4 -0.146675 0.105371 -0.2041 -0.100718 -0.15936 -0.365696 0.047324 -0.003587 -0.136644 -0.189339 0.198097 -0.19184 -0.083709 0.145037 0.108575 0.127601 0.079845 -0.052335 0.239142 0.011547 -0.119392 0.046745 -0.048466 -0.046336 -0.100999 -0.157248 -0.02524 -0.018163 -0.444945 -0.123763 -0.036992 0.268784 0.07128 -0.392223 0.070295 0.381613 0.175545 -0.102881 0.084969 0.056017 0.165467 -0.101849 0.026075 -0.014714 -0.287362 0.042516 0.058151 0.165453 0.237944 0.064368 0.127962 -0.053478 -0.207426 0.086694 -0.085907 -0.101784 0.429226 -0.104421 -0.327621 -0.111039 0.190762 -0.203 0.232469 0.540326 0.201261 -0.010208 -0.162488 -0.111502 -0.461657 -0.087231 0.295691 0.176962 0.159915 0.216874 0.00253 0.118428 -0.250675 -0.129674 0.223746 0.273272 0.003316 0.160483 0.084452 0.122359 -0.102164 -0.063724 -0.109368 -0.187423 0.164678 -0.176091 0.041555 -0.090313 -0.115095 -0.061553 -0.028936 -0.325175 0.041509 0.126005 -0.121818 0.098786 0.276954 -0.101281 0.131183 -0.058418 0.148755 -0.073709 -0.03271 0.209327 -0.096679 -0.074663 0.135068 -0.231757 0.202723 0.127806 0.085724 0.304166 0.272517 0.255594 -0.078196 -0.20771 -0.100767 -0.029057 0.2389 -0.242688 0.115601 0.015064 0.410992 -0.069213 0.173971 0.175642 -0.051811 0.003535 -0.187678 0.165159 0.265123 0.303928 0.219825 0.241803 0.088277 0.049657 0.401823 -0.114821 0.013278 -0.021579 -0.3407 -0.040101 -0.431897 -0.24186 0.185118 0.058337 0.012261 -0.084257 -5.0E-4 0.186766 -0.26616 -0.168031 -0.236225 -0.228837 0.206502 0.083923 0.077107 -0.015683 -0.386121 -0.133779 -0.297988 -0.209474 0.063104 0.145655 0.262922 -0.185021 -0.001959 -0.145033 -0.380351 0.042766 -0.054358 -0.019053 0.1997 0.01374 -0.232829 -0.001627 -0.191945 0.06389 -0.175718 -0.19005 -0.170965 -0.205218 -0.018975 -0.318334 -0.211565 -0.170356 0.426522 -0.205746 -0.131172 -0.31406 0.35295
wizard 0.170688 -0.110618 -0.112268 -0.327463 -0.076878 0.045569 -0.162555 0.062858 0.296101 0.179549 -0.109908 -0.194301 -0.311832 0.290028 0.379978 0.198973 -0.097158 -0.049362 -0.166432 -0.129731 -0.304579 0.072098 0.168918 0.273995 0.223401 0.153551 -0.19402 -0.104796 -0.119995 0.081184 -0.025028 -0.015666 -0.292148 0.173247 0.092909 0.224081 -0.09824 0.372011 0.207223 0.034469 -0.133953 -0.137321 0.222539 0.156201 -0.05285 -0.192764 -0.066657 -0.15071 -0.008858 0.200578 0.186647 -0.083853 -0.046399 -0.016685 0.343319 0.324242 0.049735 0.077604 0.008923 -0.016465 0.31512 -0.285429 0.295566 0.141881 0.024431 -0.199435 -0.166927 0.089287 0.15416 0.228964 0.334059 -0.260428 -0.022615 0.004955 0.19884 0.086002 -0.105306 7.03E-4 0.18068 0.142549 -0.358047 -0.344212 -0.173559 -0.268629 0.00406 -0.264536 0.018544 -0.089198 0.172273 -0.291725 0.2292 0.19632 -0.422779 0.140013 0.141556 -0.253252 -0.069994 0.372525 -0.405037 -0.170153 -0.107862 0.249359 0.132538 -0.315171 0.187513 0.005385 -0.115435 0.042373 -0.020265 0.112419 -0.149786 -0.321634 0.12094 -0.028782 0.109189 -0.117417 -0.099591 0.033046 0.050167 0.162361 0.137948 0.013826 0.162147 0.147376 -0.102369 0.017839 0.395365 0.025346 0.078868 -0.311128 -0.343227 0.095671 0.248495 -0.225124 -0.118591 -0.115071 0.039253 0.064958 -0.075028 -0.223108 -0.17626 0.020904 -0.011518 -0.242984 -0.0332 0.220283 0.01042 0.028645 -0.035826 0.197395 -0.071076 0.163561 0.194469 -0.182295 -0.371553 0.37402 -0.265346 -0.187757 -0.003128 -0.111152 -0.163802 0.596218 -0.008702 0.00707 -0.061092 0.069913 -0.258401 0.061479 0.406372 -0.032463 -0.026179 -0.074983 -0.136833 -0.290036 -0.141687 -0.096989 0.119936 0.32928 0.247405 0.031045 0.09189 -0.172322 -0.001196 -0.218106 -0.129435 0.072327 0.340161 -0.100325 0.057945 0.138088 0.056425 0.072535 0.003872 0.025052 0.301622 -0.055365 -0.095846 -0.298525 -0.259716 -0.336134 -0.016179 0.132294 0.205318 -0.291353 0.260815 0.253442 -0.280193 -0.164987 -0.110545 0.180152 0.021275 -0.376966 -0.25952 -0.229657 -0.101725 0.052823 0.126358 -0.059868 0.339486 -0.042861 -0.104595 -0.01367 -0.029411 -0.005279 -0.018498 -0.426256 -0.266685 0.350773 -0.073327 0.053787 0.005921 0.027295 0.006952 0.100249 -0.115017 0.10328 -0.245958 -0.265154 -0.150078 0.138462 -0.157004 -0.181405 0.021122 -0.069789 -0.216348 -0.016947 -0.097255 -0.078318 -0.262628 -0.442759 0.096906 -0.042592 -0.016688 -0.054574 -0.03678 0.196224 -0.188778 -0.076802 -0.147036 -0.062491 0.107241 -0.288658 -0.159417 0.266087 0.291521 0.235568 -0.288692 -0.588636 -0.143401 -0.069703 0.06868 0.046701 -0.126457 0.281202 -0.256721 -0.410263 -0.356482 0.282259 -0.224872 -0.063654 -0.15411 -0.222667 0.344413 0.027576 -0.069905 0.1526 -0.036061 -0.317571 -0.134503 0.118384 0.00317 0.073185 -0.316904 -0.26234 -0.188644 0.013773 -0.185037 0.210264 -0.170377 0.032983
oil 0.258664 0.094179 -0.295631 -0.023437 0.060886 0.047275 0.171698 -0.360807 0.25971 -0.020036 0.004701 0.162176 -0.218825 0.200357 0.035782 -0.102633 -0.334237 0.19874 -0.16758 -0.219359 0.079318 0.025773 -0.020278 0.069594 -0.131404 -0.077533 -0.054456 -0.099784 -0.064034 0.429089 0.236925 0.045395 -0.048573 -0.142427 0.027397 0.178358 0.214174 -0.264952 -0.220925 -0.306882 0.105016 0.148824 -0.046965 0.034757 -0.062042 -0.031777 -0.179108 -0.234914 0.098999 0.08513 -0.16007 -0.118973 -0.067621 -0.077928 0.114941 -0.119056 -0.422415 0.133938 -0.09023 0.026028 -0.162917 -0.043588 -0.170634 -0.028542 -0.034547 0.182545 -0.073863 0.084058 0.116266 0.279829 -0.072942 0.164368 -0.128888 0.148308 0.114707 -0.303722 0.029017 0.379159 0.397856 0.194289 -0.009009 -0.270606 0.200754 -0.109114 0.181332 0.242518 0.325254 -0.472147 0.126095 0.119015 -0.311186 -0.133886 -0.08667 -0.349417 -0.177227 -0.015393 0.021069 0.373829 0.032051 0.013971 0.02379 0.090946 -0.118359 -0.155815 -0.002047 0.247923 -0.017184 0.140644 -0.233916 0.121777 -0.058658 0.061549 0.494304 -0.315666 -0.537829 0.202943 0.066575 0.195178 -0.376876 -0.230737 0.044435 -0.28057 -0.142129 -0.035371 -0.07285 -0.161282 0.427646 -0.051767 0.03902 -0.221837 -0.056318 0.450266 -0.007139 -0.182255 -0.150595 -0.211519 -0.127796 -0.271676 -0.069484 -0.045 0.094109 -0.001059 0.104491 0.315749 -0.062493 0.086727 -1.77E-4 0.181381 0.166991 -0.458948 0.223309 0.226305 0.118589 0.038069 -0.00799 0.215056 0.233744 -0.116662 0.326575 0.317856 0.299115 0.373639 0.377948 -0.11299 0.413266 -0.42094 0.063037 -0.136819 -0.160105 -0.1656 -0.086542 -0.141553 -0.104267 -0.337052 -0.225419 -0.071004 0.069403 -0.152328 0.386453 0.220619 0.448409 -0.03443 0.393812 0.078465 -0.210966 0.086416 0.094548 -0.059437 0.061357 0.406578 -0.04047 -0.094451 0.150999 0.136904 -0.103254 -0.010959 -0.048674 -0.063381 -0.029647 -0.265065 0.235155 0.106426 0.233381 0.294479 -0.413796 0.074279 0.24654 -0.191784 -0.247311 0.201341 -0.10932 -0.241827 0.306143 -0.024275 -0.119976 -0.19931 0.106817 0.055999 0.302164 0.105544 0.02759 -0.059693 0.056463 -0.24045 -0.462732 -0.159414 -0.212248 0.144366 -0.227661 0.117509 0.204706 0.260402 0.185405 -0.053626 -0.095918 0.031309 -0.171401 -0.113829 0.197686 0.035274 0.141254 0.04556 0.071579 -0.300379 0.100194 -0.177291 -0.0784 -0.087888 0.04994 0.018964 -0.318552 0.07162 0.01591 0.525232 0.217035 -0.070324 -0.610106 -0.409809 -0.031084 -0.246484 -0.061477 -0.076916 -0.176996 0.108644 0.018422 -0.12425 0.204127 -2.1E-5 0.085559 0.087451 -0.172262 0.1488 -0.133455 0.198166 0.139487 0.190101 0.025316 0.185647 -0.007908 -0.200193 0.050185 0.217712 -0.147649 0.057814 -0.014865 0.043285 0.074668 -0.060916 -0.382776 -0.165018 0.049366 0.033719 -0.097436 0.091645 -0.082781 -0.353497 0.174084 -0.168327 0.090902 0.036189
currency 0.339304 0.408056 0.001911 -0.116444 -0.267634 0.276783 -0.041398 -0.008415 0.078003 -0.343062 -0.206344 -0.033123 -0.201298 0.156067 0.395331 -0.013891 0.054009 -0.023376 -0.066523 0.093447 -1.59E-4 -0.128112 0.052459 -0.307633 0.126456 0.10781 -0.327598 -0.184657 0.065754 -0.112202 0.554566 0.041216 0.287406 -0.146848 0.198113 0.076051 0.114579 -0.124095 -0.112699 0.123715 0.10463 -0.005677 0.084388 -0.1332 -0.155785 -0.07108 0.035528 -0.006229 0.413862 0.001858 0.086355 -0.089375 -0.004998 -0.094323 0.192507 0.189638 0.023052 0.043967 0.267084 -0.357246 -0.014801 -0.378874 0.012819 0.247726 -0.176472 -0.019599 0.23596 -0.180166 0.437843 0.251655 -0.224075 0.152956 -0.326974 0.619464 0.052518 0.084814 -0.117535 0.22133 0.292556 0.25235 -0.252663 0.21866 0.005447 -0.148342 0.096334 0.232422 0.015035 -0.091117 0.064483 0.27118 -0.537218 -0.019693 -0.285776 -0.379461 -0.187765 0.084099 -0.045691 0.179697 -0.332287 -0.011342 -0.294759 0.131868 0.020388 0.182951 -0.154778 0.117186 0.10832 0.370704 0.236477 -0.24295 0.210875 0.216784 0.204807 -0.05671 -0.493453 0.080009 -0.16336 -0.551349 -0.263772 -0.301785 -0.181882 0.035455 -0.10327 0.201501 -0.19511 0.088343 0.010374 -0.063309 -0.069753 -0.080008 -0.212632 0.030764 0.485689 0.009797 0.192832 0.32254 -0.231024 0.079039 -0.076214 0.166949 0.270706 0.158665 -0.014718 0.137511 -0.022138 0.157245 0.201449 0.106834 0.162298 -0.148574 0.187498 0.623314 0.152494 0.22864 -0.165822 0.310564 -0.129808 -0.102268 0.07494 0.16253 0.187066 0.399332 -0.012214 -0.556448 0.16399 -0.076938 0.206891 0.162474 -0.19432 -0.195039 -0.075403 0.133357 -0.037631 0.016598 0.125862 0.169991 0.102892 0.050388 -0.015558 0.040892 0.067479 -0.185331 -0.031187 -0.055798 -0.386217 -0.420262 -0.161977 -0.051395 0.094511 -0.100928 0.030429 -0.237917 0.048406 -0.447016 0.009524 0.080147 0.057532 0.210772 0.205459 -0.229015 0.22656 0.315132 0.253448 0.149617 -0.263009 0.070244 0.271391 -0.253067 -0.189632 0.327119 -0.001179 -0.209731 -0.008586 -0.107309 -0.062172 0.139504 0.253686 0.085061 0.317743 -0.009049 -0.128435 -0.254083 -0.131196 -0.002631 -0.215912 0.036195 -0.187023 0.339798 -0.202432 -0.123075 -0.183932 0.183944 0.036709 0.051005 0.300838 0.172539 -0.127152 0.066761 0.176788 0.135257 0.541127 -0.096747 -0.286396 -0.195332 0.125021 -0.034237 -0.039663 -0.136105 -0.099338 0.104311 -0.247129 0.120704 0.091151 0.274359 0.459256 -0.392079 -0.466249 -0.26314 0.446048 -0.087034 0.285364 -0.221741 -0.058916 0.253701 0.093475 0.178498 0.062536 -0.074881 -0.479311 0.572206 0.143978 -0.161013 -0.139438 0.187109 0.101723 -0.040226 0.01193 -0.022237 0.259048 -0.166585 0.081265 0.174888 0.141524 0.083011 -0.19202 0.442248 0.167883 -0.077694 -0.428069 0.025198 -0.089706 -0.096951 -0.471124 0.219048 -0.222752 0.090212 -0.168224 -0.072374 -0.663883 -0.191865
laundering 0.39934 0.253736 -0.218607 -0.268271 0.215197 0.20911 0.586325 0.507407 0.258964 0.320068 -0.172054 -0.221058 0.047827 -0.049084 -0.346405 -0.598937 -0.233461 -0.108051 0.085763 -0.332727 -0.120055 -0.443613 0.108305 -0.19024 0.158998 0.006284 0.753326 -0.303367 0.379813 0.174853 0.137869 -0.737232 0.034109 -0.119812 -0.035143 -0.607339 0.040201 0.324864 0.108146 0.064563 -0.113399 0.16935 0.261137 -0.334754 -0.189402 -0.111994 0.386171 -0.390719 0.120969 0.240732 0.015862 -0.092082 -0.003288 0.093135 -0.056072 0.010832 -0.176176 0.268579 0.070925 -0.253858 -0.323267 -0.488463 -0.417189 -0.204159 0.105582 -0.573641 -0.046272 -0.277576 0.27116 0.459145 0.243449 0.142469 -0.087254 0.196333 0.237254 -0.014395 -0.348127 0.236431 0.16367 -0.093375 -0.193989 0.211111 -0.343868 -0.155725 -0.181589 -0.320664 -0.138722 -0.356554 0.388951 0.161406 -0.134835 0.411778 -0.190564 -0.17513 0.28791 -0.184524 -0.381539 0.14678 0.059468 -0.139858 -0.510796 0.498859 0.162197 -0.031006 0.0924 0.297924 -0.059373 0.126967 -0.088283 -0.20527 0.003769 0.301458 -0.276106 -0.374074 -0.228269 -0.598107 -0.41188 0.031255 0.245459 0.17809 0.206765 -0.092035 -0.055542 0.018996 0.110636 0.251991 -0.258712 -0.225089 -0.197439 -0.39696 0.435006 0.059169 -0.121802 0.239672 0.051519 -0.296019 0.057111 0.185417 -0.799085 0.093082 -0.023486 -0.278029 -0.37526 0.333103 0.344379 0.564108 0.263551 -0.035179 0.033288 0.256526 -0.05525 0.336127 0.152279 -0.133513 -0.47013 0.215442 -0.123381 -0.124363 -0.080857 0.528376 -0.508037 -0.10295 -0.271759 -0.516893 -0.05493 -0.305169 0.049484 -0.240527 -0.27618 -0.248293 0.010102 -0.300671 -0.504868 -0.127398 0.226866 0.129146 -0.166894 -0.102004 0.308623 -0.510072 -0.009425 -0.063962 0.125794 -0.29644 -0.002193 0.211753 -0.014772 -0.10929 -0.466034 0.073803 7.26E-4 -0.46966 -0.268709 0.547474 0.593814 0.051961 -0.231508 0.0818 0.497757 -0.389814 0.375451 0.049982 0.049214 0.040906 -0.304829 0.008438 -0.139227 -0.285412 -0.388351 0.020115 -0.01118 0.006989 0.271984 -0.440507 -0.06473 0.067042 0.479508 0.25157 0.257963 0.04811 0.325045 0.170439 -0.207224 -0.116791 -0.391323 0.184428 -0.124729 0.16819 -0.029228 0.110952 0.118022 -0.106367 0.493326 0.389348 0.050271 0.217136 0.233151 -0.64988 -0.221021 0.043801 0.297781 -0.445102 0.170054 -0.228479 0.21686 -0.073536 -0.085818 0.065616 -0.513623 -0.080741 -0.154458 -0.156749 -0.415977 -0.014018 0.152225 -0.072159 -0.574741 -0.374101 -0.110382 -0.25491 -0.018528 -0.230072 -0.162666 0.136585 0.175328 -0.169836 -0.425306 -0.335501 -0.009542 0.305368 -0.333703 -0.458495 0.217889 0.090228 -0.016508 0.115482 -0.016971 0.046577 -0.233721 -0.075647 -0.016848 0.268635 -0.121796 -0.157371 0.095583 0.055741 -0.124944 -0.06485 -0.343232 -0.462007 0.107134 -0.135577 -0.081923 0.343051 0.067628 -0.257616 0.274692 0.382662 -0.111258 -0.176351
